tree
version=v4
num_class=3
num_tree_per_iteration=3
label_index=0
max_feature_idx=239
objective=multiclass num_class:3
feature_names=relative_spread depth_imbalance bid_ask_slope order_book_pressure flow_toxicity price_momentum volatility_ratio ofi vpin pressure_change_rate orderbook_gradient depth_pressure_ratio weighted_price_depth liquidity_imbalance price_change_lag1 order_flow_lag2 relative_spread_ma120 depth_imbalance_ma120 bid_ask_slope_ma120 order_book_pressure_ma120 weighted_price_depth_ma120 liquidity_imbalance_ma120 flow_toxicity_ma120 price_momentum_ma120 volatility_ratio_ma120 ofi_ma120 vpin_ma120 pressure_change_rate_ma120 orderbook_gradient_ma120 depth_pressure_ratio_ma120 relative_spread_std120 depth_imbalance_std120 bid_ask_slope_std120 order_book_pressure_std120 weighted_price_depth_std120 liquidity_imbalance_std120 flow_toxicity_std120 price_momentum_std120 volatility_ratio_std120 ofi_std120 vpin_std120 pressure_change_rate_std120 orderbook_gradient_std120 depth_pressure_ratio_std120 relative_spread_skew120 depth_imbalance_skew120 bid_ask_slope_skew120 order_book_pressure_skew120 weighted_price_depth_skew120 liquidity_imbalance_skew120 flow_toxicity_skew120 price_momentum_skew120 volatility_ratio_skew120 ofi_skew120 vpin_skew120 pressure_change_rate_skew120 orderbook_gradient_skew120 depth_pressure_ratio_skew120 relative_spread_kurt120 depth_imbalance_kurt120 bid_ask_slope_kurt120 order_book_pressure_kurt120 weighted_price_depth_kurt120 liquidity_imbalance_kurt120 flow_toxicity_kurt120 price_momentum_kurt120 volatility_ratio_kurt120 ofi_kurt120 vpin_kurt120 pressure_change_rate_kurt120 orderbook_gradient_kurt120 depth_pressure_ratio_kurt120 relative_spread_ma600 depth_imbalance_ma600 bid_ask_slope_ma600 order_book_pressure_ma600 weighted_price_depth_ma600 liquidity_imbalance_ma600 flow_toxicity_ma600 price_momentum_ma600 volatility_ratio_ma600 ofi_ma600 vpin_ma600 pressure_change_rate_ma600 orderbook_gradient_ma600 depth_pressure_ratio_ma600 relative_spread_std600 depth_imbalance_std600 bid_ask_slope_std600 order_book_pressure_std600 weighted_price_depth_std600 liquidity_imbalance_std600 flow_toxicity_std600 price_momentum_std600 volatility_ratio_std600 ofi_std600 vpin_std600 pressure_change_rate_std600 orderbook_gradient_std600 depth_pressure_ratio_std600 relative_spread_skew600 depth_imbalance_skew600 bid_ask_slope_skew600 order_book_pressure_skew600 weighted_price_depth_skew600 liquidity_imbalance_skew600 flow_toxicity_skew600 price_momentum_skew600 volatility_ratio_skew600 ofi_skew600 vpin_skew600 pressure_change_rate_skew600 orderbook_gradient_skew600 depth_pressure_ratio_skew600 relative_spread_kurt600 depth_imbalance_kurt600 bid_ask_slope_kurt600 order_book_pressure_kurt600 weighted_price_depth_kurt600 liquidity_imbalance_kurt600 flow_toxicity_kurt600 price_momentum_kurt600 volatility_ratio_kurt600 ofi_kurt600 vpin_kurt600 pressure_change_rate_kurt600 orderbook_gradient_kurt600 depth_pressure_ratio_kurt600 relative_spread_ma1800 depth_imbalance_ma1800 bid_ask_slope_ma1800 order_book_pressure_ma1800 weighted_price_depth_ma1800 liquidity_imbalance_ma1800 flow_toxicity_ma1800 price_momentum_ma1800 volatility_ratio_ma1800 ofi_ma1800 vpin_ma1800 pressure_change_rate_ma1800 orderbook_gradient_ma1800 depth_pressure_ratio_ma1800 relative_spread_std1800 depth_imbalance_std1800 bid_ask_slope_std1800 order_book_pressure_std1800 weighted_price_depth_std1800 liquidity_imbalance_std1800 flow_toxicity_std1800 price_momentum_std1800 volatility_ratio_std1800 ofi_std1800 vpin_std1800 pressure_change_rate_std1800 orderbook_gradient_std1800 depth_pressure_ratio_std1800 relative_spread_skew1800 depth_imbalance_skew1800 bid_ask_slope_skew1800 order_book_pressure_skew1800 weighted_price_depth_skew1800 liquidity_imbalance_skew1800 flow_toxicity_skew1800 price_momentum_skew1800 volatility_ratio_skew1800 ofi_skew1800 vpin_skew1800 pressure_change_rate_skew1800 orderbook_gradient_skew1800 depth_pressure_ratio_skew1800 relative_spread_kurt1800 depth_imbalance_kurt1800 bid_ask_slope_kurt1800 order_book_pressure_kurt1800 weighted_price_depth_kurt1800 liquidity_imbalance_kurt1800 flow_toxicity_kurt1800 price_momentum_kurt1800 volatility_ratio_kurt1800 ofi_kurt1800 vpin_kurt1800 pressure_change_rate_kurt1800 orderbook_gradient_kurt1800 depth_pressure_ratio_kurt1800 relative_spread_ma3600 depth_imbalance_ma3600 bid_ask_slope_ma3600 order_book_pressure_ma3600 weighted_price_depth_ma3600 liquidity_imbalance_ma3600 flow_toxicity_ma3600 price_momentum_ma3600 volatility_ratio_ma3600 ofi_ma3600 vpin_ma3600 pressure_change_rate_ma3600 orderbook_gradient_ma3600 depth_pressure_ratio_ma3600 relative_spread_std3600 depth_imbalance_std3600 bid_ask_slope_std3600 order_book_pressure_std3600 weighted_price_depth_std3600 liquidity_imbalance_std3600 flow_toxicity_std3600 price_momentum_std3600 volatility_ratio_std3600 ofi_std3600 vpin_std3600 pressure_change_rate_std3600 orderbook_gradient_std3600 depth_pressure_ratio_std3600 relative_spread_skew3600 depth_imbalance_skew3600 bid_ask_slope_skew3600 order_book_pressure_skew3600 weighted_price_depth_skew3600 liquidity_imbalance_skew3600 flow_toxicity_skew3600 price_momentum_skew3600 volatility_ratio_skew3600 ofi_skew3600 vpin_skew3600 pressure_change_rate_skew3600 orderbook_gradient_skew3600 depth_pressure_ratio_skew3600 relative_spread_kurt3600 depth_imbalance_kurt3600 bid_ask_slope_kurt3600 order_book_pressure_kurt3600 weighted_price_depth_kurt3600 liquidity_imbalance_kurt3600 flow_toxicity_kurt3600 price_momentum_kurt3600 volatility_ratio_kurt3600 ofi_kurt3600 vpin_kurt3600 pressure_change_rate_kurt3600 orderbook_gradient_kurt3600 depth_pressure_ratio_kurt3600
feature_infos=[4.7529560502218137e-05:0.0012096668360754848] [-1.0009740441005559:0.99624748966551868] [-0.00011382324802239444:0.00012811722990591079] [-7.9957290906888812:7.9997674115126927] [-0.0010669635864385466:0.0021467609331011772] [-4.2870308085316422:4.2743818815391492] [-0.057989805994145417:19.020639962576222] [-1.0139335346381122:1.016466006793493] [-163295.875:210987.59437130654] [-2072.3473360234516:1735.3460693359375] [-0.13945697247982025:0.10376275330781937] [-0.20054039359092712:0.15557973411537712] [-6.1449438640810126:6.7993139097406345] [-0.99795651463482138:0.99574720859527588] [-0.013330245245631546:0.018064723016488187] [-0.00093253128907345409:0.0021467609331011772] [4.776889418968369e-05:0.00018505951920815277] [-0.60723638601367103:0.51095972184913652] [8.0394937386485755e-06:7.5785956470074645e-05] [-1.9101508018461855:2.1796700634300117] [-1.8228123997954744:1.3258151270587895] [-0.60566478307979799:0.51109850312731631] [-0.00021008627405406306:0.00029278795253541526] [-1.7200158063322306:2.0553054657703385] [0.072106906212392796:12.199212200288475] [-0.38588193841278551:0.47584779907595048] [-33979.99334604101:84347.538538302077] [-84.61573495402088:434.13904331007893] [-0.044435361165078624:0.060738061632340155] [-0.14272924518833557:0.11771388824834934] [-4.4730414286697468e-07:0.00015829128704311388] [0.00088946443781554377:0.56900600773245791] [2.0728149843570534e-09:3.6322321214294267e-05] [0.0034133099445667397:3.5082636603677737] [0.0035914929939674495:2.495664446673393] [-0.00025057393385328775:0.56850672930027601] [-5.0996472706137827e-07:0.00064818335735400401] [3.2903939456845284e-05:2.2855865340891945] [0.004077456197636606:5.5564187674342289] [0.00032776346791851374:0.65074868200062097] [-40.114566122067245:66458.321499625148] [-0.7948718044213694:729.95834597875114] [5.4133698131414052e-05:0.048261592058536175] [-4.6179745646455001e-05:0.069571573387989319] [-1.0480023859207628:11.110468461163894] [-2.1471518221633237:2.2354966866839829] [-2.3125703506328268:9.2261938385326303] [-3.6331185332097227:5.6898893268304027] [-2.7739925354512085:5.1421427925264744] [-2.1471518221633237:2.2354966866839829] [-7.4130983067860212:6.4168040074644344] [-4.5167225773583413:5.4446805755789551] [-2.817337988625856:9.2104716222201493] [-1.8703909511484795:1.7501516046156307] [-4.3654135519903638:9.8108430152659754] [-11.093808940620804:11.079080204240075] [-5.1107789358156444:4.4959438660111433] [-3.8318874773756719:3.8819998524089936] [-2.6809543494356336:121.35430568905115] [-3.0143117132581905:6.9511146778440995] [-2.7394121011532371:95.145319106315355] [-4.2981309317636178:54.005333164586432] [-3.2893616218298258:38.628774765199061] [-3.0260297430354579:6.9349464599536494] [-1.7194020358281894:70.121850461377718] [-1.8016473641412858:48.800582030128254] [-3.3171352595984342:94.78451812193849] [-1.6411816097786673:7.8122729740325623] [-2.0519581449789848:102.20104261126592] [-2.157470381951796:120.68817680352085] [-2.8292747887508134:32.994276245401608] [-2.8230296681745108:23.201462173672596] [4.7838658689299961e-05:0.00013820863764418039] [-0.32430922909630072:0.3555943224959871] [8.5597922088709306e-06:4.8539162282169843e-05] [-1.0240771705273581:1.4401448557584606] [-0.84041286367027901:0.87592207562962543] [-0.32430922909630072:0.3555943224959871] [-9.5565438901227628e-05:6.7545621846185254e-05] [-0.80733726686061424:1.6540962826264531] [0.31916139356945267:7.3227079941119282] [-0.12494836527342439:0.37968128351197777] [-8637.7717617616072:59221.294161369704] [-26.661719623169539:87.537417955016721] [-0.030422932096109544:0.031404772389332675] [-0.092017825354503383:0.10108486598880637] [-3.7478518171892157e-07:9.4917026928132277e-05] [-0.00092718499294061141:0.46336913743766261] [1.162274035053779e-08:2.3546243157781986e-05] [-0.000280910421083636:2.5279980191405302] [-0.0020238187130048107:1.7485529703279103] [-0.0002744421594390496:0.46336913743766261] [-3.7588072375399334e-07:0.00033528273484669278] [-0.0011632541646309539:2.0573796003758336] [0.0025753348001788163:4.2477253361164236] [0.00021096541744795641:0.54064888530557376] [-8.181161176909038:43730.604687280873] [-0.43501763068859645:368.42727323352028] [-9.4966580678588792e-06:0.041379535962206136] [-4.9954161700535059e-05:0.058956784134068844] [-1.0284008258855182:24.80096915776787] [-2.1471518221633237:0.77711248007619826] [-1.4529175857441743:5.8294190442607041] [-1.9918884524878222:1.9149381643790753] [-2.5195657376048288:1.66180328344567] [-2.1471518221633237:0.77711248007619826] [-4.5465929073284581:5.1719719485285527] [-1.2477357880734166:2.3747894137456127] [-1.9794054536538055:5.7975160001080246] [-1.1529057987449187:0.5930204924950272] [-4.4867185048709928:14.877063092082194] [-24.328870405361631:24.721346840324124] [-5.5693747650674714:2.3326736670833057] [-2.8724316699665935:2.3433886412682772] [-8.414131664217317:607.40752865495551] [-3.0256887554750267:5.1322627761683313] [-2.7394121011532371:53.93757605756646] [-4.3291622653803614:9.6015284892240125] [-3.2971236557774151:7.9432327488189722] [-3.0241935973387077:5.1322627761683313] [-0.68705266540133902:42.95986006608495] [-1.4904873131300576:7.7378191132875331] [-3.3171352595984342:50.89375912106982] [-0.79861352051874168:2.2985296507127493] [-2.0519581449789848:303.48655616269895] [-1.1479492206234831:602.62163661614659] [-2.8292747887508134:60.559336444277015] [-2.8230296681745108:13.271369351345731] [4.7895451037215031e-05:9.2258680333759608e-05] [-0.25832517937856458:0.28937296108290739] [9.0312794314925783e-06:4.2583933347398184e-05] [-0.52634359708777201:1.4401448557584606] [-0.62689683932623264:0.69891725976826735] [-0.25835099219852087:0.2897976103707976] [-5.1703493135074492e-05:2.5907130133108561e-05] [-0.39572188225264393:1.6540962826264531] [0.3226302641865722:6.1418874604834448] [-0.053034733170388738:0.37959481288874247] [-2779.731033337242:59139.778728355137] [-13.33276004582236:32.985176153506735] [-0.021928375612470935:0.024236095628975305] [-0.082052610449539654:0.087377580392381388] [-3.5187303346242147e-07:7.3052028018677552e-05] [0.00024567362891589074:0.41720734248250835] [-2.8386157293469327e-09:1.790392206560302e-05] [-0.0059959184461716771:2.3242500682132921] [0.00014143707247185768:1.4695768528599411] [4.1729534870236568e-05:0.41728987448416727] [-4.7701113388620186e-07:0.00024403123587886719] [-0.00033492366253707473:2.0573796003758336] [-0.0028435196847184474:3.3869532994419358] [-6.3938520561547031e-05:0.5139087470949959] [65.448781693495491:31072.072066049623] [0.20128619060568176:223.20423744439674] [-2.3224410032209327e-05:0.030075208224045049] [-5.0529001808077244e-05:0.065811991622144378] [-0.47045812853455138:42.645459478955715] [-2.1471518221633237:0.56684383562273144] [-1.4545492944911187:6.0839801838739938] [-1.4976851549641206:1.0817838496782715] [-2.5195657376048288:1.1269852446760269] [-2.1471518221633237:0.56493476689610744] [-3.2361118940645497:6.3417199492838305] [-1.2445183096789496:2.3747894137456127] [-1.9862674014876602:5.2151678900082192] [-1.1542291782180181:0.25755071510868321] [-4.4706653054071959:13.976637542520983] [-39.147052841808183:42.42976863155198] [-3.7595180219670299:1.481466473450018] [-1.6138496308056636:1.7062712723709823] [-17.340455244902358:1805.6392064160773] [-3.0261645576548464:5.1322627761683313] [-2.7394121011532371:58.319145225643389] [-4.334836161456848:6.0704871948634702] [-3.3029732063901447:7.9432327488189722] [-3.0242527357063977:5.1322627761683313] [0.018550363096933274:76.804871549966748] [-1.3241670927889029:7.7378191132875331] [-3.3171352595984342:56.726180125658168] [-0.79916968470948346:2.1286889072695994] [-2.0519581449789848:403.13214982296842] [-4.7709099047083532:1792.7282562832734] [-2.8292747887508134:32.265793459107726] [-2.8230296681745108:5.139048356882685] [4.7956016144765435e-05:7.5314151140420225e-05] [-0.20106669654365866:0.21906182866880766] [9.1709455970495894e-06:3.7447075575188288e-05] [-0.28527243036652467:1.4401448557584606] [-0.49471037030872156:0.5353515006703955] [-0.20178947215481532:0.21763752267423353] [-3.2250285350016624e-05:1.7475765432367989e-05] [-0.26002445215960929:1.6540962826264531] [0.32875877504165357:5.8571476018175375] [-0.027507738922329713:0.37934560403227807] [-216.18498821199259:59091.118125000001] [-6.7936490869343595:19.272075526058909] [-0.019296369564294282:0.024244634745033355] [-0.063950501839575707:0.078150587495975185] [-1.7542024324106229e-07:5.8787174091645706e-05] [0.00011748906684636006:0.4022381386164991] [5.2904671447159434e-08:1.5517731981787792e-05] [-0.0011775098172205523:2.049167396725815] [-0.00059195139421425939:1.3244222959526988] [-5.1612046402979996e-05:0.40229947653599851] [3.8726333594596202e-07:0.00021088494130504942] [-0.0006852015717653398:2.0573796003758336] [-0.0067706891779069391:3.1386886068050646] [-5.3664468597947818e-05:0.4997503212334713] [45.472010718456595:25312.649633157704] [0.0018298430149299872:165.39558510520848] [2.2539436865933405e-05:0.026618970100089449] [3.4983915875695292e-05:0.06427129756567955] [-0.72038096149713837:59.581978214748645] [-2.1471518221633237:0.56608753173118065] [-1.4559959546666261:6.6872472643513179] [-1.4976851549641206:1.0141414491797442] [-2.5195657376048288:0.74881835182438083] [-2.1471518221633237:0.56528547447640276] [-3.2361118940645497:6.8663739283324148] [-1.2449194729628459:2.3755615413095197] [-1.9807854399135703:4.5459697293770756] [-1.1542919701316616:0.2565478825060995] [-3.5270025589463114:9.8992932914205412] [-50.430614364294172:56.195742027096117] [-3.0700235916364838:1.4412684796578932] [-1.4721601950584426:1.5436750055833588] [-23.960515082624802:3559.6449992502939] [-3.0262541426877134:5.1322627761683313] [-2.7394121011532371:71.701555289688429] [-4.3298339555969205:4.9785880610034425] [-3.2873520222850003:7.9432327488189722] [-3.0281203829098429:5.1322627761683313] [-0.041290741375414622:89.129762054854822] [-1.1398901828140577:7.7378191132875331] [-3.3171352595984342:33.473759711638195] [-0.797057034929745:2.1258045983280236] [-2.0519581449789848:307.6751310045014] [-10.619887557344962:3262.6680130634786] [-2.8292747887508134:21.189734422116558] [-2.8230296681745108:5.7517161679715123]
tree_sizes=3043 3060 3055 3180 3214 3178 3160 3193 3176 3163 3203 3197 3172 3168 3208 3198 3177 3196 3194 3225 3159 3162 3205 3167 3189 3208 3156 3168 3207 3202 3216 3216 3176 3221 3200 3206 3203 3217 3191 3170 3222 3210 3195 3219 3177 3196 3204 3169 3224 3210 3205 3219 3212 3183 3169 3226 3235 3207 3226 3227 3235 3219 3217 3234 3214 3218 3183 3222 3167 3174 3213 3223 3202 3214 3223 3223 3225 3239 3243 3220 3193 3226 3217 3207 3199 3201 3165 3216 3213 3160 3224 3225 3168 3174 3210 3169 3189 3223 3223 3194 3222 3231 3233 3187 3153 3243 3213 3200 3185 3197 3195 3197 3223 3165 3214 3220 3224 3215 3221 3212 3213 3205 3188 3207 3224 3201 3226 3212 3210 3189 3228 3206 3191 3238 3202 3192 3240 3239 3205 3244 3210 3213 3232 3232 3237 3238 3165 3198 3213 3186 3232 3213 3177 3207 3232 3209 3197 3224 3181 3251 3236 3210 3232 3244 3219 3183 3237 3207 3254 3236 3237 3184 3256 3181 3184 3223 3201 3190 3246 3220 3228 3258 3236 3215 3224 3179 3194 3246 3229 3208 3230 3181 3234 3258 3178 3180 3240 3248 3244 3260 3219 3242 3249 3201 3209 3233 3209 3256 3224 3195 3216 3244 3198 3243 3225 3225 3242 3261 3240 3261 3242 3234 3204 3274 3233 3247 3255 3250 3252 3260 3225 3256 3235 3197 3237 3260 3187 3243 3242 3212 3235 3254 3221 3237 3224 3222 3245 3263 3199 3197 3225 3217 3213 3250 3200 3233 3239 3196 3245 3287 3225 3242 3251 3222 3206 3227 3227 3203 3235 3231 3246 3260 3205 3212 3250 3233 3242 3229 3223 3208 3229 3245 3225 3220 3212 3252 3284 3230 3214 3270 3216 3255 3261 3251 3245 3233 3225 3250 3241 3224

Tree=0
num_leaves=27
num_cat=0
split_feature=44 44 44 186 78 103 232 82 130 44 155 128 107 193 191 230 172 128 91 161 98 205 153 164 91 93
split_gain=6147.31 11187.4 3104.4 2034.47 1533.41 1192.54 1058.6 901.048 889.947 874.424 910.155 1026.86 865.457 1323.53 960.89 1211.7 830.594 809.474 795.195 758.003 764.42 749.405 713.748 675.285 650.749 627.624
threshold=-1.0000000180025095e-35 1.0000000180025095e-35 1.4579699518614795 1.7540100008848948e-05 9.5540562550273803e-06 -0.15593542765946083 4.7085186349569623 13322.107642534962 1.2235352224939789e-05 4.6451791887440548 0.02927144109677977 5.4917628920981913e-05 0.14846632076780528 0.013523926414006607 0.028755999366272555 1.8120493070204458 0.83414424227675676 6.3883499008026426e-05 0.34421307938877294 0.07960476962566225 0.012517236206590268 1.3520961763123724 44.158678060197964 1.1518785870117123 0.31142039063399923 1.6072590046085351
decision_type=2 2 2 2 2 2 2 2 2 2 2 2 2 2 2 2 2 2 2 2 2 2 2 2 2 2
left_child=-1 3 -3 8 6 18 12 16 -2 17 -11 -12 13 -4 15 24 -8 25 22 20 23 -16 -6 -18 -15 -7
right_child=1 2 4 -5 5 9 7 -9 -10 10 11 -13 -14 14 21 -17 19 -19 -20 -21 -22 -23 -24 -25 -26 -27
leaf_value=-1.0970560904437379 -1.1002356941382745 -1.0970426753323934 -1.0970529646239811 -1.0986020737026352 -1.0988682904780787 -1.0993850360774762 -1.0962394431818789 -1.099421979964297 -1.0995235008413102 -1.0954734831442432 -1.0986096026751744 -1.0940420522551761 -1.0996942846490418 -1.0982620640604674 -1.0942990518567182 -1.0975850751988234 -1.0973737745443877 -1.0949685914025371 -1.099861355197437 -1.0967078759203286 -1.0968610627676065 -1.0983095102481237 -1.0957618370672557 -1.1003187357654971 -1.1002280840350083 -1.0934424351881573
leaf_weight=20448.117370605469 23173.57282179594 22029.754089355469 4086.1173315644264 17161.381683349609 1560.2100538015366 2348.335865020752 3233.84399497509 2791.619166135788 49595.41719943285 4268.3298922181129 2193.910336792469 554.54002916812897 9112.6580104827881 1842.2706731855869 445.03212180733681 2592.3673369288445 970.37690675258636 551.10268402099609 2611.2280597686768 2460.1259983181953 1379.4571816325188 7122.7125821113586 1159.7845960855484 2516.3918443918228 8512.3102341294289 171.03871154785156
leaf_count=61667 44447 66031 11091 40901 3888 6018 8966 6440 103958 11680 5624 1629 23196 4661 1223 6834 2526 1555 6872 6838 3654 18016 3240 6982 20847 495
internal_value=-1.09861 -1.09879 -1.09801 -1.09953 -1.09835 -1.09753 -1.09862 -1.09791 -1.09975 -1.09692 -1.09634 -1.09769 -1.0989 -1.09861 -1.09892 -1.09942 -1.09751 -1.09826 -1.09868 -1.09806 -1.09875 -1.09807 -1.09754 -1.0995 -1.09988 -1.09898
internal_weight=194892 174444 84513.5 89930.4 62483.8 15418.5 47065.3 13351.8 72769 10087.3 7016.78 2748.45 33713.5 24600.8 20514.7 12946.9 10560.2 3070.48 5331.22 7326.35 4866.23 7567.74 2719.99 3486.77 10354.6 2519.37
internal_count=479279 417612 228306 189306 162275 41001 121274 35406 148405 27001 18933 7253 85868 62672 51581 32342 28966 8068 14000 20000 13162 19239 7128 9508 25508 6513
is_linear=0
shrinkage=1


Tree=1
num_leaves=27
num_cat=0
split_feature=2 14 14 14 14 14 14 14 14 0 14 0 14 0 2 1 14 14 2 2 1 2 2 208 2 146
split_gain=97445.1 78668.6 161378 1878.51 1823.85 269.874 206.502 227.186 203.523 151.18 325.144 129.368 265.188 181.938 113.272 108.409 106.725 101.832 99.7001 90.2695 87.6821 84.0219 75.7372 43.8092 40.3682 39.2045
threshold=-1.0000000180025095e-35 0.00051866062906870977 -0.00052583678535934148 0.00076185301485541047 -0.00076347776278675773 0.00063177645228772162 -0.00044102513869761118 0.00039631427746490477 -0.00062745911870761126 5.0003934206354496e-05 -0.00048671274242784569 5.0003934206354496e-05 0.0004850094095745563 5.374465906419297e-05 1.4275708508648678e-05 0.44085245951752655 0.0010431766473432316 -0.0011215904510467952 1.8977808394993193e-05 1.4275708508648678e-05 -0.22058086842298505 1.7306940208072778e-05 1.3934858543507291e-05 13268.002243297902 1.4791575267736336e-05 1.1640902615382427
decision_type=2 8 10 8 8 10 10 10 10 2 10 2 10 2 2 2 8 8 2 2 2 2 2 2 2 2
left_child=-1 2 4 5 17 15 9 18 19 -4 -11 -9 -13 -14 -7 25 22 -2 -8 -6 23 -19 -5 -10 -22 -3
right_child=1 3 6 16 8 14 7 11 20 10 -12 12 13 -15 -16 -17 -18 21 -20 -21 24 -23 -24 -25 -26 -27
leaf_value=-1.101612267243623 -1.1015436755163668 -1.0993302503139926 -1.0932050686238866 -1.1014258324748532 -1.1006474851206016 -1.1007358268133116 -1.0927538125087917 -1.0931141827061974 -1.0978351878454911 -1.0973209889889803 -1.0935945747944094 -1.0935419132036379 -1.0983236063520969 -1.0940267669883983 -1.0996764748858403 -1.0975716969076845 -1.1015417596425412 -1.101335966894966 -1.093117896253649 -1.0997160751086812 -1.0998599607698196 -1.1006294711706133 -1.1007420295652512 -1.0990556540739995 -1.0990351351068219 -1.0977528061693838
leaf_weight=64963.988891601562 19152.333435058594 2624.7610746026039 2625.3144960403442 2916.6235027313232 1868.909725189209 1912.0840721130371 45148.484389930964 4073.7243735790253 530.07392773032188 280.98655700683594 844.49173259735107 1656.6256935596466 197.53451544046402 160.45538324117661 1737.585147857666 397.63475799560547 20721.494862884283 5119.5852737426758 8105.5303301811218 1886.9375038146973 1216.2199685573578 2168.4741744995117 2949.3491230010986 526.9923440515995 956.81304860115051 148.99846976995468
leaf_count=196001 57864 6772 3819 8650 5332 5428 61845 5849 1232 626 1290 2509 473 257 4594 897 61896 15268 11652 5053 3290 6179 8376 1346 2440 341
internal_value=-1.09861 -1.09711 -1.09574 -1.10108 -1.10107 -1.09968 -1.09292 -1.09287 -1.0997 -1.0936 -1.09452 -1.09342 -1.09405 -1.09639 -1.10023 -1.09904 -1.10144 -1.10143 -1.09281 -1.10018 -1.09915 -1.10113 -1.10108 -1.09844 -1.0995 -1.09925
internal_weight=194892 129928 96519.5 33408.5 33426.3 6821.06 63093.1 59342.4 6985.95 3750.79 1125.48 6088.34 2014.62 357.99 3649.67 3171.39 26587.5 26440.4 53254 3755.85 3230.1 7288.06 5865.97 1057.07 2173.03 2773.76
internal_count=479279 283278 186324 96954 98004 18032 88320 82585 18693 5735 1916 9088 3239 730 10022 8010 78922 79311 73497 10385 8308 21447 17026 2578 5730 7113
is_linear=0
shrinkage=1


Tree=2
num_leaves=27
num_cat=0
split_feature=58 58 58 209 99 205 102 93 106 72 156 140 151 160 229 209 43 44 193 102 198 161 201 139 44 82
split_gain=8357.39 10436 1937.65 1602.98 960.232 1037.07 926.551 914.933 810.116 788.531 815.501 831.739 787.072 765.892 763.685 750.994 655.936 606.751 605.46 602.506 574.334 562.079 553.952 552.853 540.789 764.792
threshold=1.0000000180025095e-35 -1.0000000180025095e-35 116.12298685188175 34.260847143985394 0.020029423684233084 1.3710231985662902 0.53828820275124933 1.3766084963488272 -0.069384080804538131 4.9884489059721836e-05 8.0082783584195685 0.00049830475523372634 0.39620663359999891 -0.0043975404885001233 1.7926098481119557 51.981169863710434 0.012968296481913055 2.9717706870619565 0.11289639479780318 0.89035703768203822 1.9097075573850606e-06 0.045680795515689897 1.316217989204914 3.3967474245272524 1.7324010043493394 7242.5933123326859
decision_type=2 2 2 2 2 2 2 2 2 2 2 2 2 2 2 2 2 2 2 2 2 2 2 2 2 2
left_child=1 18 4 9 5 -2 13 16 12 -3 11 -11 -4 14 -6 17 19 21 -1 -7 -17 -8 -16 -14 -9 -26
right_child=2 3 8 -5 6 7 15 24 -10 10 -12 -13 23 -15 22 20 -18 -19 -20 -21 -22 -23 -24 -25 25 -27
leaf_value=-1.0973787003140718 -1.0993546029926624 -1.1000005262535544 -1.0960042261834584 -1.0988171860255878 -1.0979119733435689 -1.0982785498042664 -1.0967086235304826 -1.0974927934786585 -1.0991722810287299 -1.0934463651385795 -1.0994549476048625 -1.0986483971542305 -1.0985475775036631 -1.0972803500826265 -1.0989886926753138 -1.1015024010175329 -1.0961816303180978 -1.0984017208665102 -1.0949482089574958 -1.0958464898658906 -1.0960510413377786 -1.0981688257690425 -1.0947004488485317 -1.0951785172858932 -1.097909787957303 -1.0996864561522399
leaf_weight=20465.384483337402 4453.2038764953613 51320.638920038939 1479.9175183773041 18710.001655578613 1061.9783221781254 4274.3005555868149 5587.8384174108505 5104.0252266228199 12179.762020111084 408.61617895960808 18638.538853615522 852.57618793845177 8291.9309014081955 5779.6856775283813 293.25199607014656 182.98121559619904 4230.7449226379395 9271.0648828446865 965.81598663330078 1166.7928872108459 3303.3627225160599 4125.0353277027607 3494.2272194027901 462.25955522060394 4777.8710851967335 4010.2001791596413
leaf_count=61395 12049 102041 4080 43465 2904 11718 16503 15360 31002 1178 40679 1943 20629 16115 834 462 11890 23606 2906 3263 9256 11965 9861 1239 12844 10092
internal_value=-1.09861 -1.09915 -1.09789 -1.0996 -1.09762 -1.09803 -1.09727 -1.09778 -1.09865 -1.0998 -1.0993 -1.09696 -1.09803 -1.09654 -1.09566 -1.09762 -1.09707 -1.09785 -1.09727 -1.09776 -1.09634 -1.09733 -1.09503 -1.09837 -1.09827 -1.09872
internal_weight=194892 111362 83530.4 89930.4 61116.6 28017.1 33099.4 23563.9 22413.9 71220.4 19899.7 1261.19 10234.1 10629.1 4849.46 22470.3 9671.84 18983.9 21431.2 5441.09 3486.34 9712.87 3787.48 8754.19 13892.1 8788.07
internal_count=479279 253607 225672 189306 168722 77216 91506 65167 56950 145841 43800 3121 25948 29714 13599 61792 26871 52074 64301 14981 9718 28468 10695 21868 38296 22936
is_linear=0
shrinkage=1


Tree=3
num_leaves=27
num_cat=0
split_feature=14 14 2 14 2 14 2 1 14 2 0 14 2 4 14 14 237 0 2 14 2 1 208 6 32 14
split_gain=349581 2037.52 5139.35 1133.31 1113.77 224.999 2457.48 123.333 107.181 228.696 104.776 395.628 82.0103 60.6043 52.9582 46.9182 44.2312 32.5928 32.5239 60.7771 32.1965 32.5812 26.2707 25.2316 34.3314 24.8336
threshold=-0.00052583678535934148 -0.00039765384257586198 1.0000000180025095e-35 -0.00070248204033917106 8.6864192780922184e-06 -0.00019547475943840027 -1.0000000180025095e-35 -0.22058086842298505 -0.00091911764759644327 1.3626116924569944e-05 5.0003934206354496e-05 -0.00048671274242784569 1.4967988136049827e-05 -1.300759959121933e-05 -0.00059412782051941994 -0.00057735482201005657 375.24300527243946 5.3924399360177022e-05 1.7306940208072778e-05 -0.0012303624819022486 1.8662032744032334e-05 -0.31198158860206598 12923.610020413411 3.8081587409359625 2.0927580608372108e-06 -0.00059412782051941994
decision_type=8 8 2 10 2 8 2 2 8 2 2 10 2 2 10 10 2 2 2 10 2 2 2 2 2 8
left_child=3 2 -2 8 -5 6 -3 13 18 -10 -4 16 15 14 17 -9 -12 -6 -1 -20 -11 -22 -16 -21 -25 -14
right_child=1 5 10 4 7 -7 -8 12 9 20 11 -13 25 -15 22 -17 -18 -19 19 23 21 -23 -24 24 -26 -27
leaf_value=0.005853097604138627 0.0058108731024361414 0.005108323491967201 -0.0024179290419186106 0.005838842181678329 0.0035879165630479711 -0.0029044327118250852 -0.0027085220049341565 0.0047724350112261288 0.0057501233123075307 0.0049813803275056941 0.0022714656872197046 -0.0021041631843352025 0.0039335530520453101 0.0043515734187623417 0.0017266371956362072 0.0037984283653437314 -0.00049914705810758019 0.00090062060668030504 0.0057692788056759765 0.0054871361298236545 0.0033335563358620822 0.0045955591264227212 0.002872733681540997 0.0021920084933577501 0.0049215739263612389 0.0031916456863767357
leaf_weight=35733.730288505554 794.94575500488281 356.22247499227524 3957.3861977458 4005.4078989028931 752.3085805773735 109988.68362605572 13044.322996199131 1514.8926086425781 6642.0486392974854 1581.6200284957886 217.33247458934784 1829.4913199543953 925.04067230224609 314.31207180023193 331.86455103754997 614.10383629798889 63.607375264167786 41.547423183917999 8233.8705062866211 1034.4496936798096 238.88283491134644 763.48353147506714 372.3709092438221 42.92763489484787 785.36922770738602 711.37904810905457
leaf_count=108239 2410 1079 5718 12131 1955 255942 18164 4276 19999 4528 511 2757 2465 863 744 1619 115 87 24814 3064 610 2138 916 100 2243 1792
internal_value=3.10527e-10 -0.00277384 -0.00121452 0.00558941 0.00465574 -0.00286056 -0.00250043 0.00380583 0.00575192 0.0054607 -0.00213542 -0.00160538 0.00410989 0.00317336 0.00292501 0.00449208 0.0016374 0.00344756 0.00581051 0.00565962 0.00471616 0.00429607 0.00233427 0.00517402 0.00478095 0.00361187
internal_weight=194892 130252 6862.76 64639.6 9583.23 123389 13400.5 5577.82 55056.4 9226.04 6067.82 2110.43 3765.42 1812.4 1498.09 2129 280.94 793.856 45830.3 10096.6 2583.99 1002.37 704.235 1862.75 828.297 1636.42
internal_count=479279 286696 11511 192583 26848 275185 19243 14717 165735 27275 9101 3383 10152 4565 3702 5895 626 2042 138460 30221 7276 2748 1660 5407 2343 4257
is_linear=0
shrinkage=0.00294


Tree=4
num_leaves=27
num_cat=0
split_feature=2 14 14 14 14 14 14 14 14 0 14 0 14 0 2 1 14 3 14 2 2 2 2 15 3 6
split_gain=96980 78275 160329 1873.78 1819.17 269.005 204.428 224.816 202.832 149.048 322.638 127.225 263.077 180.851 113.222 107.956 106.378 106.063 101.477 96.714 90.2241 84.1107 75.8057 51.7113 42.4188 41.1671
threshold=-1.0000000180025095e-35 0.00051866062906870977 -0.00052583678535934148 0.00076185301485541047 -0.00076347776278675773 0.00063177645228772162 -0.00044102513869761118 0.00039631427746490477 -0.00062745911870761126 5.0003934206354496e-05 -0.00048671274242784569 5.0003934206354496e-05 0.0004850094095745563 5.374465906419297e-05 1.4275708508648678e-05 0.44085245951752655 0.0010431766473432316 -0.069716219076266586 -0.0011215904510467952 1.8977808394993193e-05 1.4275708508648678e-05 1.7306940208072778e-05 1.3934858543507291e-05 3.0183647981469409e-06 0.82942704761974417 1.7004772424697878
decision_type=2 8 10 8 10 10 10 8 10 2 10 2 10 2 2 2 8 2 10 2 2 2 2 8 2 2
left_child=-1 2 4 5 18 15 9 19 20 -4 -11 -9 -13 -14 -7 -3 22 23 -2 -8 -6 -20 -5 -10 -16 -19
right_child=1 3 6 16 8 14 7 11 17 10 -12 12 13 -15 24 -17 -18 25 21 -21 -22 -23 -24 -25 -26 -27
leaf_value=-0.0029359648667249207 -0.0028699480551595386 -0.00062018672995338994 0.0052752214024583896 -0.0027553641105529207 -0.0019930369065859592 -0.0020796275768014921 0.005715151696033342 0.005363711252960977 -0.0002781440361780538 0.0012624655588677359 0.0048989153906609977 0.0049503035222593934 0.00028181629972104312 0.0044782155921162048 -0.0012991157724054321 0.0010159464474364646 -0.0028681449211473533 -0.0015591189214163644 -0.0026671276623762099 0.0053640009809198981 -0.001080335437303137 -0.0019741671158624062 -0.0020847296004290338 0.0010011864562142979 -0.00022070904554590543 -0.00060085775308502262
leaf_weight=64875.090942382812 19134.417419433594 2773.7385749816895 2630.9258675575256 2914.8484191894531 1868.2169561386108 1911.3635711669922 45250.087774068117 4082.5682134628296 1331.9009790420532 281.10470581054688 845.93488073348999 1659.4764032363892 197.56953465938568 160.69706690311432 1321.5338847637177 397.85612106323242 20702.630629867315 780.52764418721199 5116.2823047637939 8120.2862415313721 1886.3981256484985 2166.9902172088623 2947.4712219238281 342.87413644790649 415.55698132514954 774.92888399958611
leaf_count=196001 57864 7113 3819 8650 5332 5428 61845 5849 3361 626 1290 2509 473 257 3559 897 61896 2162 15268 11652 5053 6179 8376 781 1035 2004
internal_value=-3.76366e-09 0.00146497 0.00280582 -0.00241597 -0.00240442 -0.00104121 0.00555831 0.00560047 -0.00106998 0.00489097 0.00399261 0.00506405 0.00445692 0.00216943 -0.00158558 -0.000414669 -0.00276893 -0.000529515 -0.00275727 0.00566175 -0.00153469 -0.00246109 -0.00241837 -1.57586e-05 -0.00104152 -0.00108216
internal_weight=194891 130016 96631.2 33385 33402.5 6820.05 63228.7 59470.7 6984.85 3757.97 1127.04 6100.31 2017.74 358.267 3648.45 3171.59 26565 3230.23 26417.7 53370.4 3754.62 7283.27 5862.32 1674.78 1737.09 1555.46
internal_count=479279 283278 186324 96954 98004 18032 88320 82585 18693 5735 1916 9088 3239 730 10022 8010 78922 8308 79311 73497 10385 21447 17026 4142 4594 4166
is_linear=0
shrinkage=0.00294


Tree=5
num_leaves=27
num_cat=0
split_feature=44 44 44 184 138 99 102 138 44 160 229 44 209 125 97 170 24 174 91 113 89 44 86 157 135 171
split_gain=8125.56 10795.7 1836.2 1599.52 918.573 900.793 929.059 800.73 818.629 766.986 829.282 692.681 671.639 698.202 653.991 650.273 585.408 582.836 676.825 575.745 572.793 529.126 673.073 587.312 579.225 520.081
threshold=1.0000000180025095e-35 -1.0000000180025095e-35 10.670857161113714 4.9983348469742203e-05 -472.36542987920399 0.020029423684233084 0.53828820275124933 804.4978163610175 1.7324010043493394 -0.0043975404885001233 1.7926098481119557 10.954332098511456 51.981169863710434 103.66093914134576 24.506096941453709 375.22107244772542 1.6146631030070857 0.49751377349428266 0.36448155081453848 0.36762716068909729 1.9393392854251543 2.9717706870619565 1.485378429834897e-05 0.048392126530948563 0.15242204934043871 -0.07453594109121793
decision_type=2 2 2 2 2 2 2 2 2 2 2 2 2 2 2 2 2 2 2 2 2 2 2 2 2 2
left_child=1 -1 5 -3 -4 7 9 17 -9 10 -7 -6 21 20 -5 -11 19 -2 -19 -10 -14 23 -23 -8 -24 -18
right_child=2 3 4 14 11 6 12 8 16 15 -12 -13 13 -15 -16 -17 25 18 -20 -21 -22 22 24 -25 -26 -27
leaf_value=0.0014018697443409782 0.0050895788541224308 -0.0012649268647190823 0.0045619664696719565 -0.00077179289918255728 -0.00032006468677492394 0.0005753823223247546 0.0017894333247197808 0.0010994869392149092 -0.00233808393929287 0.00070827476219000138 0.003484684155612287 0.001180541858943275 0.00068225241872429206 0.0038707994891533566 7.9552387191795919e-05 0.0029450729760713669 0.00012617961698416962 -4.1975004718542232e-05 0.0036544367432455173 0.0044348635480585758 0.0055066723535994446 -0.00011053130900331948 0.0034284049595657566 0.00034117529498974046 -0.00095725169317740306 0.0049352286922179972
leaf_weight=20461.932067871094 486.1871799826622 56606.334340572357 369.16139221191406 20805.934648036957 19037.714347362518 1088.4535582661629 5800.4180945158005 9560.4372408092022 1312.2738637030125 4470.3364559710026 3820.144031226635 3089.7900013923645 2150.9322876036167 1251.8209134042263 12473.447944641113 1500.5056632459164 14892.793675065041 1055.1222314238548 719.48606550693512 117.62222412228584 235.57662343978882 7953.5035500526428 917.89068698883057 4154.9011245965958 362.51276111602783 196.37556168437004
leaf_count=61667 1421 113466 1032 46363 47026 2963 17101 28561 3286 12461 10772 9088 5834 3572 29477 4205 38839 2951 2042 327 701 20056 2471 12040 994 563
internal_value=4.29745e-10 -0.000525452 0.000685833 -0.000964209 -3.36962e-05 0.000946727 0.00127156 0.000560359 0.000414818 0.00197862 0.00283964 -0.000110481 0.000934536 0.00209268 -0.000452686 0.00127063 1.85159e-05 0.00223865 0.00145673 -0.00177897 0.00115951 0.000714887 0.000207898 0.00118506 0.00218573 0.000188927
internal_weight=194892 110348 84544 89885.7 22496.7 62047.3 33707 28340.3 26079.5 10879.4 4908.6 22127.5 22827.6 3638.33 33279.4 5970.84 16519.1 2260.8 1774.61 1429.9 2386.51 19189.2 9233.91 9955.32 1280.4 15089.2
internal_count=479279 250973 228306 189306 57146 171160 93170 77990 71576 30401 13735 56114 62769 10107 75840 16666 43015 6414 4993 3613 6535 52662 23521 29141 3465 39402
is_linear=0
shrinkage=0.00294


Tree=6
num_leaves=27
num_cat=0
split_feature=14 14 2 14 2 5 14 2 14 2 5 14 136 14 220 5 32 2 5 5 2 14 5 6 5 5
split_gain=347509 2038.72 5107.64 1119.19 1103.3 503.335 227.169 2444.83 105.804 226.522 170.312 93.2327 92.4688 236.687 70.2415 62.9624 53.8142 49.5237 47.2773 37.3722 32.3462 59.9842 101.509 65.5898 32.3371 32.1518
threshold=-0.00052583678535934148 -0.00039765384257586198 -1.0000000180025095e-35 -0.00070248204033917106 8.6864192780922184e-06 -1.4157990813255308 -0.00019547475943840027 -1.0000000180025095e-35 -0.00091911764759644327 1.3626116924569944e-05 -2.1694363632394618 -0.00057735482201005657 2.3071006108801106 -0.00048671274242784569 1.3074667000998683 -0.029723339538325663 4.1081122411562356e-06 1.4275708508648678e-05 -1.0868436024299328 0.029094784225172032 1.7306940208072778e-05 -0.0012303624819022486 -1.5774144530296323 3.6493102405297178 -2.0725783791472048 1.3284770967347497
decision_type=8 8 2 10 2 2 8 2 10 2 2 10 2 10 2 2 2 2 2 2 2 8 2 2 2 2
left_child=3 2 -2 8 -5 16 7 -3 20 -10 -11 17 25 14 19 -13 24 -7 -12 -14 -1 -22 23 -23 -6 -4
right_child=1 6 12 4 5 11 -8 -9 9 10 18 15 13 -15 -16 -17 -18 -19 -20 -21 21 22 -24 -25 -26 -27
leaf_value=0.0057086928670747371 0.0056689064943458486 0.0049844649693607098 -0.0024085119179887127 0.0056961229570978329 0.0015329419863793913 0.0047620957373186385 -0.0028432063964320205 -0.0026490243661834441 0.0056088100491373813 0.0018954005841017197 0.0040872633299835724 0.0027363205104207334 0.00079038167606887736 -0.0019856155426535094 -0.0009237118543432999 0.0040190120845648636 -6.5078994629393417e-05 0.0040351921890228555 0.005036467240903517 0.0035204641283995233 0.0056264627948933157 0.0047017412338962363 0.0053451759626285452 0.0019970917653749937 0.002599206609275873 -0.0017255142510964705
leaf_weight=35818.585267066956 796.73056268692017 356.94003593921661 3749.3667578399181 4014.4393863677979 413.07821035385132 1624.6997044086456 109869.26088696718 13021.667874217033 6657.3562784194946 180.35782527923584 592.01953792572021 545.13292610645294 85.988438010215759 1357.275055795908 99.723154693841934 782.52131831645966 99.354100048542023 1555.7154605388641 1816.6934213638306 81.179963082075119 8253.6236801147461 170.52556753158569 1562.2049541473389 133.96995496749878 565.90612286329269 685.39079201221466
leaf_count=108239 2410 1079 5394 12131 914 4610 255942 18164 19999 415 1607 1331 179 2068 172 2108 189 4198 5254 211 24814 482 4614 311 1367 1077
internal_value=0 -0.00271492 -0.00118556 0.0054521 0.00454361 0.00371509 -0.0028 -0.00244507 0.00561014 0.00532689 0.00460138 0.00413816 -0.00208739 -0.00149802 0.000977555 0.00349332 0.00194554 0.00440697 0.00480372 0.00212052 0.00566712 0.00551983 0.00504751 0.00351641 0.00215021 -0.00230311
internal_weight=194890 130104 6855.65 64786.2 9600.85 5586.41 123248 13378.6 55185.3 9246.43 2589.07 4508.07 6058.92 1624.17 266.892 1327.65 1078.34 3180.42 2408.71 167.168 45938.9 10120.3 1866.7 304.496 978.984 4434.76
internal_count=479279 286696 11511 192583 26848 14717 275185 19243 165735 27275 7276 12247 9101 2630 562 3439 2470 8808 6861 390 138460 30221 5407 793 2281 6471
is_linear=0
shrinkage=0.0028812


Tree=7
num_leaves=27
num_cat=0
split_feature=14 14 100 14 14 14 14 16 16 16 5 204 72 5 14 114 150 14 194 194 1 12 12 3 12 14
split_gain=79483.3 233170 1565.2 1132.71 1125.59 1124.84 827.484 627.572 495.402 413.897 409.427 368.235 351.577 300.438 263.172 176.958 289.421 160.531 153.228 148.057 133.93 166.186 164.858 130.694 149.209 126.55
threshold=0.00051866062906870977 -0.00052583678535934148 -1.0000000180025095e-35 0.00070475583483610145 -0.00048671274242784569 -0.00070248204033917106 0.0004400870404890002 5.0018501982170473e-05 5.2237818909034579e-05 4.8649749730126744e-05 -1.488838195800781 5.5930533895368042e-05 5.0065909650948475e-05 1.0836094021797182 0.0004850094095745563 -1.0000000180025095e-35 1.2594321393541321 -0.00039765384257586198 11073.100394881503 11337.344753467178 0.1781989857554436 0.33593053895384045 -0.22880379773450113 0.40549382927417194 0.14666874312012582 -0.00035291152026459049
decision_type=8 10 2 8 8 10 10 2 2 2 2 2 2 2 10 2 2 10 2 2 2 2 2 2 2 10
left_child=1 5 8 13 7 -1 11 9 -3 -4 23 15 -8 -2 -14 16 -6 -17 -9 -16 21 -15 -22 -7 -25 -13
right_child=3 2 4 -5 6 10 12 18 -10 -11 -12 25 14 20 19 17 -18 -19 -20 -21 22 -23 -24 24 -26 -27
leaf_value=-0.0027608258259369236 -0.0019868692373345822 -0.002661663567971225 -0.0025699512853940569 -0.00277035218027466 -0.0019354373940434729 0.00024701607548050902 0.0046046359145189243 -0.00041202622014952677 0.0042873636658649419 0.0043887477060625939 -0.0019472552706942473 0.0042482304238657606 0.0038848172505191541 -0.00055742306649007661 0.00068753026137236917 0.0048277079001066911 0.0052112823298871699 0.0054903472769833889 0.0032570120777434693 0.0039287839901446719 -0.0026143815949874107 -0.0025390075974937656 0.00066264476986259186 -0.0027415856238989351 0.00079731713217328238 0.0050122284949111395
leaf_weight=54851.187744140625 7076.7176361083984 280.58365032076836 74.166249930858612 55180.467205792665 70.831852853298187 1052.0116391181946 2697.5836511850357 433.32198116183281 121.55604007840157 1313.7744615077972 8056.4204635620117 2119.4359741210938 896.14760148525238 903.4289687871933 488.08216774463654 3309.6429848670959 136.25069698691368 40907.457397401333 120.12488827109337 153.49266135692596 153.84887492656708 575.3883763551712 727.62438356876373 306.99562659859657 144.99408468604088 12736.759695440531
leaf_count=165735 20038 838 222 164694 202 2553 4183 1107 196 2100 23032 3449 1516 2310 1129 5002 195 56422 219 258 455 1692 1688 927 336 18781
internal_value=-1.47466e-08 0.00129588 0.00510792 -0.00261257 0.00514275 -0.00260183 0.00520882 0.00298085 -0.000552459 0.00401462 -0.00168965 0.00529677 0.00397756 -0.00168994 0.00287649 0.00542831 0.00276601 0.00544078 0.000386201 0.00146605 -0.000799337 -0.00132905 8.8888e-05 -0.000309323 -0.00160416 0.00490333
internal_weight=194888 130271 65859.2 64617.5 65457.1 64411.6 63515.7 1941.39 402.14 1387.94 9560.42 59280.4 4235.31 9437.01 1537.72 44424.2 207.083 44217.1 553.447 641.575 2360.29 1478.82 881.473 1504 451.99 14856.2
internal_count=479279 288402 95819 190877 94785 192583 91137 3648 1034 2322 26848 84051 7086 26183 2903 61821 397 61424 1326 1387 6145 4002 2143 3816 1263 22230
is_linear=0
shrinkage=0.0028812


Tree=8
num_leaves=27
num_cat=0
split_feature=14 14 44 14 44 44 5 14 44 58 44 44 44 44 44 44 44 14 58 5 0 14 184 5 6 14
split_gain=350365 1657.4 1459.01 1149.19 647.511 1033.43 327.095 213.69 769.907 205.302 185.358 162.678 155.969 122.12 269.257 115.084 126.775 107.435 102.891 93.4876 84.8369 219.89 109.261 80.6074 74.7553 72.5506
threshold=0.00051866062906870977 0.00039631427746490477 -1.0000000180025095e-35 0.00070475583483610145 1.0000000180025095e-35 0.10281293829385028 1.4003553256872336 0.00014863258035288266 -1.0000000180025095e-35 -1.0000000180025095e-35 0.10281293829385028 -1.0000000180025095e-35 -1.0000000180025095e-35 1.0000000180025095e-35 1.4579699518614795 1.0000000180025095e-35 0.10281293829385028 0.00097485813804769588 -1.0000000180025095e-35 -1.488838195800781 5.0003934206354496e-05 0.0004850094095745563 5.1925288097412702e-05 1.3641664034745533 1.6035126908265254 0.00059665928099219168
decision_type=8 8 2 8 2 2 2 10 2 2 2 2 2 2 2 2 2 8 2 2 2 8 2 2 2 10
left_child=1 7 -3 6 20 -6 12 -1 -9 10 -10 -8 -2 -11 -15 -14 -17 23 -13 -7 -4 -22 -23 -5 -25 -20
right_child=3 2 4 17 5 19 11 8 9 13 -12 18 15 14 -16 16 -18 -19 25 -21 21 22 -24 24 -26 -27
leaf_value=-0.0028496053229302041 0.0057317878249701021 0.0055872764146489501 -0.0024192981946275132 0.0055009662304581295 0.0056838759131476397 0.00068968316399881818 0.0056259822535211406 0.004874029269637533 0.0048186834433179733 -0.0027197676838342632 -0.0023223099467704414 0.0056131722946811237 0.0042130174835543288 0.0032964730550938542 -0.0022334014846826411 0.0057363252057276055 0.0045684799977097779 0.0056956965432679437 0.0020240989232768723 -0.0012248619606630401 -0.0021102351057398988 0.0028591187191826539 -0.0013057744186585828 0.0054758385661413129 0.0044137369742539871 0.0033949280561926237
leaf_weight=107464.80518651009 1235.6104140281677 242.63924014568329 3405.5612742900848 9193.3997955322266 218.78440356254578 245.8212109208107 229.54406785964966 116.03671872615814 59.142959535121918 11770.061864703894 60.183852821588516 115.65498065948486 3155.468740850687 73.600808560848236 3759.8144328594208 1202.2198543548584 2214.2871075570583 43916.780241549015 589.32979965209961 1484.0516950488091 948.44343030452728 124.69863548874855 88.850146859884262 1009.7442594766617 1252.607959151268 713.30501794815063
leaf_count=254677 3699 724 4884 27117 655 501 686 339 176 16223 92 345 8530 196 5575 3599 6144 131158 1354 2491 1418 305 146 2974 3445 1826
internal_value=1.32085e-08 -0.00272735 -0.00133799 0.00547183 -0.00159637 -0.00020574 0.00454294 -0.0028035 -0.00249065 -0.00254526 0.00120352 0.0033745 0.00478938 -0.00257407 -0.00212648 0.00461192 0.00497991 0.00563044 0.00300855 -0.000952075 -0.00218957 -0.00151576 0.00111942 0.00538015 0.00488852 0.00277561
internal_weight=194890 130062 6758.85 64828 6516.21 1948.66 9455.42 123304 15838.8 15722.8 119.327 1647.83 7807.59 15603.5 3833.42 6571.98 3416.51 55372.5 1418.29 1729.87 4567.55 1161.99 213.549 11455.8 2262.35 1302.63
internal_count=479279 288402 11124 190877 10400 3647 26183 277278 22601 22262 268 4211 21972 21994 5771 18273 9743 164694 3525 2992 6753 1869 451 33536 6419 3180
is_linear=0
shrinkage=0.0028812


Tree=9
num_leaves=27
num_cat=0
split_feature=14 14 2 14 2 5 14 2 14 2 5 0 14 14 5 5 32 130 5 183 5 209 2 14 5 6
split_gain=345048 2033.9 5080.73 1104.3 1092.66 498.06 226.805 2435.64 104.741 224.311 168.874 104.477 392.218 92.4357 62.4591 54.4211 53.5063 52.0995 46.8359 33.7052 32.1065 36.5511 32.0125 59.3867 100.562 65.0605
threshold=-0.00052583678535934148 -0.00039765384257586198 1.0000000180025095e-35 -0.00070248204033917106 8.6864192780922184e-06 -1.4157990813255308 -0.00019547475943840027 1.0000000180025095e-35 -0.00091911764759644327 1.3626116924569944e-05 -2.1694363632394618 5.0003934206354496e-05 -0.00048671274242784569 -0.00057735482201005657 -0.029723339538325663 0.36799599230289465 4.1081122411562356e-06 1.4450767569479194e-05 -1.0868436024299328 -0.060846480734434154 -2.0725783791472048 32.342774643258757 1.7306940208072778e-05 -0.0012303624819022486 -1.5774144530296323 3.6493102405297178
decision_type=8 8 2 10 2 2 8 2 10 2 2 2 10 10 2 2 2 2 2 2 2 2 2 10 2 2
left_child=3 2 -2 8 -5 16 7 -3 22 -10 -11 -4 15 17 -15 -13 20 -7 -12 -17 -6 -22 -1 -24 25 -25
right_child=1 6 11 4 5 13 -8 -9 9 10 18 12 -14 14 -16 19 -18 -19 -20 -21 21 -23 23 24 -26 -27
leaf_value=0.0055629477035193092 0.0055324955966420944 0.0048696557839232133 -0.0023135572593916353 0.0055523258948722946 0.0014955670911827998 0.0046393649601965308 -0.0027823004392207025 -0.002592089411729049 0.0054656884891163705 0.0018457879190964055 0.0039835011172986694 0.0004652885485465385 -0.0020117307526213769 0.0026673950549551103 0.0039182361396759291 0.0043043304824570772 -6.6102022805104876e-05 0.0039088324879359799 0.0049083002525280922 0.0013269044716721688 0.0029366889094791199 0.0012412227797343617 0.0054828924287459585 0.0045822957908061681 0.0052089668393162517 0.0019450403714724024
leaf_weight=35918.518529891968 798.36054420471191 357.44531631469727 3946.9836903810501 4025.0555477142334 413.46418285369873 1689.0724387764931 109711.85082504153 13004.387996673584 6675.7330646514893 180.637131690979 593.36225128173828 157.67790892720222 1824.8455237150192 546.05872690677643 784.17970407009125 67.870984584093094 99.395417124032974 1498.4801926016808 1821.3793687820435 55.679133832454681 432.45263719558716 134.21047648787498 8276.4269104003906 170.94592297077179 1566.3873300552368 134.18169486522675
leaf_count=108239 2410 1079 5718 12131 914 4780 255942 18164 19999 415 1607 317 2757 1331 2108 188 189 4028 5254 121 1078 289 24814 482 4614 311
internal_value=0 -0.00265659 -0.00115915 0.00531339 0.00442997 0.00362257 -0.00273995 -0.00239219 0.005467 0.00519116 0.00448447 -0.00204222 -0.00153342 0.00403438 0.00340573 0.00156517 0.00189829 0.00429637 0.00468159 0.00296853 0.00209811 0.00253621 0.00552248 0.00537906 0.00491908 0.00342707
internal_weight=194885 129925 6851.42 64959.9 9622.37 5597.31 123074 13361.8 55337.6 9271.11 2595.38 6053.06 2106.07 4517.79 1330.24 281.228 1079.52 3187.55 2414.74 123.55 980.127 566.663 46066.5 10147.9 1871.51 305.128
internal_count=479279 286696 11511 192583 26848 14717 275185 19243 165735 27275 7276 9101 3383 12247 3439 626 2470 8808 6861 309 2281 1367 138460 30221 5407 793
is_linear=0
shrinkage=0.00282358


Tree=10
num_leaves=27
num_cat=0
split_feature=2 130 130 204 191 32 225 72 230 77 234 135 228 198 189 92 228 173 204 222 182 179 22 145 135 75
split_gain=96076.2 13338.4 1441.52 1204.02 537.999 536.5 622.492 533.179 510.706 647.596 490.39 483.279 463.437 541.007 539.014 500.842 553.09 462.759 472.603 442.553 436.352 430.024 385.928 384.952 384.799 382.647
threshold=1.0000000180025095e-35 1.5598226998259882e-05 1.2171135715814471e-05 8.6359389081772298e-05 -0.019489635690898694 1.0627879389275905e-06 0.19745322408223262 4.9502130351739258e-05 1.0000000180025095e-35 0.13680930593496329 0.6888997423300206 -0.13582883953012057 1.091858499615274 9.7394989526115058e-07 -0.072244865299400954 3.1552747630992236e-05 3.0640747120411009 0.69407492235751389 3.6308905822537921e-05 -0.068300034464458217 0.33258060862062161 -0.017297883233286019 1.4251899385916053e-05 1.2430526535456814 -0.19953634861753217 -0.20387934923474413
decision_type=2 2 2 2 2 2 2 2 2 2 2 2 2 2 2 2 2 2 2 2 2 2 2 2 2 2
left_child=-1 2 5 4 22 6 10 12 -9 17 -2 -12 13 20 -15 23 -17 -10 25 -5 -4 -20 -3 -14 -6 -19
right_child=1 3 7 19 24 -7 -8 8 9 -11 11 -13 15 14 -16 16 -18 18 21 -21 -22 -23 -24 -25 -26 -27
leaf_value=-0.0028122144776887297 0.0015076069487331735 0.0013965090099800005 -0.00022807528129596368 0.00063040994066308135 0.003196224156467661 0.0023420705378928075 -0.00032512863641452714 0.0025221194538491728 0.00055264239308469554 -0.0012191572067417368 0.0011997157831651146 0.0037593406890059533 0.0007799554263554731 0.004100467225832038 0.0024885908605373382 0.00122072126846618 0.0027368802900562682 0.003291898880650315 0.00059493292667178006 -0.00041535951384450131 0.0024900194692493711 0.0019608086911956611 4.5920636814534408e-05 0.0029701073015130485 0.00026979674435653891 -0.0004620941465677836
leaf_weight=64699.745701700449 1038.870675265789 8800.9561407268047 891.63380116224289 3910.0687704086304 365.57312965393066 14720.766661882401 383.98834922909737 3971.4682747423649 3428.998597830534 713.77280616760254 636.75953668355942 7751.9349673688412 763.56576842069626 2160.0337390899658 7085.8932059705257 9444.3358552455902 2407.9682904481888 260.00597989559174 2076.3919906616211 18424.973557472229 995.72387433052063 16053.027502894402 2087.3311097919941 3962.3178048729897 16569.511919021606 1277.0172781646252
leaf_count=196001 2230 19158 2236 9121 663 29198 967 7739 8048 1930 1410 13156 1755 3518 13856 20879 4589 466 4853 46884 1948 33099 5117 7355 39846 3257
internal_value=-2.4015e-08 0.00139761 0.00211315 0.000256004 0.000647951 0.00268317 0.00319484 0.00186113 0.0015846 0.00142817 0.00333839 0.00356507 0.00213832 0.00258405 0.00286532 0.00183893 0.00152886 0.00151004 0.00167695 -0.000232243 0.00120591 0.0018044 0.00113763 0.00261629 0.000333078 0.00017348
internal_weight=194883 130183 80024.5 50158.4 27823.4 24532.3 9811.55 55492.2 27780.7 23809.2 9427.57 8388.69 27711.5 11133.3 9245.93 16578.2 11852.3 23095.4 19666.4 22335 1887.36 18129.4 10888.3 4725.88 16935.1 1537.02
internal_count=479279 283278 162489 120789 64784 46961 17763 115528 59392 51653 16796 14566 56136 21558 17374 34578 25468 49723 41675 56005 4184 37952 24275 9110 40509 3723
is_linear=0
shrinkage=0.00282358


Tree=11
num_leaves=27
num_cat=0
split_feature=2 0 97 164 193 82 115 91 210 196 101 167 174 193 135 233 235 106 182 85 130 167 217 166 118 82
split_gain=23971.6 3589.73 1511.34 826.934 735.643 925.951 728.792 671.659 885.747 637.002 630.712 655.437 698.141 625.071 608.985 772.565 622.444 563.512 695.304 556.811 600.573 674.29 623.506 554.452 551.422 549.512
threshold=1.0000000180025095e-35 4.9787910871012327e-05 24.506096941453709 1.6961252207612467 0.11289639479780318 24555.684156812036 -0.33300975015439788 0.30984645653798054 0.013375905372875795 -0.016366368422125487 -0.28632085349288439 -1.7133347514928301 0.47363595463487468 0.093010510728858506 0.07280810276243746 -0.66039353117819477 0.029507331217972003 0.069978756681741749 -0.77236564765688354 0.022933135357361609 2.2345144275928993e-05 7.7845798830858 0.15581611248475993 -0.473035874722251 -0.04200742232529403 -944.70626626995124
decision_type=2 2 2 2 2 2 2 2 2 2 2 2 2 2 2 2 2 2 2 2 2 2 2 2 2 2
left_child=4 9 23 -4 5 7 -5 24 14 -2 -10 12 -12 -7 17 -16 -17 18 -9 20 21 22 -13 -3 -1 -18
right_child=1 2 3 6 -6 13 -8 8 10 -11 11 19 -14 -15 15 16 25 -19 -20 -21 -22 -23 -24 -25 -26 -27
leaf_value=-0.00049398372565392131 0.0011519964448687143 -0.0020898667251076134 0.00010292357964138132 0.0025937297983901261 0.002947103409325308 -0.0018035812698893297 -0.00026163589521611318 0.00021426012015913492 0.0027178254518433675 -0.001180137609824252 0.0028527521496548853 -0.00096631458359064002 0.00084032539288347147 0.0016334900122993848 0.0038688882630198789 -0.0020697570243776229 -0.0022336876603492335 0.0016104390613839292 0.0027196090411769841 -0.0011369264164758088 0.001892114601070527 0.0011576344556919263 0.0041541126257856999 -0.0005222775354932741 0.0010842915602702651 0.0013234178562633188
leaf_weight=2161.4534816741943 946.02322387695312 1906.7884902954102 24849.868326216936 2112.0821480751038 2357.2535247802734 1222.9969515800476 1074.4723830223083 962.89983230829239 1636.8891830444336 67212.996994018555 2301.3511506319046 3027.1494916975498 3413.9810357093811 643.16264390945435 794.93999528884888 508.48867607116699 362.89099550247192 10495.646515518427 10693.447289943695 1486.9136271476746 2541.4773789942265 3385.2896590530872 201.70168304443359 31699.545106858015 9599.1975081562996 7287.8467135727406
leaf_count=6535 2110 3780 60410 5565 7074 3707 2752 2907 4915 137047 6909 9162 10294 1936 2381 1542 1101 31593 32113 4501 7645 10201 604 71614 28929 21952
internal_value=2.23584e-08 -0.000701198 -0.000207435 0.000276597 0.0013985 0.00134029 0.00163066 0.00140036 0.00154554 -0.00114775 0.00104685 0.00087955 0.00165081 -0.000618392 0.00183401 0.00121242 0.00095339 0.00208523 0.00251267 0.000465275 0.000725578 0.000277196 -0.00064576 -0.000611256 0.000794168 0.00115449
internal_weight=194887 129802 61642.8 28036.4 65085 62727.7 3186.55 60861.6 49100.9 68159 17994.8 16357.9 5715.33 1866.16 31106.2 8954.17 8159.23 22152 11656.3 10642.5 9155.62 6614.14 3228.85 33606.3 11760.7 7650.74
internal_count=479279 283278 144121 68727 196001 188927 8317 183284 147820 139157 54231 49316 17203 5643 93589 26976 24595 66613 35020 32113 27612 19967 9766 75394 35464 23053
is_linear=0
shrinkage=0.00282358


Tree=12
num_leaves=27
num_cat=0
split_feature=14 14 2 14 2 5 14 2 0 14 14 2 5 14 5 5 32 130 5 24 30 5 232 5 2 14
split_gain=343357 2031.17 5054.28 1092.94 1079.49 494.657 226.914 2425.15 104.197 391.013 103.442 221.434 167.629 91.7278 62.0316 54.1384 53.2789 51.8456 46.4525 43.7147 32.4413 31.9059 35.1123 31.224 31.1164 58.7895
threshold=-0.00052583678535934148 -0.00039765384257586198 1.0000000180025095e-35 -0.00070248204033917106 8.6864192780922184e-06 -1.4157990813255308 -0.00019547475943840027 1.0000000180025095e-35 5.0003934206354496e-05 -0.00048671274242784569 -0.00091911764759644327 1.3626116924569944e-05 -2.1694363632394618 -0.00057735482201005657 -0.029723339538325663 0.36799599230289465 4.1081122411562356e-06 1.4450767569479194e-05 -1.0868436024299328 3.0178651252211375 4.7412216288563034e-06 -2.0725783791472048 2.8387515309144491 1.3284770967347497 1.7306940208072778e-05 -0.0012303624819022486
decision_type=8 8 2 8 2 2 8 2 2 10 10 2 2 10 2 2 2 2 2 2 2 2 2 2 2 10
left_child=3 2 -2 10 -5 16 7 -3 23 15 24 -12 -13 17 19 -10 21 -7 20 -15 -14 -6 -23 -4 -1 -26
right_child=1 6 8 4 5 13 -8 -9 9 -11 11 12 18 14 -16 -17 -18 -19 -20 -21 -22 22 -24 -25 25 -27
leaf_value=0.0054298259119517286 0.0053989992688740773 0.0047529476455270567 -0.0023680207867531797 0.0054184140296463486 0.0014632157961050566 0.0045327119033781952 -0.0027239605954837319 -0.002537235564945786 0.00045530191304570417 -0.0019688741913771839 0.0053353574851625661 0.0018048872262972206 0.0041652534379524519 0.00294830936557586 0.0038288050994879671 0.002901431735438375 -6.4568231356872553e-05 0.0038189945697224741 0.0047939836942810926 0.00080248287700053446 0.0023332981100833801 0.0015362821984919071 0.002987666788330884 -0.0016730755199700312 0.0053533721252380633 0.0048040364744464867
leaf_weight=35989.133177757263 800.00942993164062 358.11836051940918 3353.2165994644165 4033.3419828414917 413.60709118843079 1691.3736710250378 109603.76097273827 12990.861436843872 157.69564631581306 1823.4714195728302 6688.4591217041016 180.73385810852051 504.94839930534363 459.45388001203537 785.09765458106995 123.66298100352287 99.391421288251877 1500.328359156847 1824.1924228668213 87.024715483188629 89.152404069900513 199.03431358933449 368.03990399837494 589.95130896568298 8291.3103637695312 1874.4904794692993
leaf_count=108239 2410 1079 4792 12131 914 4780 255942 18164 317 2757 19999 415 1391 1151 2108 309 189 4028 5254 180 216 442 925 926 24814 5407
internal_value=7.73033e-11 -0.00260073 -0.00113388 0.00518717 0.00432649 0.00354022 -0.00268243 -0.00234137 -0.00199849 -0.00150043 0.00533676 0.00506835 0.00438067 0.00394206 0.00332861 0.00153057 0.00185652 0.00419763 0.0045729 0.00260773 0.00389195 0.00205182 0.00247962 -0.00226421 0.00539074 0.00525223
internal_weight=194880 129801 6848.01 65079.1 9636.69 5603.35 122953 13349 6048 2104.83 55442.4 9287.49 2599.03 4523.28 1331.58 281.359 1080.07 3191.7 2418.29 546.479 594.101 980.681 567.074 3943.17 46154.9 10165.8
internal_count=479279 286696 11511 192583 26848 14717 275185 19243 9101 3383 165735 27275 7276 12247 3439 626 2470 8808 6861 1331 1607 2281 1367 5718 138460 30221
is_linear=0
shrinkage=0.0027671


Tree=13
num_leaves=27
num_cat=0
split_feature=2 74 74 80 144 118 173 83 150 162 73 195 191 99 80 98 107 82 179 97 196 165 100 132 148 58
split_gain=95605.4 12594.3 2329.23 891.603 690.351 648.471 629.15 607.318 595.015 528.361 517.416 498.168 448.954 448.281 612.538 548.042 869.239 530.023 430.487 578.387 543.049 433.762 386.469 642.673 384.523 371.496
threshold=1.0000000180025095e-35 1.7033278047326443e-05 1.3506827992841866e-05 4.4960811761518329 2.6303109769259553e-06 2.7189440180319253 0.55350499432995937 -0.97178992511462392 1.566767941170246 -0.59768025961550209 0.10264618298249845 0.32230517373283601 0.11575673083818121 0.016389581222142808 1.6209500777721406 0.013155980150451932 0.032077988772369968 19459.397207882121 -0.017297883233286019 7.8938588469735924 -0.011844820471563386 -0.081384737984108821 24.058841779370422 0.2434742455476597 5.7376921926336854e-05 119.68914968180333
decision_type=2 2 2 2 2 2 2 2 2 2 2 2 2 2 2 2 2 2 2 2 2 2 2 2 2 2
left_child=-1 2 4 24 6 18 -2 -8 9 -6 -7 13 -13 14 -9 17 -17 -15 -4 20 -20 -21 -11 -24 25 -3
right_child=1 3 5 -5 8 10 7 11 -10 22 -12 12 -14 15 -16 16 -18 -19 19 21 -22 -23 23 -25 -26 -27
leaf_value=-0.0027521521845665616 0.0037187892670130199 0.001455407252400426 0.00036455273437381174 -0.00089018261121756516 0.0025000819103526495 0.0030367338414022797 0.00078057471952893559 3.1156557689527796e-05 0.0037225540329451114 0.0012533975412084681 -0.00033868495477952097 0.0033659438499956669 -0.00032971625379329131 0.0030251700493745073 0.0033113287947749625 0.00048322529407058244 0.0030000436252924883 0.0017003982940946903 -0.0017450006100847388 0.0016426905567537365 0.0018723448060726702 0.00072693517624529186 0.0035365246263276704 -0.00095789486761679702 0.00016180950461508581 -0.0015830504369057365
leaf_weight=64607.225965857506 3378.0131456851959 3025.1991919279099 3179.8083624839783 6093.3045654296875 5365.254150390625 2859.7950103580952 1567.7492246031761 1349.4662541747093 1298.3980783224106 10204.891597151756 394.94745180010796 6263.1724503040314 261.35242176055908 10842.360181719065 643.3924617767334 2356.5968529880047 1896.2096176147461 2942.6728937625885 323.39204406738281 6345.6378024220467 16063.17610758543 10545.962947845459 1321.2625205516815 297.79739785194397 31109.322765350342 342.24853527545929
leaf_count=196001 5688 6526 7563 16109 10393 5233 3597 3309 2188 22415 999 11011 656 19824 1138 5552 3480 6184 909 13440 33241 24313 2276 787 75492 955
internal_value=-3.50523e-08 0.00136486 0.00194348 8.55191e-05 0.00234093 0.00144316 0.00259011 0.00245449 0.0019163 0.00177976 0.00262669 0.0025533 0.00321765 0.00233684 0.00109095 0.00247445 0.00160569 0.00274242 0.00133747 0.00143042 0.00180085 0.00107101 0.00145281 0.00270885 0.000257978 0.00114614
internal_weight=194879 130271 89701.3 40570.1 49988.6 39712.7 31501 28123 18487.6 17189.2 3254.74 26555.2 6524.52 20030.7 1992.86 18037.8 4252.81 13785 36458 33278.2 16386.6 16891.6 11824 1619.06 34476.8 3367.45
internal_count=479279 283278 184196 99082 98498 85698 60439 54751 38059 35871 6232 51154 11667 39487 4447 35040 9032 26008 79466 71903 34150 37753 25478 3063 82973 7481
is_linear=0
shrinkage=0.0027671


Tree=14
num_leaves=27
num_cat=0
split_feature=2 192 92 1 167 135 155 140 191 145 221 173 80 212 189 154 179 147 35 161 18 205 191 195 185 109
split_gain=23827.5 3631.67 1030.15 729.639 534.259 534.559 527.91 555.525 584.897 505.774 647.958 740.626 530.751 604.429 576.91 534.571 502.519 486.989 461.454 459.755 436.573 444.381 439.055 435.25 432.858 517.632
threshold=-1.0000000180025095e-35 2.1606126771991456 0.00010707046964060205 -0.021864308888202195 -11.782450528410001 0.054240484806744503 0.04316201760005349 -0.00024656817436474884 0.058392583708454293 1.6323220121452884 -0.078063875642977593 4.1509928683142876 1.8802587910369042 22.029488702598353 0.014041799328329373 0.010797771487738814 0.46445264707293671 0.34987494025721178 0.33482233447148685 0.12614614612864936 1.4343652029917092e-05 1.3119701286084535 -0.15819698145683189 0.2907576418219523 -0.065960302084912922 0.20395107664740422
decision_type=2 2 2 2 2 2 2 2 2 2 2 2 2 2 2 2 2 2 2 2 2 2 2 2 2 2
left_child=3 6 9 -1 -4 -6 16 8 -8 12 17 -12 18 -14 15 -15 20 -11 -3 -9 22 -22 -2 -5 -7 -26
right_child=1 2 4 23 5 24 7 19 -10 10 11 -13 13 14 -16 -17 -18 -19 -20 -21 21 -23 -24 -25 25 -27
leaf_value=0.0016708352985956717 0.00025081762440624743 0.0024025602601547035 0.0033908632186034973 0.00085165221902336395 0.00090965544232894354 0.0034703110280157774 0.0054093059034393907 -0.0011052178999252354 -0.00048563438983447176 0.0021731750770219 -0.00033600597961744506 0.0043989783323037874 -0.00075889886471032291 0.0051633017369745026 -0.00039180304931290958 0.00095405459019880028 -0.00027033131988114876 -0.00016080672651835849 -0.00062838374345559455 0.0047118260761264928 0.0020789940382685721 -0.00084656375173424651 -0.0013270086086878392 0.0015069727795034571 -0.0012886565979774488 0.0027309783798859935
leaf_weight=31235.867584228516 1385.2082405090332 870.91139754652977 519.90371203422546 21852.3896484375 7144.2216934859753 190.98995053768158 292.99809348583221 1138.3288359642029 228.99980211257935 1825.8684675693512 8807.9109001159668 259.79748153686523 24408.574333429337 285.00152423977852 2650.5732414722443 1212.0643383264542 5184.3569641113281 1093.6807420253754 687.43326282501221 113.81626045703888 406.57157909870148 16559.011546134949 51991.769981920719 12041.267791748047 2221.9283746778965 275.06918430328369
leaf_count=93933 3092 2207 1434 65844 18280 517 871 2429 505 4691 21560 720 56072 840 6237 2845 11215 2565 1344 323 1042 35257 103016 36224 5541 675
internal_value=3.21321e-08 -0.000685456 -0.000123468 0.00136571 0.000658522 0.000513885 -0.0010668 0.000424732 0.00282171 -0.000315761 0.000164901 -0.000200081 -0.000507113 -0.000592943 0.000383506 0.0017565 -0.00110185 0.00129859 0.00106499 -0.000574322 -0.00116313 -0.000776366 -0.00128604 0.00108449 -0.000537752 -0.000845172
internal_weight=194885 129755 52453.9 65129.5 10352.1 9832.21 77301.1 1774.14 521.998 42101.8 11987.3 9067.71 30114.6 28556.2 4147.64 1497.07 75526.9 2919.55 1558.34 1252.15 70342.6 16965.6 53377 33893.7 2687.99 2497
internal_count=479279 283278 125528 196001 26447 25013 157750 4128 1376 99081 29536 22280 69545 65994 9922 3685 153622 7256 3551 2752 142407 36299 106108 102068 6733 6216
is_linear=0
shrinkage=0.0027671


Tree=15
num_leaves=27
num_cat=0
split_feature=14 14 44 14 44 44 44 14 14 44 44 44 82 44 44 14 13 14 13 4 6 193 130 14 214 6
split_gain=341730 2028.53 1634.75 1082.34 889.041 1168.47 265.429 256.332 226.999 736.423 225.371 190.565 153.421 139.309 673.487 102.291 77.7633 61.9702 55.7452 195.46 49.6308 48.1938 46.5532 113.351 63.9013 40.0964
threshold=-0.00052583678535934148 -0.00039765384257586198 -1.0000000180025095e-35 -0.00070248204033917106 1.0000000180025095e-35 0.10281293829385028 -1.0000000180025095e-35 -0.00048671274242784569 -0.00019547475943840027 -1.0000000180025095e-35 1.0000000180025095e-35 0.10281293829385028 12903.192929645233 1.0000000180025095e-35 0.10281293829385028 -0.00091911764759644327 -0.3654771745204925 -0.00057735482201005657 -0.22052361269867379 -5.9262047216179772e-06 2.034075914928779 0.051103460625619802 1.5842096032025036e-05 -0.00048671274242784569 0.95168612098320493 1.9147640410769657
decision_type=8 8 2 10 2 2 2 10 8 2 2 2 2 2 2 10 2 10 2 2 2 2 2 10 2 2
left_child=3 2 -2 15 22 -6 -5 12 9 -3 16 -12 21 -11 -15 -1 -8 25 19 -13 -17 -7 -4 24 -24 -18
right_child=1 8 4 6 5 7 10 -9 -10 13 11 18 -14 14 -16 20 17 -19 -20 -21 -22 -23 23 -25 -26 -27
leaf_value=0.0052629436403613733 0.0052341352124591111 0.0047776959357113341 -0.0022072934546874313 0.005303192827903978 0.0052919585998629694 0.002951209201213746 0.0028030710164267262 -0.0013157105520815986 -0.0026669278981911139 -0.0025177441272154623 0.0053065614387108355 0.0024201055441790426 -0.00097602618040484813 0.0046679268372161161 -0.0021007240293832753 0.0051152454596136354 0.0043051269395238496 0.0031855144319378821 0.0043191644059341816 0.0051466128130470985 0.0047064825896087278 0.00047397496468017445 0.0024334915507848343 -0.0019434369502502418 -0.00099185223494920364 0.0035626418900761648
leaf_weight=46239.652648925781 285.47061562538147 106.57720643281937 3518.2080380022526 1436.4028263092041 274.46691656112671 205.26705765724182 776.18081378936768 1326.1060631275177 109498.74623587728 9679.2153567671776 1379.1328601837158 504.15345078706741 172.94170063734055 110.71951758861542 3439.9855998754501 5516.2852582931519 1371.0921247303486 972.74303913116455 1982.1960396766663 315.0176607966423 3786.9989213943481 80.733616888523102 72.044517189264297 821.23334440588951 88.189262717962265 913.60810109972954
leaf_count=138460 857 317 5112 4315 824 518 1930 2178 255942 13463 4144 1217 296 333 5130 16349 3836 2496 5556 937 10926 162 174 1239 151 2417
internal_value=3.43652e-09 -0.00254613 -0.00110922 0.00506466 -0.00138576 8.94518e-05 0.00422587 -0.000711058 -0.0026262 -0.00229175 0.00403725 0.00447929 0.00103355 -0.00234899 -0.00188872 0.00521039 0.00357878 0.00376327 0.00407147 0.00347054 0.00494902 0.00225283 -0.00206113 -0.00153663 0.000542616 0.00400876
internal_weight=194873 129680 6844.66 65193.5 6559.19 2059.52 9650.53 1785.05 122835 13336.5 8214.12 4180.5 458.942 13229.9 3550.71 55542.9 4033.62 3257.44 2801.37 819.171 9303.28 286.001 4499.68 981.467 160.234 2284.7
internal_count=479279 286696 11511 192583 10654 3978 26848 3154 275185 19243 22533 11854 976 18926 5463 165735 10679 8749 7710 2154 27275 680 6676 1564 325 6253
is_linear=0
shrinkage=0.00271176


Tree=16
num_leaves=27
num_cat=0
split_feature=2 130 130 130 80 88 239 168 182 95 238 142 179 109 142 85 238 139 38 195 17 103 173 103 149 65
split_gain=95147.2 13147.1 1416.97 1175.58 722.705 721.56 620.64 576.498 526.535 470 509.461 439.998 453.989 420.432 413.98 408.643 464.751 402.649 402.328 410.467 374.544 411.332 360.457 354.098 356.959 345.999
threshold=1.0000000180025095e-35 1.5598226998259882e-05 1.2171135715814471e-05 1.7802387193134332e-05 4.4960811761518329 3.1788380500027344e-06 0.7020868829735164 -0.072738970484105339 -0.77236564765688354 0.43751911754131828 0.12237400789709592 1.2490768899874789e-05 0.38664653107995256 -0.19994482729194288 3.9266096306737206e-08 0.0068703803591658175 1.0636206399644756 1.2704640580773108 0.54101852289362407 0.40131282122388684 0.085706288211869111 -0.74000347925497623 0.92374771939581513 -0.44706310159033374 1.4992719350232651 -0.64561823027341336
decision_type=2 2 2 2 2 2 2 2 2 2 2 2 2 2 2 2 2 2 2 2 2 2 2 2 2 2
left_child=-1 2 5 20 -5 7 11 18 -9 10 13 12 -4 -8 -10 16 -16 -17 -2 -20 21 -3 -23 -14 25 -25
right_child=1 3 6 4 -6 -7 9 8 14 -11 -12 -13 23 -15 15 17 -18 -19 19 -21 -22 22 -24 24 -26 -27
leaf_value=-0.0026934719099775345 0.003592590075184279 -0.00056907316143201773 0.0017879015100796586 0.0001551348480483514 -0.00087044384330991153 0.00085742484370309163 0.004243044456718646 -0.00085815247482099507 -0.0011567348960795846 0.001664409422151622 0.0033598660224334925 -0.00052828481175726033 -0.0007710736826925539 0.00034828485184669391 0.001200966961987636 0.0030465235012910258 0.0029988242754101359 -0.0018686127454126905 0.0022577812478663459 0.003982629685466324 0.00019540624390224922 -0.0019399377626077572 0.0014209850420468181 0.0017603103485379992 0.0030164605582056088 0.00030326863142966976
leaf_weight=64516.257615536451 5929.6970321536064 912.71692609786987 39697.040004938841 29634.844299316406 6090.6338195800781 1711.3808198869228 268.7099494934082 392.19051170349121 242.27111586928368 3561.7239208221436 4272.7123861312866 671.8460735976696 730.20557594299316 838.75313314795494 3005.5609484910965 5267.2616092562675 1632.243463665247 124.67118826508522 5016.2241080403328 1273.2325553297997 4034.3348612785339 240.00061523914337 9259.2348898649216 2211.4201993644238 720.64829295873642 2617.7693973183632
leaf_count=196001 10021 2346 82397 71933 16109 3876 418 1032 654 7475 7441 1730 1911 1993 6607 9507 2965 353 9897 2049 9738 690 19973 4596 1310 6257
internal_value=-4.8958e-08 0.00133298 0.00201418 0.000244248 -1.97013e-05 0.0025562 0.00177437 0.00268324 0.00222224 0.00242896 0.00293495 0.00164887 0.0016807 0.0012952 0.00233998 0.00242461 0.00183399 0.00293245 0.00308549 0.00260722 0.000896996 0.0011688 0.00133589 0.00100299 0.00123656 0.000970664
internal_weight=194874 130357 80185.6 50171.8 35725.5 24594.7 55590.8 22883.4 10664.2 8941.9 5380.18 46648.9 45977.1 1107.46 10272 10029.7 4637.8 5391.93 12219.2 6289.46 14446.3 10412 9499.24 6280.04 5549.84 4829.19
internal_count=479279 283278 162489 120789 88042 46961 115528 43085 21118 17327 9852 98201 96471 2411 20086 19432 9572 9860 21967 11946 32747 23009 20663 14074 12163 10853
is_linear=0
shrinkage=0.00271176


Tree=17
num_leaves=27
num_cat=0
split_feature=2 192 92 193 82 210 99 85 209 193 118 90 228 142 125 83 31 228 171 151 98 69 155 209 136 142
split_gain=23687.2 3615.25 1024.38 727.068 917.196 663.439 1007.6 740.52 671.744 620.377 613.519 603.266 598.34 586.854 570.838 597.956 566.448 555.764 549.117 577.981 578.616 548.616 525.889 573.916 585.322 559.241
threshold=-1.0000000180025095e-35 2.1606126771991456 0.00010707046964060205 0.11289639479780318 24555.684156812036 0.013333269098999253 0.018083860154166211 -0.0204281632557308 58.300804920966662 0.093010510728858506 0.44590378686125176 1.4600585125944947 1.7088975813409781 8.5824796251112015e-06 389.42522039475136 0.051415026462015984 0.38513185103962949 0.59278118108399525 -0.73712984501023582 0.44697563799529244 0.011078950271210135 28.682694919827743 0.04316201760005349 34.482339397575842 1.7979936117417412 3.6225383660497552e-06
decision_type=2 2 2 2 2 2 2 2 2 2 2 2 2 2 2 2 2 2 2 2 2 2 2 2 2 2
left_child=3 22 -3 4 5 6 7 -1 -8 -6 14 18 -13 17 15 21 -10 -4 -7 20 -20 -9 23 -2 -25 -24
right_child=1 2 13 -5 9 11 8 10 16 -11 -12 12 -14 -15 -16 -17 -18 -19 19 -21 -22 -23 25 24 -26 -27
leaf_value=0.0019770212888239836 -0.0011470666105820682 -0.00030860267603649029 -0.00017723979254443423 0.0028106034764515831 -0.0017292957251347561 0.002847963307130429 0.0017005496968944512 -0.00025729946070053708 0.0035075839109653503 0.0015580739841311924 -0.00011657115885490665 0.0047976275519606357 -8.6693621542877053e-05 0.00025865656011056103 -0.0018181095526004312 0.0025580998827657445 -6.3265294267862829e-05 0.0025172050799817359 0.0013058472676675782 0.0020610605233966853 0.00022660466351920669 0.0020375611866042336 -0.00027102133447554923 0.00086218765777127705 -0.00090285903498646034 0.0037850769278511419
leaf_weight=3882.3774433135986 69460.291552335024 42094.585357666016 795.79142531752586 2362.8245697021484 1222.0289659500122 958.70142364501953 22803.220464378595 1849.1300691366196 2632.619936645031 644.13317775726318 4853.3335416316986 562.21749758720398 273.68361020088196 7641.8194456100464 426.8455898463726 2109.0253744125366 372.26533794403076 1917.7050470411777 5385.8349912762642 2170.6773612499237 11357.225931286812 1306.7192770242691 1473.9547896385193 2144.6153998374939 3879.8013863563538 300.32492876052856
leaf_count=11657 140627 99081 1847 7074 3707 2872 68509 5584 7870 1936 14651 1675 826 19517 1294 6323 1123 5083 16200 6516 34260 3924 3293 4796 8199 835
internal_value=4.27325e-08 -0.000670103 -0.000120632 0.00133379 0.00127822 0.00133556 0.00153857 0.000964524 0.00185944 -0.000594019 0.000591652 0.000941098 0.00319737 0.000643414 0.00119562 0.00144023 0.00306483 0.00172669 0.000846111 0.000744566 0.00057382 0.000692874 -0.00104312 -0.00107743 -0.00027444 0.000415705
internal_weight=194882 129709 52449.9 65172.9 62810 60943.9 40235.5 14427.4 25808.1 1866.16 10545.1 20708.3 835.901 10355.3 5691.72 5264.87 3004.89 2713.5 19872.4 18913.7 16743.1 3155.85 77259 75484.7 6024.42 1774.28
internal_count=479279 283278 125528 196001 188927 183284 120935 43433 77502 5643 31776 62349 2501 26447 17125 15831 8993 6930 59848 56976 50460 9508 157750 153622 12995 4128
is_linear=0
shrinkage=0.00271176


Tree=18
num_leaves=27
num_cat=0
split_feature=14 14 58 14 58 30 5 14 14 30 58 58 82 58 58 14 5 58 58 30 1 86 5 4 5 14
split_gain=340138 2025.99 1514.17 1071.78 905.638 1214.09 407.663 250.235 227.125 697.791 283.246 176.602 149.882 124.122 133.466 101.129 110.303 95.8183 265.455 95.0764 82.8678 78.4825 66.7946 60.7882 55.143 54.7709
threshold=-0.00052583678535934148 -0.00039765384257586198 -1.0000000180025095e-35 -0.00070248204033917106 1.0000000180025095e-35 2.7681804872816995e-07 -1.488838195800781 -0.00048671274242784569 -0.00019547475943840027 1.0000000180025095e-35 -1.0000000180025095e-35 -1.0000000180025095e-35 12903.192929645233 -1.0000000180025095e-35 1.0000000180025095e-35 -0.00091911764759644327 -2.1694363632394618 1.0000000180025095e-35 0.86127191765402344 2.7681804872816995e-07 -0.2382179796695709 3.7307688276307016e-06 1.0285340399281557 -2.4278676407782457e-05 1.3284770967347497 -0.00062745911870761126
decision_type=8 8 2 10 2 2 2 10 8 2 2 2 2 2 2 10 2 2 2 2 2 2 2 2 2 10
left_child=3 2 -2 15 -4 -6 11 12 9 -3 21 -5 22 -8 25 -1 -17 -12 -19 -16 -13 -11 -7 -22 -9 -15
right_child=1 8 4 6 5 7 13 24 -10 10 17 20 -14 14 19 16 -18 18 -20 -21 23 -23 -24 -25 -26 -27
leaf_value=0.0051384971635026503 0.0048225595534622089 0.0048904505809824819 -0.0020171587939396664 0.0051290816639147346 0.0051597834551405531 0.0013513468503246519 0.0051278731848320947 -0.0015506097564009392 -0.0026111316250956407 0.0046611902274692144 -0.002464562767452271 0.0015943923790046164 -0.00095462257609313687 0.0042364953935384751 0.005186907010322238 0.0036783872353071002 0.0049059892742050956 0.0029413770573904663 -0.0020582180061741741 0.0042646378957227494 0.0042291997559896254 -6.33527322348811e-05 0.0042086661810304595 0.0025773948836533295 -0.00010462060667897549 0.0035394494579364015
leaf_weight=46322.610412597656 292.48452186584473 95.213791012763977 4495.7792810201645 209.12296605110168 288.58851158618927 199.32046881318092 1276.7085559368134 1085.6684040129185 109394.97187593579 46.952918469905853 9669.1274902820587 465.6119102537632 172.86362811923027 1409.0345916748047 1215.4028650224209 556.14145278930664 8762.5649681091309 75.791312366724014 3385.8884017467499 2338.829067081213 212.30980223417282 51.086205750703812 81.437347769737244 630.1159431040287 225.18809804320335 1906.8412883877754
leaf_count=138460 857 286 6676 626 866 438 3814 1725 255942 141 13463 1046 296 3947 3645 1500 25775 202 5050 6568 597 101 228 1547 425 5058
internal_value=7.20294e-09 -0.00249272 -0.0010851 0.00494536 -0.00134937 0.000112576 0.00412792 -0.000713471 -0.00257119 -0.00224318 -0.00229482 0.00286147 0.000985645 0.00436363 0.00422137 0.00508733 0.00483285 -0.00232845 -0.00194802 0.00458044 0.00249734 0.00218401 0.00218434 0.00299529 -0.00130232 0.00383607
internal_weight=194866 129560 6841.33 65305.3 6548.85 2053.07 9663.98 1764.48 122719 13324.1 13228.8 1517.16 453.621 8146.82 6870.11 55641.3 9318.71 13130.8 3461.68 3554.23 1308.04 98.0391 280.758 842.426 1310.86 3315.88
internal_count=479279 286696 11511 192583 10654 3978 26848 3112 275185 19243 18957 3816 962 23032 19218 165735 27275 18715 5252 10213 3190 242 666 2144 2150 9005
is_linear=0
shrinkage=0.00265753


Tree=19
num_leaves=27
num_cat=0
split_feature=2 14 14 14 14 14 14 14 14 0 14 0 14 0 2 1 14 14 2 1 2 2 2 9 237 2
split_gain=94705.3 77427.9 155948 1854.44 1802.56 266.749 200.752 194.457 217.353 139.453 312.387 118.067 257.574 178.863 114.118 106.911 104.745 100.251 90.9377 86.6529 85.1489 82.3675 66.8286 65.5605 44.6514 40.8832
threshold=1.0000000180025095e-35 0.00051866062906870977 -0.00052583678535934148 0.00076185301485541047 -0.00076347776278675773 0.00063177645228772162 -0.00062745911870761126 -0.00044102513869761118 0.00039631427746490477 5.0003934206354496e-05 -0.00048671274242784569 5.0003934206354496e-05 0.0004850094095745563 5.374465906419297e-05 1.4275708508648678e-05 0.44085245951752655 0.00097485813804769588 -0.0011215904510467952 1.4275708508648678e-05 -0.22058086842298505 1.7306940208072778e-05 1.8977808394993193e-05 1.3934858543507291e-05 -0.37669504393379327 375.24300527243946 1.4791575267736336e-05
decision_type=2 8 8 8 10 8 10 10 10 2 10 2 10 2 2 2 8 10 2 2 2 2 2 2 2 2
left_child=-1 2 4 5 17 15 18 9 21 -4 24 -10 -13 -14 -7 23 22 -2 -6 -8 -19 -9 -5 -3 -11 -21
right_child=1 3 7 16 6 14 19 8 11 10 -12 12 13 -15 -16 -17 -18 20 -20 25 -22 -23 -24 -25 -26 -27
leaf_value=-0.0026361654823788354 -0.0025809087163423702 0.00010149562293157429 0.0046851743075459187 -0.0024641770908006371 -0.0017942017523933618 -0.0018895187577091918 0.00015034636057420324 0.0050728125413914095 0.0047589346845721614 0.00055791851933545856 0.0043687732297569819 0.0044113353419822435 0.00023518081822747588 0.0039991316976108766 -0.00094846993759226247 0.00089508253367094723 -0.0025807446567050387 -0.0024004596961690219 -0.00096495981604384701 -0.0011006519673315085 -0.0017689223099998396 0.0047805832660380906 -0.0018205249087534388 -0.00082013474646350064 0.0030820659263673567 -0.00036477995932697558
leaf_weight=64427.705178678036 19038.734985351562 742.09746733307838 2652.514861702919 2262.0988931655884 1864.2724666595459 1916.7346820831299 1056.7641229629517 45650.386718839407 4118.2936737537384 217.50422579050064 851.07345616817474 1670.1628539562225 198.26052701473236 161.53202974796295 1739.8645000457764 399.33212947845459 21991.325579077005 5097.6540565490723 1881.3252811431885 1214.8910295963287 2157.2980003356934 8174.3943152427673 2325.4154806137085 2039.4243765771389 63.760727822780609 954.90699648857117
leaf_count=196001 57864 1794 3819 6684 5332 5428 2578 61845 5849 511 1290 2509 473 257 4594 897 65667 15268 5053 3290 6179 11652 6571 5319 115 2440
internal_value=-6.34316e-08 0.00130198 0.00250358 -0.00218682 -0.00216077 -0.000952397 -0.000959338 0.00493724 0.00497423 0.00435093 0.00356674 0.0044993 0.00397184 0.00192983 -0.00144195 -0.000389342 -0.00250438 -0.00247937 -0.00137789 -0.00047318 -0.0022128 0.00502846 -0.00213813 -0.000574024 0.00113742 -0.000777075
internal_weight=194868 130440 97023.7 33416.3 33265.8 6837.45 6972.16 63757.9 59973 3784.85 1132.34 6148.25 2029.96 359.793 3656.6 3180.85 26578.8 26293.7 3745.6 3226.56 7254.95 53824.8 4587.51 2781.52 281.265 2169.8
internal_count=479279 283278 186324 96954 98004 18032 18693 88320 82585 5735 1916 9088 3239 730 10022 8010 78922 79311 10385 8308 21447 73497 13255 7113 626 5730
is_linear=0
shrinkage=0.00265753


Tree=20
num_leaves=27
num_cat=0
split_feature=14 14 2 14 2 5 14 2 0 14 0 14 14 2 5 74 14 5 5 2 30 5 5 1 36 5
split_gain=345754 1643.94 4312.78 1114.93 1104.01 390.817 209.476 2600.87 118.476 264.983 186.855 104.845 102.945 246.071 140.474 65.91 54.2827 53.698 50.02 47.2558 42.3984 36.9638 31.5118 30.8764 27.6237 27.3879
threshold=0.00051866062906870977 0.00039631427746490477 -1.0000000180025095e-35 0.00070475583483610145 8.6864192780922184e-06 1.0836094021797182 0.00014863258035288266 -1.0000000180025095e-35 5.0003934206354496e-05 0.0004850094095745563 5.374465906419297e-05 0.00063177645228772162 0.00097485813804769588 1.3934858543507291e-05 1.3641664034745533 2.0486766768499368e-05 0.00059665928099219168 1.9491987663905761 1.2978669017508284 1.3194088751333767e-05 3.7771552271046809e-08 -0.20955470971968684 -1.2760331630706785 0.42677483994059123 9.0597441240063137e-05 -1.3401215583711659
decision_type=8 10 2 8 2 2 10 2 2 10 2 10 8 2 2 2 8 2 2 2 2 2 2 2 2 2
left_child=1 6 -3 4 -2 15 -1 18 22 -10 21 17 13 -5 24 16 23 20 -8 -13 -7 -11 -4 -6 -15 -9
right_child=3 2 8 12 5 11 7 25 9 10 -12 19 -14 14 -16 -17 -18 -19 -20 -21 -22 -23 -24 -25 -26 -27
leaf_value=-0.0026208337628506758 0.0051919169592840719 0.0050925648130322318 -0.0016543780085766767 0.0051461824045259345 0.0037100923320389683 0.0026007819944956797 0.0049188783596639616 -0.0022135715774267194 -0.0018649922924138162 0.0037205568899992001 -0.0014712132935747312 0.0038906608656191378 0.005197381194958545 0.0046980453886160426 0.0032001969825947011 0.002900753634937127 0.0042621436672953972 0.00068011560687327734 0.0019891108378608242 0.0023890608588588132 0.0010572932640531235 0.0013877002490663179 -0.0023068016108758315 0.0025068352280087276 0.0038865088919297448 -0.0025136724236474728
leaf_weight=107157.1254799962 4101.7375478744507 683.57286214828491 626.76883685588837 8475.2425689697266 1478.7665489315987 372.51658391952515 334.34172901511192 2641.8674721717834 1654.5663950741291 83.857932537794113 160.37107264995575 262.96697783470154 44148.872721493244 1981.6992178559303 686.68708896636963 507.39003366231918 1757.7549705505371 298.10315918922424 47.753056436777115 348.95011353492737 191.84674286842346 114.02664056420326 3431.8650077283382 172.58774399757385 366.84457391500473 12790.369468450546
leaf_count=254677 12191 2036 975 25093 3942 909 997 3804 2509 224 257 711 131158 5686 1764 1271 4886 612 143 838 406 249 4874 417 993 17657
internal_value=5.35015e-08 -0.00250852 -0.00123194 0.00499497 0.00415262 0.00336156 -0.00257865 -0.00229274 -0.00194447 -0.00141644 0.00065265 0.00219411 0.00513862 0.00491312 0.00426188 0.00380078 0.00393447 0.00159525 0.00454813 0.00303607 0.00207722 0.00238004 -0.00220621 0.00358491 0.00457179 -0.00246235
internal_weight=194878 129726 6755.03 65152 9492.62 5390.88 122971 15814.3 6071.46 2012.82 358.256 1474.38 55659.3 11510.5 3035.23 3916.5 3409.11 862.466 382.095 611.917 564.363 197.885 4058.63 1651.35 2348.54 15432.2
internal_count=479279 288402 11124 190877 26183 13992 277278 22601 9088 3239 730 3476 164694 33536 8443 10516 9245 1927 1140 1549 1315 473 5849 4359 6679 21461
is_linear=0
shrinkage=0.00265753


Tree=21
num_leaves=27
num_cat=0
split_feature=14 14 2 14 2 5 14 2 0 14 14 2 5 14 5 5 32 130 5 2 14 5 18 5 232 5
split_gain=337939 2021.71 4983.29 1059.17 1047.47 487.846 226.791 2400.61 103.493 387.728 99.936 213.958 176.125 90.0612 61.4512 53.6868 52.9679 51.5674 37.6618 34.7217 66.966 95.1571 33.734 31.619 34.8021 31.239
threshold=-0.00052583678535934148 -0.00039765384257586198 -1.0000000180025095e-35 -0.00070248204033917106 8.6864192780922184e-06 -1.4157990813255308 -0.00019547475943840027 -1.0000000180025095e-35 5.0003934206354496e-05 -0.00048671274242784569 -0.00088595046431820589 1.3626116924569944e-05 -2.1694363632394618 -0.00057735482201005657 -0.029723339538325663 0.36799599230289465 4.1081122411562356e-06 1.4450767569479194e-05 -1.0868436024299328 1.781629453034839e-05 -0.0012303624819022486 -1.8220273256301878 1.8215871107992161e-05 -2.0725783791472048 2.8387515309144491 1.3284770967347497
decision_type=8 8 2 8 2 2 8 2 2 10 10 2 2 10 2 2 2 2 2 2 10 2 2 2 2 2
left_child=3 2 -2 10 -5 16 7 -3 25 15 19 -12 -13 17 -15 -10 23 -7 -14 -1 -21 22 -22 -6 -25 -4
right_child=1 6 8 4 5 13 -8 -9 9 -11 11 12 18 14 -16 -17 -18 -19 -20 20 21 -23 -24 24 -26 -27
leaf_value=0.0050419856391219469 0.0050250772076602911 0.004434608305085303 -0.0022205049808903549 0.0050352888909342853 0.0013590308887322462 0.0042247135386059365 -0.0025555236959872675 -0.0023793309998759783 0.00042524144903592414 -0.001845604984938529 0.0049524225451653189 0.0013228943243621669 0.0035739400137023546 0.0024277919831528104 0.0035695945692590346 0.0027164714836356782 -7.3784268428647674e-05 0.0035562678513765449 0.0044039792236710527 0.0049722147110086642 0.0014877301902547805 0.0046423297111606518 0.0035751126432482369 0.0014271936233901036 0.0027851211498393516 -0.0015654240398380367
leaf_weight=38010.458303451538 804.32631397247314 359.53183114528656 3343.5488413572311 4058.1419763565063 414.73360222578049 1698.6725344955921 109248.44947138429 12948.915129303932 157.78649333119392 1819.2777328491211 5796.5344228744507 155.74778175354004 507.14775228500366 548.35229086875916 788.09411358833313 123.88452717661858 99.640340566635132 1506.740639179945 1546.2960562705994 7829.7202682495117 80.489636927843094 1692.5438189506531 157.33057495951653 199.5880138874054 369.25847369432449 588.40082275867462
leaf_count=113590 2410 1079 4792 12131 914 4780 255942 18164 317 2757 17220 344 1361 1331 2108 309 189 4028 4412 23287 180 4917 424 442 925 926
internal_value=0 -0.00243948 -0.00106109 0.00482212 0.00402651 0.00329846 -0.00251638 -0.00219498 -0.00187295 -0.00140541 0.00496024 0.00468893 0.00399697 0.0036731 0.00310198 0.00143313 0.00172683 0.00391089 0.00419955 0.00500567 0.00486411 0.00442489 0.00287323 0.0019098 0.00230995 -0.00212263
internal_weight=194854 129394 6837.22 65459.5 9683.22 5625.08 122557 13308.4 6032.9 2100.95 55776.3 8005.73 2209.19 4541.86 1336.45 281.671 1083.22 3205.41 2053.44 47770.5 9760.08 1930.36 237.82 983.58 568.846 3931.95
internal_count=479279 286696 11511 192583 26848 14717 275185 19243 9101 3383 165735 23337 6117 12247 3439 626 2470 8808 5773 142398 28808 5521 604 2281 1367 5718
is_linear=0
shrinkage=0.00260438


Tree=22
num_leaves=27
num_cat=0
split_feature=58 58 30 136 72 144 58 182 150 158 170 58 94 207 146 141 215 58 82 162 162 58 30 101 177 238
split_gain=26665.5 42862.5 8495.37 5775.85 3478.63 1468.18 1197.74 694.191 618.08 659.603 586.272 493.916 487.166 460.364 599.236 496.004 495.506 449.16 427.805 470.969 420.728 409.828 398.445 395.704 388.508 568.077
threshold=1.0000000180025095e-35 -1.0000000180025095e-35 2.7681804872816995e-07 2.3071006108801106 5.0334373927398705e-05 2.6303109769259553e-06 120.05031426709236 -0.77236564765688354 1.5170803988534811 0.55184464939458222 85.054208149346564 120.05031426709236 2.263743686596571 0.43811756324296997 0.86343382821671055 -0.037596933449209842 0.10070545086373113 119.94661245078474 12685.211706425456 -0.13029040915822759 -0.62046197108584267 36.581614761393567 6.5290250503199596e-06 0.18258750705459859 0.027746174216688294 1.0636206399644756
decision_type=2 2 2 2 2 2 2 2 2 2 2 2 2 2 2 2 2 2 2 2 2 2 2 2 2 2
left_child=1 22 -2 5 6 7 17 -3 9 -7 -6 23 -5 14 -9 -16 -15 18 -4 -20 -11 -21 -1 -12 25 -17
right_child=2 3 4 12 10 8 -8 13 -10 20 11 -13 -14 16 15 24 -18 -19 19 21 -22 -23 -24 -25 -26 -27
leaf_value=-0.0025696460011190416 -0.0025793412048663957 -5.1633672317680503e-06 -0.00021420436981271586 0.00052542657972749112 -0.0013962468731093598 0.0029280982131635802 -0.0025800866604616867 0.00069556869153540395 0.0028672693956738756 0.0019982778814248226 -0.00083128400269589055 -0.0025791952601156949 -0.00084805511725214886 0.0031002619679140865 -0.00077992485873377418 0.0018225038707697931 0.0015336801464362153 0.0014447927196352471 0.0014557986468880107 0.0013975089719155168 0.0012851716742805497 -0.00038728517062577768 -0.00068726073064409989 0.00017432544251874078 0.0029122621287978718 0.0031903799319270699
leaf_weight=20432.924886882305 20340.983520507812 808.22689437866211 5806.6273981928825 18524.681015968323 17288.002755463123 2151.5831588804722 891.43101501464844 1636.2840646803379 2515.2636890411377 7169.4105956554413 24431.444066226482 1006.7496589422226 1933.6626539230347 9321.0721964538097 338.82570934295654 9465.2033598721027 1607.142106115818 2918.1203002929688 3339.8431562483311 1241.5004933774471 25900.240369170904 2932.5010304450989 792.92533284425735 2976.1855213046074 6451.6145476996899 2633.8790913522243
leaf_count=62221 61979 1982 14556 43370 48004 3872 2713 3752 4557 14375 64675 3068 5123 16380 894 19343 3379 6219 7116 2662 56089 7468 2080 7212 11613 4577
internal_value=-6.68512e-08 0.000831347 -0.00111647 0.00161291 -0.000642877 0.00196869 0.000358024 0.00237666 0.00161988 0.00153076 -0.00101804 -0.00078791 0.000395579 0.0024379 0.00220783 0.00233881 0.00286992 0.000519423 0.000316635 0.000726925 0.0014398 0.000143561 -0.00249931 -0.000722061 0.00239585 0.00212039
internal_weight=194856 111683 83173.4 90457.1 62832.4 69998.7 17130 32262.2 37736.5 35221.2 45702.4 28414.4 20458.3 31454 20525.8 18889.5 10928.2 16238.6 13320.5 7513.84 33069.7 4174 21225.9 27407.6 18550.7 12099.1
internal_count=479279 253607 225672 189306 163693 140813 40734 61920 78893 74336 122959 74955 48493 59938 40179 36427 19759 38021 31802 17246 70464 10130 64301 71887 35533 23920
is_linear=0
shrinkage=0.00260438


Tree=23
num_leaves=27
num_cat=0
split_feature=14 14 2 14 2 14 2 14 0 14 0 1 14 2 2 4 130 1 2 36 1 142 7 7 41 14
split_gain=343507 1640.44 4285.74 1101.57 1091.71 209.183 2586.87 151.205 118.178 263.922 185.725 104.945 101.63 243.11 57.3053 47.5294 40.294 37.4683 36.5896 30.7991 30.4743 23.0555 22.9832 30.6408 23.0834 21.945
threshold=0.00051866062906870977 0.00039631427746490477 1.0000000180025095e-35 0.00070475583483610145 8.6864192780922184e-06 0.00014863258035288266 1.0000000180025095e-35 0.00063177645228772162 5.0003934206354496e-05 0.0004850094095745563 5.374465906419297e-05 0.27396659858733136 0.00097485813804769588 1.3934858543507291e-05 1.5325523236242592e-05 1.4381252508134534e-05 1.2631792423203827e-05 0.36569789052009588 3.0077057999733373e-05 6.7615013660830058e-05 0.1781989857554436 1.082044877477102e-05 0.0010674693534913928 -1.4540220427423226e-13 1.6224848709364961 0.00076185301485541047
decision_type=8 8 2 8 2 10 2 10 2 10 2 2 8 2 2 2 2 2 2 2 2 2 2 2 2 10
left_child=1 5 -3 4 -2 -1 -7 11 -4 -10 -11 19 13 -5 -9 -13 -17 18 25 22 -16 -18 23 -6 -25 -15
right_child=3 2 8 12 7 6 -8 14 9 10 -12 15 -14 17 20 16 21 -19 -20 -21 -22 -23 -24 24 -26 -27
leaf_value=-0.0025649923242752706 0.0050618800431157665 0.0049649976723597561 -0.0021587129596608483 0.0050173549886257246 0.0033101972317934776 0.0044345427438721927 -0.0024096596922095394 0.0041314162195751 -0.0018245190679142657 0.0023235702007009243 -0.0014390150204144543 0.0035774223602060072 0.0050671144291190486 0.0039092196801733406 0.0036431401745017781 0.0028319032353966104 0.0016305115665750918 0.0035223381548754786 0.0031040113968098478 0.0024836113964148061 0.0026267133506406382 -0.00017584088661188894 0.0036136739638844254 0.0036803851788706501 0.001815799762223666 0.0045208167820010589
leaf_weight=107013.57508045435 4111.9829988479614 685.27052688598633 4054.0182538330555 8496.3341999053955 741.34882736206055 382.97712326049805 15412.655567169189 1370.8196482658386 1652.9983286559582 198.1166650056839 160.2523535490036 126.38310170173645 44259.935703933239 549.01606011390686 563.37770307064056 197.91732001304626 444.04641732573509 536.06050491333008 168.92207503318787 359.64557626843452 322.59674656391144 52.646868616342545 964.95261135697365 59.348152250051498 196.79279300570488 1787.5514373779297
leaf_count=254677 12191 2036 5849 25093 1927 1140 21461 3795 2509 473 257 336 131158 1494 1505 494 997 1418 435 872 794 98 2566 159 449 5096
internal_value=6.83646e-08 -0.00245493 -0.00120483 0.00487024 0.0040505 -0.00252365 -0.00224349 0.00328005 -0.00190236 -0.00138538 0.000637716 0.00290955 0.00500997 0.00479064 0.00379544 0.00210649 0.00183656 0.0041569 0.00429215 0.00319306 0.00327436 0.00143754 0.00332263 0.00303992 0.00225383 0.00437765
internal_weight=194870 129560 6750.66 65309.7 9511.86 122809 15795.6 5399.88 6065.39 2011.37 358.369 3143.08 55797.8 11537.9 2256.79 820.994 694.611 3041.55 2505.49 2322.09 885.974 496.693 1962.44 997.49 256.141 2336.57
internal_count=479279 288402 11124 190877 26183 277278 22601 13992 9088 3239 730 7898 164694 33536 6094 1925 1589 8443 7025 5973 2299 1095 5101 2535 608 6590
is_linear=0
shrinkage=0.00260438


Tree=24
num_leaves=27
num_cat=0
split_feature=14 14 44 14 44 44 44 14 14 44 58 44 44 138 14 44 44 13 44 14 13 4 6 148 14 220
split_gain=336053 2013.89 1606.26 1048.68 879.464 1145.85 255.612 253.309 224.612 726.348 238.558 216.241 184.012 150.337 98.8663 95.1382 331.641 76.5778 72.7351 60.7218 54.795 191.647 48.8314 44.9795 116.654 69.8368
threshold=-0.00052583678535934148 -0.00039765384257586198 -1.0000000180025095e-35 -0.00070248204033917106 1.0000000180025095e-35 0.10281293829385028 -1.0000000180025095e-35 -0.00048671274242784569 -0.00019547475943840027 -1.0000000180025095e-35 -1.0000000180025095e-35 1.0000000180025095e-35 0.10281293829385028 8178.124708434344 -0.00091911764759644327 1.0000000180025095e-35 1.4579699518614795 -0.3654771745204925 0.062193884538686621 -0.00057735482201005657 -0.22052361269867379 -5.9262047216179772e-06 2.034075914928779 5.2524705830953723e-05 -0.00048671274242784569 1.3340163146737603
decision_type=8 8 2 8 2 2 2 10 8 2 2 2 2 2 8 2 2 2 2 10 2 2 2 2 10 2
left_child=3 2 -2 14 23 -6 -5 13 9 -3 18 17 -13 -7 -1 -12 -17 -8 -11 -19 21 -14 -16 -4 25 -25
right_child=1 8 4 6 5 7 11 -9 -10 10 15 12 20 -15 22 16 -18 19 -20 -21 -22 -23 -24 24 -26 -27
leaf_value=0.004888241047836612 0.0048577755463030513 0.0044386384076759884 -0.0020762388091895047 0.0049216542556520812 0.0049116202265022868 0.0026673740383427852 0.0026107831922352678 -0.0012340422158537223 -0.0025013364596114915 0.0041974262064920073 -0.002361814447462814 0.0049247171712942187 0.0022486876667128205 -0.00028189076626808563 0.0047533109786726292 0.0035546388775670045 -0.0019817426660533352 0.0037341742592554338 -0.00043681707017202232 0.0029686040687649435 0.0040163764089799206 0.0047831736119220286 0.0043728358947503635 0.0017413361916441372 -0.0018616995405293345 -0.0013776638937321914
leaf_weight=46532.943725585938 287.38536667823792 107.21211838722229 3414.419636875391 1446.1030311584473 276.31322765350342 194.22343778610229 778.88732051849365 1324.561243057251 109111.99899333715 45.837850838899612 9649.8299265801907 1388.4569454193115 506.10539299249649 265.42079591751099 5549.5694561004639 71.053124755620956 3386.083509683609 2294.5340766906738 41.198984891176224 976.24221420288086 1992.537618637085 316.90329784154892 3809.1201190948486 104.20611670613289 886.40570029616356 83.561179131269455
leaf_count=138460 857 317 4969 4315 824 485 1930 2178 255942 137 13463 4144 1217 491 16349 198 5053 6253 75 2496 5556 937 10926 240 1333 134
internal_value=-5.56454e-09 -0.00238783 -0.00103958 0.00470524 -0.00129879 8.11843e-05 0.00393006 -0.000667417 -0.00246312 -0.0021496 -0.0022034 0.00375611 0.00416235 0.000963071 0.00483977 -0.00223139 -0.00186712 0.00333407 0.00198543 0.003506 0.00378589 0.00322641 0.00459861 -0.00193244 -0.00147485 0.000347121
internal_weight=194841 129250 6836.5 65591.4 6549.11 2060.52 9699.77 1784.21 122413 13301.2 13194 8253.67 4204 459.644 55891.6 13107 3457.14 4049.66 87.0368 3270.78 2815.55 823.009 9358.69 4488.59 1074.17 187.767
internal_count=479279 286696 11511 192583 10654 3978 26848 3154 275185 19243 18926 22533 11854 976 165735 18714 5251 10679 212 8749 7710 2154 27275 6676 1707 374
is_linear=0
shrinkage=0.00255229


Tree=25
num_leaves=27
num_cat=0
split_feature=2 14 14 14 14 5 5 14 14 14 14 0 14 0 14 0 14 14 14 5 2 2 5 2 5 13
split_gain=93918.9 76748.3 154189 1846.45 1795.29 561.513 427.512 191.032 213.608 168.54 160.607 136.365 308.66 114.632 254.075 176.998 107.42 104.192 99.8034 127.734 83.6913 78.4764 77.8404 73.2918 71.6439 62.0671
threshold=1.0000000180025095e-35 0.00051866062906870977 -0.00052583678535934148 0.00076185301485541047 -0.00076347776278675773 -1.488838195800781 1.4003553256872336 -0.00044102513869761118 0.00039631427746490477 0.00063177645228772162 -0.00062745911870761126 5.0003934206354496e-05 -0.00048671274242784569 5.0003934206354496e-05 0.0004850094095745563 5.374465906419297e-05 0.00063177645228772162 0.00097485813804769588 -0.0011215904510467952 -1.5308034420013426 1.5325523236242592e-05 1.8977808394993193e-05 1.6385981138047663 1.5325523236242592e-05 -0.074974779039621339 0.27403115557248975
decision_type=2 8 10 8 10 2 2 8 8 8 10 2 10 2 8 2 10 8 10 2 2 2 2 2 2 2
left_child=-1 2 4 6 18 -6 9 11 21 25 -7 -4 -13 -10 -15 -16 -8 22 -2 20 -20 -9 -5 -11 -12 -3
right_child=1 3 7 17 5 10 16 8 13 23 24 12 -14 14 15 -17 -18 -19 19 -21 -22 -23 -24 -25 -26 -27
leaf_value=-0.0025258500782158453 -0.0024745271549072127 -0.00096599685225335079 0.0044653160514467822 -0.002195690783877035 0.00063063784564596197 -0.001654944277584234 0.0011699485422275184 0.0048339674930087066 0.0045346750376209161 -0.0019582103697928241 -0.00028047484310413914 0.0010860066312316089 0.0041685631734768996 0.0042091876847486949 0.00022424672348379831 0.0038174913546313301 -0.0002902832402998987 -0.002474296703068383 -0.0019746711366948545 -0.0022695829865902553 -0.00059697934588152847 0.0045603685110800927 -0.001286944549360374 -0.0011298443705789515 -0.0011388263493207951 -2.9247413629370338e-05
leaf_weight=64268.306509852409 19006.814758300781 1961.2100586891174 2661.7692995071411 3847.3396911621094 1248.2429866790771 3075.371955871582 616.55368804931641 45819.78840893507 4133.154358625412 1821.12677526474 1055.4184565544128 281.55130004882812 853.51765727996826 1674.9777977466583 198.31944078207016 161.94598585367203 699.40284729003906 21955.301365196705 627.84558129310608 6086.3296337127686 531.60411238670349 8199.9432611465454 735.08807373046875 1133.6573281288147 1590.4565758705139 603.30900716781616
leaf_count=196001 57864 5193 3819 11250 2912 8763 1344 61845 5849 5219 2678 626 1290 2509 473 257 1752 65667 1837 18216 1394 11652 2005 3051 4340 1473
internal_value=-6.52822e-08 0.00124306 0.00238957 -0.00209636 -0.00207139 -0.000919782 -0.000913338 0.00470579 0.00474093 -0.00122499 -0.00125815 0.00414854 0.00340453 0.00428948 0.00379085 0.00184405 0.000393379 -0.00240108 -0.00237713 -0.00212154 -0.00134375 0.00479246 -0.00205008 -0.00164063 -0.000796696 -0.00074584
internal_weight=194848 130580 97207.1 33373 33222.1 6969.49 6835.26 63985 60188.1 5519.3 5721.25 3796.84 1135.07 6168.4 2035.24 360.265 1315.96 26537.7 26252.6 7245.78 1159.45 54019.7 4582.43 2954.78 2645.88 2564.52
internal_count=479279 283278 186324 96954 98004 18693 18032 88320 82585 14936 15781 5735 1916 9088 3239 730 3096 78922 79311 21447 3231 73497 13255 8270 7018 6666
is_linear=0
shrinkage=0.00255229


Tree=26
num_leaves=27
num_cat=0
