tree
version=v4
num_class=3
num_tree_per_iteration=3
label_index=0
max_feature_idx=239
objective=multiclass num_class:3
feature_names=relative_spread depth_imbalance bid_ask_slope order_book_pressure flow_toxicity price_momentum volatility_ratio ofi vpin pressure_change_rate orderbook_gradient depth_pressure_ratio weighted_price_depth liquidity_imbalance price_change_lag1 order_flow_lag2 relative_spread_ma120 depth_imbalance_ma120 bid_ask_slope_ma120 order_book_pressure_ma120 weighted_price_depth_ma120 liquidity_imbalance_ma120 flow_toxicity_ma120 price_momentum_ma120 volatility_ratio_ma120 ofi_ma120 vpin_ma120 pressure_change_rate_ma120 orderbook_gradient_ma120 depth_pressure_ratio_ma120 relative_spread_std120 depth_imbalance_std120 bid_ask_slope_std120 order_book_pressure_std120 weighted_price_depth_std120 liquidity_imbalance_std120 flow_toxicity_std120 price_momentum_std120 volatility_ratio_std120 ofi_std120 vpin_std120 pressure_change_rate_std120 orderbook_gradient_std120 depth_pressure_ratio_std120 relative_spread_skew120 depth_imbalance_skew120 bid_ask_slope_skew120 order_book_pressure_skew120 weighted_price_depth_skew120 liquidity_imbalance_skew120 flow_toxicity_skew120 price_momentum_skew120 volatility_ratio_skew120 ofi_skew120 vpin_skew120 pressure_change_rate_skew120 orderbook_gradient_skew120 depth_pressure_ratio_skew120 relative_spread_kurt120 depth_imbalance_kurt120 bid_ask_slope_kurt120 order_book_pressure_kurt120 weighted_price_depth_kurt120 liquidity_imbalance_kurt120 flow_toxicity_kurt120 price_momentum_kurt120 volatility_ratio_kurt120 ofi_kurt120 vpin_kurt120 pressure_change_rate_kurt120 orderbook_gradient_kurt120 depth_pressure_ratio_kurt120 relative_spread_ma600 depth_imbalance_ma600 bid_ask_slope_ma600 order_book_pressure_ma600 weighted_price_depth_ma600 liquidity_imbalance_ma600 flow_toxicity_ma600 price_momentum_ma600 volatility_ratio_ma600 ofi_ma600 vpin_ma600 pressure_change_rate_ma600 orderbook_gradient_ma600 depth_pressure_ratio_ma600 relative_spread_std600 depth_imbalance_std600 bid_ask_slope_std600 order_book_pressure_std600 weighted_price_depth_std600 liquidity_imbalance_std600 flow_toxicity_std600 price_momentum_std600 volatility_ratio_std600 ofi_std600 vpin_std600 pressure_change_rate_std600 orderbook_gradient_std600 depth_pressure_ratio_std600 relative_spread_skew600 depth_imbalance_skew600 bid_ask_slope_skew600 order_book_pressure_skew600 weighted_price_depth_skew600 liquidity_imbalance_skew600 flow_toxicity_skew600 price_momentum_skew600 volatility_ratio_skew600 ofi_skew600 vpin_skew600 pressure_change_rate_skew600 orderbook_gradient_skew600 depth_pressure_ratio_skew600 relative_spread_kurt600 depth_imbalance_kurt600 bid_ask_slope_kurt600 order_book_pressure_kurt600 weighted_price_depth_kurt600 liquidity_imbalance_kurt600 flow_toxicity_kurt600 price_momentum_kurt600 volatility_ratio_kurt600 ofi_kurt600 vpin_kurt600 pressure_change_rate_kurt600 orderbook_gradient_kurt600 depth_pressure_ratio_kurt600 relative_spread_ma1800 depth_imbalance_ma1800 bid_ask_slope_ma1800 order_book_pressure_ma1800 weighted_price_depth_ma1800 liquidity_imbalance_ma1800 flow_toxicity_ma1800 price_momentum_ma1800 volatility_ratio_ma1800 ofi_ma1800 vpin_ma1800 pressure_change_rate_ma1800 orderbook_gradient_ma1800 depth_pressure_ratio_ma1800 relative_spread_std1800 depth_imbalance_std1800 bid_ask_slope_std1800 order_book_pressure_std1800 weighted_price_depth_std1800 liquidity_imbalance_std1800 flow_toxicity_std1800 price_momentum_std1800 volatility_ratio_std1800 ofi_std1800 vpin_std1800 pressure_change_rate_std1800 orderbook_gradient_std1800 depth_pressure_ratio_std1800 relative_spread_skew1800 depth_imbalance_skew1800 bid_ask_slope_skew1800 order_book_pressure_skew1800 weighted_price_depth_skew1800 liquidity_imbalance_skew1800 flow_toxicity_skew1800 price_momentum_skew1800 volatility_ratio_skew1800 ofi_skew1800 vpin_skew1800 pressure_change_rate_skew1800 orderbook_gradient_skew1800 depth_pressure_ratio_skew1800 relative_spread_kurt1800 depth_imbalance_kurt1800 bid_ask_slope_kurt1800 order_book_pressure_kurt1800 weighted_price_depth_kurt1800 liquidity_imbalance_kurt1800 flow_toxicity_kurt1800 price_momentum_kurt1800 volatility_ratio_kurt1800 ofi_kurt1800 vpin_kurt1800 pressure_change_rate_kurt1800 orderbook_gradient_kurt1800 depth_pressure_ratio_kurt1800 relative_spread_ma3600 depth_imbalance_ma3600 bid_ask_slope_ma3600 order_book_pressure_ma3600 weighted_price_depth_ma3600 liquidity_imbalance_ma3600 flow_toxicity_ma3600 price_momentum_ma3600 volatility_ratio_ma3600 ofi_ma3600 vpin_ma3600 pressure_change_rate_ma3600 orderbook_gradient_ma3600 depth_pressure_ratio_ma3600 relative_spread_std3600 depth_imbalance_std3600 bid_ask_slope_std3600 order_book_pressure_std3600 weighted_price_depth_std3600 liquidity_imbalance_std3600 flow_toxicity_std3600 price_momentum_std3600 volatility_ratio_std3600 ofi_std3600 vpin_std3600 pressure_change_rate_std3600 orderbook_gradient_std3600 depth_pressure_ratio_std3600 relative_spread_skew3600 depth_imbalance_skew3600 bid_ask_slope_skew3600 order_book_pressure_skew3600 weighted_price_depth_skew3600 liquidity_imbalance_skew3600 flow_toxicity_skew3600 price_momentum_skew3600 volatility_ratio_skew3600 ofi_skew3600 vpin_skew3600 pressure_change_rate_skew3600 orderbook_gradient_skew3600 depth_pressure_ratio_skew3600 relative_spread_kurt3600 depth_imbalance_kurt3600 bid_ask_slope_kurt3600 order_book_pressure_kurt3600 weighted_price_depth_kurt3600 liquidity_imbalance_kurt3600 flow_toxicity_kurt3600 price_momentum_kurt3600 volatility_ratio_kurt3600 ofi_kurt3600 vpin_kurt3600 pressure_change_rate_kurt3600 orderbook_gradient_kurt3600 depth_pressure_ratio_kurt3600
feature_infos=[4.0721866799294388e-05:0.00045195981335043116] [-1.0007490422793981:1.0060011355820953] [-6.1141108591581354e-05:6.1115046264603734e-05] [-7.9561807456962237:8.1534266097632937] [-0.00062768812971505982:0.00060687985648220097] [-4.2751897234953464:4.2826544614461239] [-0.057407025572595187:15.925754359564214] [-1.0124506197670753:1.0122653094947867] [-60552.5546875:222756.203125] [-574.6614990234375:934.249267578125] [-0.10690561231100694:0.13033239543437958] [-0.15652399299187733:0.14269724488258362] [-7.1106407781154681:7.4463885991780341] [-1.004343224841598:1.0047840625855899] [-0.0095555961522188083:0.008204453219260768] [-0.00062794896133624414:0.0006065339765408467] [4.0946344818259399e-05:0.00010745897343670945] [-0.56088931537449804:0.67949259281158447] [8.1193578041475908e-06:4.3520701430943354e-05] [-2.4258573277864262:2.2939711996506444] [-1.9674562771118025:1.8009855282817531] [-0.55912893432538124:0.6825986780585328] [-0.00013535716559326456:8.7735005564911555e-05] [-1.6583782504002254:1.5947448402643203] [-0.019908159997009109:7.7247745488919533] [-0.28246021628992607:0.48479770761168528] [-23765.209796142579:140151.31295572917] [-41.744679278880355:71.286095257659781] [-0.057966833744553914:0.061307522382897633] [-0.093788656360828032:0.10384787054025967] [-3.8353351259405335e-07:0.00014729671502552975] [-3.4243617977315422e-05:0.6350378416331246] [-1.744564557400296e-08:1.5731382962420252e-05] [-0.0039044092258475418:3.1645792120395244] [0:2.3285648412294582] [0:0.6350378416331246] [-5.3495384414819046e-07:0.00025947966621251296] [-0.0053806461539143736:2.4123551887921511] [-0.0084837919158012379:5.3763697462549187] [-0.00072231935121136871:0.65080551408537779] [0:71478.383167399006] [-0.27484488483096736:154.70605610536657] [-2.2072248810276227e-05:0.053804956362803552] [0:0.069021684832462279] [-0.14889307514658984:11.084906562329289] [-2.6874448576765899:1.5641908944467402] [-2.1983890862175972:8.9143611028351888] [-2.375199877322788:2.7964775354173717] [-2.8569516467480427:3.001461546230745] [-2.6874448576765899:1.5641908944467402] [-7.0542134300468744:5.3608467834783653] [-10.047340271159797:4.5825756949558398] [-2.3904765444746299:6.8486062432084278] [-1.7109803189519479:1.6209905039547754] [-3.7195352935356527:9.5028261700352754] [-11.002510987428089:10.963577003415855] [-3.6722860830319624:4.0660339078715237] [-3.300094260170336:3.8350067445625045] [-3.5609150676829877:121.26767523463312] [-2.0156963747351622:11.510447002900506] [-1.8908409567846822:90.791062609317621] [-3.3138228648508798:13.762899453286655] [-2.3080581621771175:17.612671668780933] [-2.0156963747351622:11.510447002900506] [-3.0372049184920069:63.254691294874128] [-3.0307241505330307:107.56197742713653] [-3.0342150697005752:63.956335629738049] [-2.9867598527953598:6.0533134278339285] [-1.9082698647996028:99.112760396336526] [-3.4574525432681442:120.16856193997972] [-1.9365656382506169:20.81598540301329] [-1.9026263810122117:19.103326453887092] [4.1006865981410123e-05:5.4620899588964608e-05] [-0.3007358657818136:0.67949259281158447] [8.2618466651313312e-06:3.0975861997781877e-05] [-0.8656031904371817:1.8879318252713422] [-0.78089304261914838:1.7598404597704076] [-0.3003590598816131:0.6798978873263557] [-3.6998115976084971e-05:3.0206772608314472e-05] [-0.82047096843934941:1.098556046367537] [-0.020181550181711048:5.3722232727209729] [-0.058047963355120684:0.48431733250617981] [-2943.2012150737073:101589.68279134434] [-9.7362657536732371:14.700727581031911] [-0.032927673206198646:0.03250400696592963] [-0.077629111737987713:0.077493602584543256] [-3.2314012547306583e-07:7.0705867786880231e-05] [-0.00025534731689821015:0.54469191971620146] [-2.2298538764443226e-08:1.2151669447694707e-05] [-0.004625380304374844:2.4186133399227248] [-0.0032046070168629242:1.8026091759517209] [0:0.54469191971620146] [-6.2263459638342821e-07:0.00016334936597825397] [-0.0022505571597585226:1.7955943197644582] [-0.010726080580387012:3.553492451746068] [-0.00024042404313291248:0.57478284428546733] [-51.505520325436684:69129.704753114929] [-0.19512201644045418:75.172264975282928] [-2.2673738227559149e-05:0.033859427592128052] [0:0.053688987426320479] [-0.41657971955670747:24.782325291425664] [-1.4492808899932246:0.78585593937032472] [-0.33231470689526954:4.834288955029046] [-1.9644150459679204:1.7392280197391665] [-1.6281553615663722:1.9422734042171466] [-1.4521418187765993:0.78585593937032472] [-2.7484040521808506:4.4721359549995787] [-0.96687531511977887:4.5825756949558398] [-0.71852710180674484:4.5936352899546433] [-1.7079687364014184:0.45090803828165726] [-1.4118812961255365:5.9709415223090181] [-24.310810517460048:24.230196954988216] [-2.2762594380646863:4.1416861901203257] [-1.7320508075697292:2.3675186777147363] [-10.194382898746053:607.10763128407234] [-2.0178260695304315:2.1299454133746232] [-1.5871837905678743:29.926689089412026] [-3.3040977680351529:5.5791918986965712] [-2.3099482861402865:6.9556303974560691] [-2.0156963747351622:2.1326223610718302] [-3.0374214717493135:27.099044490657612] [-3.010834141372003:21.001508260149862] [-3.0399447216167133:21.017755681960125] [-2.9898667103625645:2.1821481325409815] [-1.4798585074048249:64.101860390696643] [-3.841548313508409:591.00858591192912] [-1.7886001503301394:27.107764335578242] [-1.5804428228899472:6.8242578089167933] [4.1056207212440662e-05:4.8035471326079331e-05] [-0.19216577840451565:0.67949259281158447] [8.2741576755371191e-06:2.631274467254746e-05] [-0.47745572763057531:1.8879318252713422] [-0.55141134378020384:1.7599355452651111] [-0.19216577840451565:0.67949259281158447] [-1.8005472319523443e-05:1.7369722941525548e-05] [-0.41294013504709209:1.098556046367537] [-0.014212267610610299:4.533735833635868] [-0.015872040356370982:0.48463039431576665] [2683.8197159813271:101600.02539825825] [-4.7537870253293892:6.1548977237215867] [-0.021264359114208448:0.029290696568894322] [-0.063515942416030327:0.050369138747091535] [-2.9230302546557071e-07:4.1424828453578866e-05] [-0.00033389843139079636:0.50498403810983095] [0:9.0115822933525761e-06] [-0.00011203617567239305:2.1618545717281132] [-0.00092765829377005563:1.5863427981492959] [-0.00042642644891828415:0.50498403810983095] [-2.1993401312417893e-07:0.00012380252090910527] [-0.0014272430475693863:1.572682700155444] [-0.011902100733387299:2.8996632464291761] [-0.00047302265191706533:0.56202036343011041] [-6.1513279630788311:69129.704753114929] [-0.013211713144726911:46.681231685522313] [0:0.02812468498884408] [-5.9280568557897921e-05:0.053688987426320479] [-0.48039879134428837:42.750200053625413] [-1.451221518981193:0.78585593937032472] [-0.19710430848630783:4.8371525240170774] [-1.9655027329718466:1.7320508075131527] [-1.629158986371998:1.9422734042171466] [-1.4492932621103822:0.78611799338071775] [-2.1658949593706978:4.4740213399640938] [-0.6770184793742704:4.5825756949558398] [-0.11491311730964454:4.5964019361209187] [-1.7076423453563609:0.45117407736419057] [-1.3222345985136423:7.2830594226897452] [-39.413567612813075:38.765772286059494] [-2.114565682791679:3.1541201277785902] [-1.7366159932281626:1.2215386552832399] [-20.704614247259048:1817.9072009161764] [-2.016790938239434:2.1328222552085636] [-1.5696249861317662:29.963021076539704] [-3.3111863507796193:4.6628500881189883] [-2.3226450758332531:6.9567638043085367] [-2.0156963747351622:2.1299454133746232] [-3.0307413738220865:21.693744426769104] [-3.0098899959104743:21.000000000000004] [-3.0474712439187601:29.704443766427339] [-2.9852858735249188:2.1814888123829692] [-1.5703251986353122:78.789944722415981] [-7.2328929471002219:1632.1588943784868] [-1.7872086463872341:13.005030439945136] [-1.5181922287989995:4.2757619498610024] [4.1085156793576018e-05:4.6531067980847892e-05] [-0.12488136176749523:0.67958096209128172] [8.2686754330736388e-06:2.3031876094411319e-05] [-0.33442627131816793:1.8886597535093876] [-0.35383129881747216:1.7633535247578658] [-0.12450189479119032:0.67949259281158447] [-1.2645292331857231e-05:1.3148598560542451e-05] [-0.2622620371522173:1.098556046367537] [-0.013697304172375488:3.8622852566374926] [-0.00085334472383095461:0.48431733250617981] [3485.0951891300306:101566.87745584676] [-2.8557256048756718:3.1292336378169785] [-0.014859940176658797:0.029290696568894322] [-0.050425894732231309:0.050276398678341556] [-2.8231054740176315e-07:2.9427863148567433e-05] [0:0.50498403810983095] [-1.73947261561407e-08:8.4826737744998732e-06] [-0.00027184465808538998:2.035386785195016] [-0.00021507886115629143:1.5115876980011451] [0:0.50498403810983095] [-3.0694735657155504e-07:0.00010305585755951863] [-0.0010394037168137322:1.5452122472494612] [-0.0083589182218688617:2.6767030405505432] [-0.00017334238953301044:0.56195224526846488] [-17.187834954284256:69129.704753114929] [-0.074053026499730987:38.023634549841674] [0:0.025859938577608869] [-4.3079771201144813e-05:0.053688987426320479] [-0.55129708311999481:59.585601407798102] [-1.4492808899932246:0.78932531036439935] [-0.20745810959907685:4.8342076621779597] [-1.9630286546404114:1.7353069500677567] [-1.6301486018152027:1.9449203382033453] [-1.4507279124974042:0.78586933332513453] [-2.2371629700651452:4.4721359549995787] [-0.54468102344261748:4.5843429914441103] [-0.045455650353833761:4.5870861672198968] [-1.7082723327504694:0.4504964396414336] [-1.3207420502576774:5.4176271012992752] [-51.007352186641839:53.376655574905797] [-1.875956567896893:1.428507409568037] [-1.7320508075697292:0.55580626644037023] [-33.505364291410721:3552.815935850007] [-2.0166377269376907:2.1299454133746232] [-1.5902337037222953:29.926689089412026] [-3.3111404883220983:3.8817700014444867] [-2.3080581621771175:6.9556303974560691] [-2.0156963747351622:2.1299454133746232] [-3.0311637563978882:21.712390807943233] [-3.0113760691955447:21.000000000000004] [-3.0513177368012094:24.717106650762236] [-2.9848030174010391:2.1856204783043669] [-1.5543261864892055:65.862429150751311] [-11.27863033845218:3097.2480785345779] [-1.7768189609574143:15.102876931671085] [-1.5181922287989995:1.6496359116039947]
tree_sizes=3025 3021 3019 3138 3170 3176 3106 3150 3104 3114 3177 3185 3131 3167 3169 3129 3156 3158 3137 3190 3132

Tree=0
num_leaves=27
num_cat=0
split_feature=186 134 215 98 153 89 155 141 175 196 126 185 129 111 107 161 41 72 82 172 216 94 97 101 221 118
split_gain=2569.23 1491.81 1323.66 1016.31 749.447 1083.58 775.526 735.528 724.635 808.978 752.809 717.277 1147.86 757.873 730.738 707.666 752.119 612.02 540.566 537.412 591.827 523.902 520.469 506.126 476.728 472.415
threshold=1.2368045214290962e-05 6.8148246273263491e-06 0.1342480016036969 0.014295120856962813 10.705970956989551 2.033153900627648 0.026801220315132223 0.017107405417976024 -0.77964447824680683 0.01118841613541253 1.1115520720748127 -0.0092010722644588951 0.018165318501358146 -13.90075450531185 0.17072535886026885 -0.10511410741803505 6.9870555854833718 4.1206374177515203e-05 15540.247514437042 0.77839308190838896 0.085826909467023607 1.347298672574236 1.5905336935372969 0.035629314481849826 -0.049768681960937387 0.23914431199611805
decision_type=2 2 2 2 2 2 2 2 2 2 2 2 2 2 2 2 2 2 2 2 2 2 2 2 2 2
left_child=7 2 4 -3 5 15 -6 19 9 10 24 25 17 -14 23 -2 -17 -13 -11 -1 -21 -18 -9 -15 -4 -8
right_child=1 3 8 -5 6 -7 11 22 -10 18 -12 12 13 14 -16 16 21 -19 -20 20 -22 -23 -24 -25 -26 -27
leaf_value=-1.0989757210260744 -1.0998357513214285 -1.0959295843324954 -1.0964427183915824 -1.099432928288073 -1.1005452125773865 -1.0929630481295447 -1.0983567459813139 -1.1009750789700146 -1.1003213026463707 -1.0941340849991916 -1.0944115559623557 -1.0977277294100649 -1.1011574747654815 -1.0949273027485948 -1.0992709374958185 -1.0959159098749263 -1.0946859515708964 -1.1010966825066175 -1.0999878001373522 -1.1012010738024796 -1.0991500722739691 -1.1011200567453554 -1.0977613912185571 -1.0994672183049721 -1.1002500594206124 -1.0961284211743421
leaf_weight=2319.6787573099136 853.65080425143242 3922.3863398134708 343.22659829258919 919.29675790667534 1265.6216056644917 559.74377250671387 1408.5311439335346 573.31684184074402 4034.6063013672829 544.06228440999985 265.80897057056427 657.43663707375526 413.22322231531143 1382.0825142264366 722.30756989121437 2254.0589014291763 148.14297863841057 1846.8373857438564 191.41835528612137 4781.4500034451485 1723.0998655855656 485.76478496193886 2162.0953876972198 262.39204800128937 2124.5259025990963 2185.2348470687866
leaf_count=6114 2335 11694 1011 2660 3457 1742 4059 1360 11286 1640 794 1851 1195 4111 2035 6630 437 5131 557 12603 4698 1391 6077 746 5938 6390
internal_value=-1.09861 -1.0981 -1.09843 -1.0966 -1.0979 -1.09685 -1.09835 -1.09979 -1.09946 -1.09845 -1.0992 -1.09804 -1.09874 -1.09741 -1.09676 -1.09744 -1.09673 -1.10021 -1.09566 -1.10022 -1.10066 -1.09961 -1.09844 -1.09565 -1.09972 -1.097
internal_weight=38350 26790.4 21948.7 4841.68 14445 4301.36 10143.7 11559.6 7503.65 3469.04 2733.56 8878.05 5284.28 2780.01 2366.78 3741.62 2887.97 2504.27 735.481 8824.23 6504.55 633.908 2735.41 1644.47 2467.75 3593.77
internal_count=107942 77090 62736 14354 41510 12535 28975 30852 21226 9940 7743 25518 15069 8087 6892 10793 8458 6982 2197 23415 17301 1828 7437 4857 6949 10449
is_linear=0
shrinkage=1


Tree=1
num_leaves=27
num_cat=0
split_feature=2 14 14 14 14 13 14 14 2 14 231 14 0 130 136 6 182 2 14 2 13 168 2 35 6 120
split_gain=19173.8 16798.8 33620.7 159.121 126.264 41.2258 30.3791 34.6987 27.4698 23.2565 27.2409 19.6653 16.351 15.4582 13.7691 13.5255 12.4973 11.1144 10.087 11.9405 9.08524 9.01772 14.62 10.8086 7.96135 7.40328
threshold=-1.0000000180025095e-35 0.00050069271889028233 -0.00049748150076170622 -0.00062047062771547143 0.00062100454540482046 -0.48859497848195182 0.00037296023981431839 -0.00034704147553755391 1.1865524811582874e-05 -0.0005246980661707492 -0.85353367836046479 -0.00082078993978056179 4.1453364856258437e-05 1.3659343844136144e-05 1.8358778442818646 1.5527060031890871 0.58596924850366794 1.6908461475395601e-05 0.00080020801475228387 1.6632548977213449e-05 0.51157372010962432 0.45387534109529537 1.6908461475395601e-05 0.37042933912036641 0.98938511105531035 1.4526798661667828
decision_type=2 8 8 10 8 2 10 10 2 10 2 10 2 2 2 2 2 2 8 2 2 2 2 2 2 2
left_child=-1 2 3 11 8 12 7 14 -3 24 -11 -2 -5 -8 -4 -13 -14 -9 19 -6 -21 22 25 -24 -7 -10
right_child=1 4 6 5 18 9 13 17 21 10 -12 15 16 -15 -16 -17 -18 -19 -20 20 -22 -23 23 -25 -26 -27
leaf_value=-1.1016121542820332 -1.1015518659323791 -1.1008432454712431 -1.0930337675284141 -1.0997304772577101 -1.1013689912137703 -1.1011141777383022 -1.0930384685733834 -1.0926929646689187 -1.1003102211886726 -1.0970277612165789 -1.1000502108098151 -1.101375305711088 -1.0967743188462693 -1.0937467704681676 -1.093667364283337 -1.1007249869898097 -1.0990363809166999 -1.0930122881294875 -1.1015453431106337 -1.1008540937838365 -1.0992105540127308 -1.1005560028256092 -1.0996960206892521 -1.0978472633806977 -1.1003984909521172 -1.099270609695683
leaf_weight=12783.1748046875 4290.3891754150391 438.69351148605347 1173.3550392389297 81.550830394029617 936.86229553818703 229.97642666101456 799.61989411711693 8429.4686931371689 186.93332505226135 34.679075330495834 110.77265849709511 747.43330085277557 45.014445662498474 482.46205368638039 476.65401494503021 494.58079063892365 41.328177779912949 1288.1807001829147 4339.479222625494 176.76988226175308 37.64299538731575 115.79998373985291 51.526875585317612 62.06450030207634 400.15996831655502 95.427940309047699
leaf_count=39257 13456 1290 2747 242 2793 712 1867 19462 542 94 332 2332 121 1153 1144 1513 120 3009 12996 520 106 338 147 168 1212 269
internal_value=-1.09861 -1.09711 -1.0957 -1.10126 -1.1013 -1.10012 -1.09286 -1.0928 -1.10029 -1.10041 -1.09932 -1.10145 -1.09877 -1.0933 -1.09322 -1.10112 -1.09786 -1.09274 -1.10148 -1.10122 -1.10057 -1.09982 -1.0996 -1.09868 -1.10066 -1.09996
internal_weight=38350 25566.8 19125.6 6475.88 6441.2 943.482 12649.7 11367.7 950.446 775.588 145.452 5532.4 167.893 1282.08 1650.01 1242.01 86.3426 9717.65 5490.75 1151.28 214.413 511.753 395.953 113.591 630.136 282.361
internal_count=107942 68685 49516 20134 19169 2833 29382 26362 2754 2350 426 17301 483 3020 3891 3845 241 22471 16415 3419 626 1464 1126 315 1924 811
is_linear=0
shrinkage=1


Tree=2
num_leaves=27
num_cat=0
split_feature=176 233 58 58 16 229 142 233 212 99 126 82 140 81 21 164 106 106 126 158 31 152 129 177 78 74
split_gain=3313.82 1546.73 1064.68 1044.32 925.76 701.066 600.086 559.004 896.238 590.045 518.659 477.459 447.33 430.843 403.607 353.742 350.489 392.006 338.761 415.651 391.252 329.33 321.982 380.938 405.001 318.902
threshold=4.93177438047584 1.2611425211085689 -1.0000000180025095e-35 1.0000000180025095e-35 4.353732571568496e-05 1.0792456575822718 8.1114010832442894e-07 -0.48415545594992743 16.269860438792694 0.025339752037714304 -1.1008610586838683 4180.2247637605678 -0.0037924049942658811 0.058072169144961258 -0.09316648924432229 1.8000897608592556 0.48971049157445884 -0.49436549770863675 -0.40203488518441638 1.3527435834675414 0.26279551468480772 17877.546748163117 0.033820950182513729 0.1901312435210602 -8.059947893451252e-07 8.6936502960573623e-06
decision_type=2 2 2 2 2 2 2 2 2 2 2 2 2 2 2 2 2 2 2 2 2 2 2 2 2 2
left_child=1 2 -1 4 10 7 11 14 -9 -10 -4 -5 16 -6 -2 22 17 -8 19 -11 -21 -17 23 -12 -25 -3
right_child=5 25 3 6 13 -7 12 8 9 18 15 -13 -14 -15 -16 21 -18 -19 -20 20 -22 -23 -24 24 -26 -27
leaf_value=-1.0973415492563978 -1.0949235245594404 -1.0974635324092523 -1.0961831032655436 -1.1011607496491924 -1.0944109423175701 -1.0943270229348201 -1.1000502047591623 -1.094684215567014 -1.0945859966818277 -1.1009462628261675 -1.0996201261741496 -1.0967950022076285 -1.0992157612041937 -1.1003437702225976 -1.1009399797428521 -1.0989981874738937 -1.1006052364518357 -1.0962480811577164 -1.1005061443722906 -1.1015757695583743 -1.0933516004192509 -1.0956582755098871 -1.1003596615438795 -1.0947464713019643 -1.0995950247531441 -1.1011510482327749
leaf_weight=4269.9689394235611 127.95650720596313 225.96904647350311 398.63960599899292 243.16892102360725 469.26183688640594 1249.9501982927322 298.59051126241684 1396.2503671944141 340.43377444148064 169.29926002025604 6886.9250172078609 2997.1223212182522 4550.6805373728275 143.27086651325226 457.0603184401989 1800.9154468476772 275.58959436416626 1321.8753026127815 646.60035705566406 65.595649182796478 243.08383855223656 311.10019540786743 5782.3098241686821 310.40613660216331 308.45715746283531 3059.5190505981445
leaf_count=13127 375 593 1118 747 1347 3653 875 4130 991 451 18569 8841 13358 409 1386 4954 836 3840 1843 151 716 884 15322 888 828 7710
internal_value=-1.09861 -1.09894 -1.09873 -1.09896 -1.09942 -1.09625 -1.09818 -1.09695 -1.0964 -1.09804 -1.09956 -1.09712 -1.09871 -1.0958 -1.09962 -1.09965 -1.09748 -1.09695 -1.09909 -1.09718 -1.09511 -1.09851 -1.09983 -1.09942 -1.09716 -1.1009
internal_weight=38350 33653.8 30368.3 26098.3 16411.3 4696.23 9687.03 3446.28 2861.26 1465.01 15798.8 3240.29 6446.74 612.533 585.017 15400.1 1896.06 1620.47 1124.58 477.979 308.679 2112.02 13288.1 7505.79 618.863 3285.49
internal_count=107942 94246 85943 72816 44319 13696 28497 10043 8282 4152 42563 9588 18909 1756 1761 41445 5551 4715 3161 1318 867 5838 35607 20285 1716 8303
is_linear=0
shrinkage=1


Tree=3
num_leaves=27
num_cat=0
split_feature=14 14 2 14 2 1 14 200 14 2 2 130 138 14 2 4 6 114 32 2 4 4 12 140 67 12
split_gain=71014.8 252.21 940.919 89.8636 101.158 41.1053 22.5866 24.3902 17.269 164.253 16.6504 13.4055 9.85802 8.5478 22.9845 8.14445 6.40544 4.26707 3.83031 3.46145 3.26082 3.14726 3.46946 3.22938 2.80287 2.70763
threshold=-0.00049748150076170622 -0.00034704147553755391 -1.0000000180025095e-35 -0.00062047062771547143 -1.0000000180025095e-35 -0.46156792668707541 -0.0005246980661707492 2.436115229287898e-06 -0.00020713368416860908 8.1866860455193108e-06 1.101550833482179e-05 1.388638144236312e-05 13696.519529482752 -0.00078823594699779461 1.3750125617661981e-05 1.3155737300297254e-05 0.98938511105531035 295.72416090419176 2.4973973066838061e-06 1.0797900358738845e-05 5.2369333197114832e-06 7.6806745211430751e-06 -0.81786313092746898 -0.0048157783144137552 0.23672397678558352 -1.1279326090452346
decision_type=8 8 2 10 2 2 10 2 8 2 2 2 2 10 2 2 2 2 2 2 2 2 2 2 2 2
left_child=3 2 -2 13 -5 10 16 -8 9 -3 -6 20 -12 -1 19 25 -7 18 -17 -15 -4 22 -18 -24 -9 -13
right_child=1 8 11 4 5 6 7 24 -10 -11 12 15 -14 14 -16 17 21 -19 -20 -21 -22 -23 23 -25 -26 -27
leaf_value=0.0058293273365042147 0.0058018076910759161 0.0026303392393180209 -0.0026520969990794238 0.0058661548416443611 0.0045140703390729262 0.005388675790424651 0.0014701200087832828 0.0048568774704893245 -0.0029171769548776193 -0.0027618955282626085 0.0017414967642690822 -0.002564702174014096 0.0034003980614618753 0.0058248445273560668 0.0049096280139924167 -0.0020670511323672507 0.0051666830848782581 -0.0006074261409398608 -0.00094499514719518607 0.0054587471692181594 -0.0022980507084709124 0.0049994811156412796 0.0032905692792472374 0.004416607603675112 0.0037642157832200622 -0.0019875907770826214
leaf_weight=8795.6471710205078 131.57009765505791 49.480131506919861 741.65061944723129 741.72842770814896 54.742206424474716 225.22574409842491 34.889528781175613 54.498713791370392 22025.995932608843 1799.1445633172989 66.963558167219162 130.78905069828033 62.186247766017914 1433.5826787948608 363.71916234493256 81.765612065792084 46.168567270040512 44.778620272874832 42.547821640968323 416.10923063755035 396.67857429385185 204.09836006164551 39.008343398571014 101.25753962993622 55.071889489889145 210.58668461441994
leaf_count=27574 413 142 1729 2329 165 697 95 166 59689 4177 184 306 181 4495 1109 195 142 113 106 1290 938 624 113 304 162 504
internal_value=0 -0.00281426 -0.00174574 0.00568723 0.00504984 0.00440665 0.00471051 0.003638 -0.00289393 -0.00261639 0.00314379 -0.00234975 0.00254969 0.00578479 0.00560706 -0.00194702 0.00496022 -0.00140702 -0.00168881 0.00574337 -0.00252961 0.00470901 0.00438267 0.00411246 0.0043198 -0.00221171
internal_weight=38349.9 25655 1780.37 12694.9 1685.84 944.111 760.219 144.46 23874.6 1848.62 183.892 1648.8 129.15 11009.1 2213.41 510.468 615.759 169.092 124.313 1849.69 1138.33 390.533 186.434 140.266 109.571 341.376
internal_count=107942 68312 4304 39630 5162 2833 2303 423 64008 4319 530 3891 365 34468 6894 1224 1880 414 301 5785 2667 1183 559 417 328 810
is_linear=0
shrinkage=0.00294


Tree=4
num_leaves=27
num_cat=0
split_feature=2 14 14 14 14 1 14 14 2 14 227 82 14 130 6 136 2 14 2 14 1 168 2 31 120 6
split_gain=19091.2 16714.5 33391.3 158.672 125.973 40.9392 30.0407 34.2305 27.4506 23.3669 26.7621 19.9819 19.5845 15.1169 13.5284 13.4608 10.674 10.0401 11.9461 9.40215 9.05685 8.98936 14.5939 10.3823 7.40204 7.26882
threshold=1.0000000180025095e-35 0.00050069271889028233 -0.00049748150076170622 -0.00062047062771547143 0.00062100454540482046 -0.46156792668707541 0.00037296023981431839 -0.00034704147553755391 1.1865524811582874e-05 -0.0005246980661707492 -0.85351880154110848 11879.449260967574 -0.00082078993978056179 1.3659343844136144e-05 1.5527060031890871 1.8358778442818646 1.6908461475395601e-05 0.00080020801475228387 1.6632548977213449e-05 -0.00053957980658035382 0.51165908356326273 0.45387534109529537 1.6908461475395601e-05 0.36965617307565807 1.4526798661667828 0.98938511105531035
decision_type=2 8 10 8 8 2 10 10 2 10 2 2 10 2 2 2 2 8 2 10 2 2 2 2 2 2
left_child=-1 2 3 12 8 11 7 15 -3 25 -11 -5 -2 -8 -14 -4 -9 18 -6 -13 -20 22 24 -24 -10 -7
right_child=1 4 6 5 17 9 13 16 21 10 -12 19 14 -15 -16 -17 -18 -19 20 -21 -22 -23 23 -25 -26 -27
leaf_value=-0.0029362518591888992 -0.0028773288895930778 -0.0021843529905646538 0.005442277018968121 0.0012305782554009616 -0.0026991490363395009 -0.0024563814009506981 0.0054368215501867899 0.0057739727439335767 -0.001662259719120803 0.0015072552602118582 -0.0014223564013965567 -0.0014206385408842568 -0.0027051028219931801 0.0047505972044996764 -0.0020674830181668328 0.0048284362875225164 0.0054669501005575266 -0.0028713036839728002 -0.002193866753720115 0.00026213280694701311 -0.00058545361011186283 -0.0019021147532935724 -0.0010476562012148357 0.00072917193469898469 -0.00064336036644538797 -0.0017767249131153682
leaf_weight=12767.388453364372 4285.4251518249512 438.4549081325531 1175.9082190692425 55.778915911912918 936.14747884869576 224.96182286739349 801.41876798868179 8448.9255395233631 186.8571403324604 35.021776109933853 109.32816490530968 86.389014959335327 746.80605465173721 483.26006454229355 494.19545596837997 477.43578174710274 1290.5662237405777 4335.0024054944515 176.62045982480049 41.619495362043381 37.63700670003891 115.72038027644157 51.169382750988007 62.406988233327866 95.395125597715378 389.99491465091705
leaf_count=39257 13456 1290 2747 153 2793 697 1867 19462 542 95 328 259 2332 1153 1513 1144 3009 12996 520 118 106 338 146 169 269 1183
internal_value=0 0.0014654 0.00284313 -0.00259151 -0.00263344 -0.00147548 0.00561661 0.00566576 -0.00164322 -0.00177663 -0.000705865 -0.000227386 -0.00278202 0.00517997 -0.00245206 0.005266 0.00573346 -0.00280492 -0.00255385 -0.000867737 -0.00191454 -0.00117724 -0.000962558 -6.82428e-05 -0.00132024 -0.00202701
internal_weight=38349.8 25582.4 19147 6469.52 6435.41 943.094 12677.5 11392.8 950.004 759.307 144.35 183.787 5526.43 1284.68 1241 1653.34 9739.49 5485.41 1150.4 128.009 214.257 511.549 395.829 113.576 282.252 614.957
internal_count=107942 68685 49516 20134 19169 2833 29382 26362 2754 2303 423 530 17301 3020 3845 3891 22471 16415 3419 377 626 1464 1126 315 811 1880
is_linear=0
shrinkage=0.00294


Tree=5
num_leaves=27
num_cat=0
split_feature=130 233 177 44 44 44 177 74 141 99 184 186 76 173 32 73 74 78 135 151 97 238 218 122 224 31
split_gain=2264.58 1700.15 980.093 959.348 1628.97 590.691 548.435 435.547 445.8 423.109 554.951 452.112 415.75 481.067 412.93 409.121 396.691 387.359 379.339 369.723 366.095 352.791 350.348 455.534 350.176 371.64
threshold=2.1913665548001722e-05 1.2611425211085689 -0.70639560689798608 -1.0000000180025095e-35 1.0000000180025095e-35 10.948217889661587 0.431170201190966 8.6936502960573623e-06 0.0092849204664834286 0.024120244952488459 4.1766506324881042e-05 1.539487125055171e-05 0.21364463291422456 0.37065858096253318 6.1344618764383595e-06 0.0014286837679542825 1.2560103891701147e-05 8.4393796636698401e-06 -0.26911099695429069 0.45679536835050688 9.3513849727506084 0.13477351280449298 0.061428137676369114 1.8935184044045867 0.29809921715545101 0.32314834769103012
decision_type=2 2 2 2 2 2 2 2 2 2 2 2 2 2 2 2 2 2 2 2 2 2 2 2 2 2
left_child=1 3 -2 19 9 6 12 8 -3 10 17 22 13 16 24 21 -6 -5 -18 -1 -4 -13 -11 -24 25 -15
right_child=2 7 20 4 5 -7 -8 -9 -10 11 -12 15 -14 14 -16 -17 18 -19 -20 -21 -22 -23 23 -25 -26 -27
leaf_value=0.00095604893780248999 -0.00091596114159188174 0.0050743550125029319 0.00043282101911771247 0.0023390782820668344 0.0049061982926032113 -0.00072964605279264582 0.0034691928953588932 -0.0024693626152429969 -0.002815536576673743 -0.0016113744411800188 -0.0005616871588136499 -0.0007392790408234551 -0.00034549037923164386 0.0034765491768264448 0.0046401314226437581 -0.00069567098510396326 0.0024007141179604951 -0.0017177780330902565 -0.0013688231140611697 0.0033747660934151684 0.0050159211760293183 0.003600311042149452 -0.001081830808122803 0.0023576682879178348 0.0031164845279145975 0.00065038018483205666
leaf_weight=3981.2150005400181 376.96811294555664 138.68214470148087 172.48344355821609 1090.0775699317455 120.28627336025238 1993.0406913757324 735.98965874314308 3061.5565605163574 110.78505271673203 7498.8445525169373 4709.6346189677715 255.81405830383301 2004.3655944764614 459.97836601734161 367.98061645030975 1624.2792065143585 285.90660095214844 249.39897507429123 1185.1188380718231 633.01865911483765 1191.047390639782 438.41361737251282 1179.8968159258366 462.9264303445816 836.77091977000237 3185.4010643661022
leaf_count=12250 1131 407 507 3059 356 5535 2213 7727 256 19783 12903 726 5933 1380 1100 4563 834 657 3570 1922 3498 1264 3085 1314 2450 9519
internal_value=0 -0.00015578 0.00327604 4.39914e-05 -0.00015614 0.000720804 0.00103576 -0.00216482 0.00156517 -0.000715867 -8.6725e-05 -0.00104791 0.000823516 0.00118738 0.00164758 0.000111288 -0.000214796 0.00158257 -0.000635245 0.00128814 0.00443618 0.00199986 -0.00134199 -0.000112068 0.00140149 0.00100744
internal_weight=38349.9 36609.4 1740.5 33298.4 28684.1 11174.8 9181.8 3311.02 249.467 17509.3 6049.11 11460.2 8445.81 6441.44 4850.13 2318.51 1591.31 1339.48 1471.03 4614.23 1363.53 694.228 9141.67 1642.82 4482.15 3645.38
internal_count=107942 102806 5136 94416 80244 32890 27355 8390 663 47354 16619 30735 25142 19209 14449 6553 4760 3716 4404 14172 4005 1990 24182 4399 13349 10899
is_linear=0
shrinkage=0.00294


Tree=6
num_leaves=27
num_cat=0
split_feature=14 14 2 14 2 5 14 203 1 14 2 5 2 16 5 14 2 6 1 136 6 136 5 12 5 167
split_gain=70579.5 252.501 935.392 88.7229 100.241 68.8242 32.637 30.7981 18.4476 17.4646 163.591 16.4105 11.0009 10.8376 8.51466 12.6688 28.427 15.7289 7.98674 7.30809 6.76215 6.296 4.91082 4.558 4.41793 4.59015
threshold=-0.00049748150076170622 -0.00034704147553755391 1.0000000180025095e-35 -0.00062047062771547143 -1.0000000180025095e-35 -1.3793104290962217 -0.0005246980661707492 0.43978749566499575 -0.46156792668707541 -0.00020713368416860908 8.1866860455193108e-06 1.1069711446762087 1.1227476989006392e-05 4.3209782370468025e-05 -1.9662406693503434 -0.00089177795056789714 1.0009728612203618e-05 1.6631596088409426 -0.10398454095579759 1.8358778442818646 2.9499205273490507 1.8541360140656833 1.7219397859860492 -1.1279326090452346 1.8442774415016177 -2.6365900847875721
decision_type=8 8 2 10 2 2 8 2 2 8 2 2 2 2 2 10 2 2 2 2 2 2 2 2 2 2
left_child=3 2 -2 14 -5 8 20 18 -6 10 -3 19 -10 24 15 -1 -17 -18 -8 -4 -7 -14 -12 -21 -13 -26
right_child=1 9 11 4 5 6 7 -9 12 -11 22 13 21 -15 -16 16 17 -19 -20 23 -22 -23 -24 -25 25 -27
leaf_value=0.0056047296230213213 0.0056592190084820485 0.0025699247492032436 -0.0025687081621080369 0.0057218137972100741 0.0015419020236935601 0.0051009979069458937 0.0030613674076265729 0.0010335609048226233 0.0045569026693621836 -0.0028555128283158223 -0.0027469057870931884 -0.0021730830805553659 0.0018168998798892605 -0.00030585025887632753 0.005666378497770708 0.0056305274142867418 0.0048706371329270675 0.0027915120392894978 0.0047913829953301406 -0.002589460406824048 0.004029315668930002 0.0035024556451643662 -0.00215313878564715 -0.0018639549363221625 -0.0019793567831628495 -0.00061329033913790326
leaf_weight=560.22688770294189 131.87547397613525 49.526653051376343 975.09958174824715 743.46749752759933 68.803853511810303 544.8277830183506 38.220353424549103 34.31115585565567 46.321327120065689 22000.531504064798 1657.2986883223057 170.12003272771835 36.661360263824463 41.879540830850601 10186.023150920868 162.49027580022812 59.319976389408112 67.606274127960205 69.286256432533264 110.04029306769371 64.641549676656723 42.815110117197037 138.78165325522423 264.54398882389069 44.303900331258774 40.387112200260162
leaf_count=1748 413 142 2279 2329 188 1674 110 92 140 59689 3847 404 101 107 31838 508 181 193 211 257 192 125 330 636 106 102
internal_value=0 -0.00275443 -0.00170606 0.00554653 0.00492646 0.00429949 0.00469637 0.00342967 0.00276154 -0.0028326 -0.0025589 -0.00229771 0.00341932 -0.00167603 0.0056414 0.00534007 0.00482224 0.00377536 0.00418636 -0.00243385 0.00498933 0.00273976 -0.00270151 -0.00208026 -0.00189895 -0.00133894
internal_weight=38349.4 25624.4 1778.25 12725 1689.36 945.889 751.287 141.818 194.602 23846.1 1845.61 1646.37 125.798 296.691 11035.7 849.643 289.417 126.926 107.507 1349.68 609.469 79.4765 1796.08 374.584 254.811 84.691
internal_count=107942 68312 4304 39630 5162 2833 2279 413 554 64008 4319 3891 366 719 34468 2630 882 374 321 3172 1866 226 4177 893 612 208
is_linear=0
shrinkage=0.0028812


Tree=7
num_leaves=27
num_cat=0
split_feature=14 14 114 186 14 14 14 14 5 13 14 14 114 100 5 14 5 14 202 5 194 5 9 184 176 1
split_gain=16817 48761.5 510.823 124.427 98.9791 91.9236 83.7205 71.7607 49.6785 44.187 41.4007 47.8449 37.1995 51.4646 37.025 33.2346 22.9921 22.4705 21.6451 21.3514 20.244 18.8949 18.7101 16.9358 16.3725 15.6759
threshold=0.00050069271889028233 -0.00049748150076170622 -1.0000000180025095e-35 1.491785481311145e-05 0.00043514207409318099 -0.00062047062771547143 -0.00034704147553755391 0.00062100454540482046 -1.3793104290962217 -0.48859497848195182 -0.00034704147553755391 0.00037296023981431839 1.0000000180025095e-35 6.5299748848586079 1.6264145608185603 0.00030555010163241188 -1.5689812760109996 -0.0005246980661707492 1.309120280460587 1.3148905907360746 23029.122297042919 1.678522021835352 -1.1576832772711558 4.1805496690964606e-05 4.5438023961467806 0.1610524648930787
decision_type=8 10 2 2 8 8 10 8 2 2 8 10 2 2 2 8 2 8 2 2 2 2 2 2 2 2
left_child=1 5 -3 10 6 -1 19 14 9 -7 12 -12 -4 -14 -2 24 -17 -10 -6 -5 -13 -15 -16 -19 -8 -24
right_child=7 2 3 4 18 8 15 -9 17 -11 11 20 13 21 22 16 -18 23 -20 -21 -22 -23 25 -25 -26 -27
leaf_value=-0.0027957948628316138 -0.0023412351500516275 -0.0028293387675167011 0.0053517208984772205 0.0040233772927437128 0.0033938414667928022 0.00098112063531335166 0.0053227213087120888 -0.0028109780212424718 -0.0024759699627845077 -0.001610354300711283 0.0055956179657599605 0.0044786295977436085 0.0012605826738287483 0.0047957315771037868 0.00053713000776176392 0.0025166254105545901 0.0045855619378098993 -0.00011959117224650128 0.0012450526192913909 0.0022618372807986916 0.005345050190145125 0.0027371948685157876 -0.0022681936861992601 -0.0019258371231806435 0.0045345528503811039 -0.00056774288577697443
leaf_weight=10961.900833129883 1484.8054826259613 64.25771701335907 799.33601024746895 378.37358245253563 128.8603221476078 69.739353090524673 2074.5975419282913 10903.87586337328 1133.4774971008301 241.47988805174828 7412.0260561108589 491.88494807481766 41.642105609178543 431.99900615215302 45.877217531204224 54.041987121105194 315.16598349809647 57.316634684801102 57.131022304296494 69.860809713602066 459.09662759304047 42.573408275842667 100.49073818325996 178.9748167693615 267.32743275165558 83.087151259183884
leaf_count=34468 4395 198 1859 931 320 193 4828 32712 3526 731 17051 1177 114 1029 125 138 752 165 152 184 1065 110 297 547 641 234
internal_value=-8.19664e-10 0.00133607 0.00523423 0.00527428 0.00479251 -0.00269933 0.00491305 -0.00272454 -0.00207015 -0.00102724 0.00544066 0.00551654 0.00495714 0.00434308 -0.00217447 0.00510471 0.00428544 -0.00230653 0.00274039 0.00375124 0.00489869 0.00461264 -0.00109199 -0.00149049 0.00523333 -0.00150261
internal_weight=38349.2 25731.1 13088.2 13023.9 3345.36 12642.9 3159.37 12618.1 1680.99 311.219 9678.56 8363.01 1315.55 516.215 1714.26 2711.13 369.208 1369.77 185.991 448.234 950.982 474.572 229.455 236.291 2341.92 183.578
internal_count=107942 70179 30549 30351 7946 39630 7474 37763 5162 924 22405 19293 3112 1253 5051 6359 890 4238 472 1115 2242 1139 656 712 5469 531
is_linear=0
shrinkage=0.0028812


Tree=8
num_leaves=27
num_cat=0
split_feature=14 14 58 58 44 14 5 14 5 6 9 205 5 5 1 129 26 58 6 209 5 150 6 14 86 106
split_gain=71032.7 262.727 351.999 136.908 181.957 68.9616 36.3428 19.5508 19.3758 21.4282 18.2027 17.6202 21.3311 15.89 14.8102 13.0851 11.5003 9.7796 8.25762 7.34994 7.29966 7.08512 6.44089 20.7174 6.15479 5.85364
threshold=0.00050069271889028233 0.00033824495337898488 -1.0000000180025095e-35 1.0000000180025095e-35 1.6572682271750472 0.00062100454540482046 1.6264145608185603 0.00021696680418114851 -1.9662406693503434 1.5527060031890871 -1.1576832772711558 1.3325437404384612 0.63971149551651674 -1.3793104290962217 0.1610524648930787 0.044820742431360396 10095.969164536798 -1.0000000180025095e-35 2.5337933301925664 8.6114108949982757 1.8442774415016177 1.5491024836383953 3.285853446614317 0.0011842970525198628 3.6525001151502918e-07 -0.079180705707306856
decision_type=8 10 2 2 2 8 2 8 2 2 2 2 2 2 2 2 2 2 2 2 2 2 2 8 2 2
left_child=1 7 -3 13 -5 6 17 -1 9 -9 -8 -6 15 19 -12 25 -14 -2 -19 -4 -7 -15 -22 -24 -16 -13
right_child=5 2 3 4 11 20 10 8 -10 -11 14 12 16 21 24 -17 -18 18 -20 -21 22 -23 23 -25 -26 -27
leaf_value=-0.0028544397818309752 0.005726246332789996 0.0054686474097547155 -0.0022593013377907307 0.0050228927473527146 -0.0024345846830573933 0.0056926907346108325 0.0022975259499705102 -0.0025258265879554301 -0.0025876430949736801 0.0003222411324449951 0.0051234031948013794 -0.0012990194155266556 -0.00042166816856554291 -0.0025775657666980761 0.0041549402514939196 0.0012900955116142599 -0.0023135347930484072 0.0051955784536170902 0.0044921982892063258 -0.001079007179204293 0.0055182972996178125 -0.0018329260854264586 0.0033231531523417691 0.0055673942704344663 0.0024974476929083304 -2.436067732771006e-05
leaf_weight=22485.043501675129 277.37749800086021 54.778945416212082 76.832477033138275 44.456194549798965 68.359666496515274 9987.8026988208294 45.990987092256546 45.027183026075363 1352.6799309253693 41.119942933320999 100.84464514255524 53.42643740773201 39.998691350221634 987.95206585526466 46.0147565305233 40.499742388725281 83.48369637131691 1021.2643676400185 190.36995181441307 109.37361052632332 802.73480433225632 127.58595216274261 54.109091311693192 106.4091389477253 37.295752763748169 68.72821319103241
leaf_count=62595 830 163 181 131 160 29855 125 105 3156 106 297 130 100 2302 132 107 196 3014 551 268 2388 305 152 317 102 174
internal_value=0 -0.00275433 -0.00167748 -0.00190935 -0.000431474 0.0055823 0.00503995 -0.00283334 -0.00250291 -0.00116515 0.0039557 -0.00112151 -0.000804072 -0.00236191 0.00436399 -0.00011501 -0.00170454 0.00520664 0.00508625 -0.00157215 0.00566739 -0.00249313 0.00540342 0.00481939 0.00342901 -0.000587236
internal_weight=38349.6 25679.3 1755.48 1700.7 398.953 12670.2 1719.16 23923.9 1438.83 86.1471 230.146 354.496 286.137 1301.74 184.155 162.654 123.482 1489.01 1211.63 186.206 10951.1 1115.54 963.253 160.518 83.3105 122.155
internal_count=107942 70179 4217 4054 998 37763 5051 65962 3367 211 656 867 707 3056 531 411 296 4395 3565 449 32712 2607 2857 469 234 304
is_linear=0
shrinkage=0.0028812


Tree=9
num_leaves=27
num_cat=0
split_feature=14 14 2 14 2 5 14 203 13 14 2 5 2 16 5 14 2 6 13 186 6 136 5 5 179 9
split_gain=70077.9 251.976 930.833 87.5106 99.2421 68.0625 32.2816 30.5409 18.2547 17.4431 163.113 16.3722 10.9118 10.7951 8.42364 12.5408 28.158 15.5959 7.917 7.58546 6.69683 6.25083 4.90744 4.41013 5.3583 4.017
threshold=-0.00049748150076170622 -0.00034704147553755391 -1.0000000180025095e-35 -0.00062047062771547143 -1.0000000180025095e-35 -1.3793104290962217 -0.0005246980661707492 0.43978749566499575 -0.46182684356393044 -0.00020713368416860908 8.1866860455193108e-06 1.1069711446762087 1.1227476989006392e-05 4.3209782370468025e-05 -1.9662406693503434 -0.00089177795056789714 1.0009728612203618e-05 1.6631596088409426 -0.10391033816287883 1.3852428730211211e-05 2.9499205273490507 1.8541360140656833 1.7219397859860492 1.8442774415016177 0.018848487443934196 0.21783451387395028
decision_type=8 8 2 10 2 2 10 2 2 8 2 2 2 2 2 10 2 2 2 2 2 2 2 2 2 2
left_child=3 2 -2 14 -5 8 20 18 -6 10 -3 19 -10 23 15 -1 -17 -18 -8 -4 25 -14 -12 -13 -25 -7
right_child=1 9 11 4 5 6 7 -9 12 -11 22 13 21 -15 -16 16 17 -19 -20 -21 -22 -23 -24 24 -26 -27
leaf_value=0.0054617097587822362 0.0055240425235556449 0.0025135527382277962 -0.0025112340091549543 0.0055768148542981975 0.0015049397849676376 0.0051281950880939673 0.0029846403535354268 0.0010065594113236832 0.0044431784678762368 -0.0027943660836544115 -0.0026879639689837225 -0.0021261008991729198 0.0017706175509353632 -0.00029915641616211596 0.0055217086932402085 0.0054868294317717402 0.0047468579534500682 0.0027201286681209731 0.0046711008060404506 -0.0020157355819299897 0.003927526705284002 0.0034152582138637071 -0.0021059611374100802 -0.0019911488972002471 -0.00054964870412699837 0.0044807687657587502
leaf_weight=561.77023792266846 132.13477551937103 49.557065010070801 993.13425025343895 745.47458565235138 68.862372279167175 411.96639174222946 38.288745641708374 34.343591839075089 46.424551993608475 21968.815158367157 1654.9993836283684 169.94662591814995 36.710185319185257 41.87506565451622 10214.314063072205 162.94008278846741 59.469441413879395 67.730768918991089 69.449751347303391 354.97858217358589 64.783818393945694 42.895734131336212 138.61667758226395 43.948212713003159 40.680836766958237 134.25090947747231
leaf_count=1748 413 142 2324 2329 188 1269 110 92 140 59689 3847 404 101 107 31838 508 181 193 211 848 192 125 330 105 103 405
internal_value=0 -0.00269531 -0.00166854 0.00540519 0.00480238 0.0041916 0.0045778 0.00334421 0.00269371 -0.00277191 -0.00250368 -0.00224809 0.00333418 -0.00163932 0.00549739 0.00520401 0.00469966 0.00367952 0.00408153 -0.00238144 0.00486291 0.0026713 -0.00264346 -0.00185753 -0.00130904 0.00497167
internal_weight=38348.4 25588.7 1776.7 12759.7 1693.45 947.976 753.083 142.082 194.893 23812 1843.17 1644.56 126.03 296.451 11066.2 851.911 290.14 127.2 107.738 1348.11 611.001 79.6059 1793.62 254.576 84.629 546.217
internal_count=107942 68312 4304 39630 5162 2833 2279 413 554 64008 4319 3891 366 719 34468 2630 882 374 321 3172 1866 226 4177 612 208 1674
is_linear=0
shrinkage=0.00282358


Tree=10
num_leaves=27
num_cat=0
split_feature=2 208 204 16 72 125 27 164 33 97 171 128 107 30 92 120 153 35 117 122 226 177 133 51 182 110
split_gain=18910.5 4934.83 1295.16 631.283 361.382 346.818 371.547 302.588 269.145 262.046 284.349 264.486 264.296 312.164 259.651 244.203 264.902 242.486 248.677 228.073 223.622 220.57 229.042 218.823 217.701 214.454
threshold=1.0000000180025095e-35 19034.635937483621 5.1427976249650524e-05 4.2933676210547379e-05 4.3779077862685282e-05 110.93260320804883 0.53004951511926879 1.9522651595204696 2.2361477367027867 18.588924681054106 -0.94097212495569216 4.1321744468949174e-05 -0.16068128795911785 1.7610850059496335e-08 9.5914606849104703e-06 1.6811932364414288 37.321544064979783 0.38112465128592526 0.40305713506885349 -0.4585160187489335 1124.7030556424784 -0.051322794034147169 0.0041568815813747871 -0.15857044302565024 0.20662931166993181 -0.035776541922378252
decision_type=2 2 2 2 2 2 2 2 2 2 2 2 2 2 2 2 2 2 2 2 2 2 2 2 2 2
left_child=-1 2 7 14 15 -5 23 8 9 10 12 -11 20 -14 24 16 19 21 -19 -4 -2 -12 -23 -7 -3 -17
right_child=1 3 4 5 -6 6 -8 -9 -10 11 17 -13 13 -15 -16 25 -18 18 -20 -21 -22 22 -24 -25 -26 -27
leaf_value=-0.0028123665686132539 0.00055944073532365063 -0.0016433930903810283 0.002112886802370163 0.0033472237026243431 -0.0013093295981612065 0.0023070027026980008 0.003166179659105566 -0.00023754001889837327 -0.00050813993282261582 -0.00042108042290221818 0.0020558045886525707 0.003615488441916686 -0.0013546922332257725 0.0014569751529742603 0.0040318565575261974 -0.0017967340463635531 -0.001715863916742584 0.0032341299414653697 0.0015814575465548004 0.0004200733307512347 0.0037281185545801339 -0.0016169631613672294 0.0010683081116011595 -0.0012665837111395205 0.005499378855571644 -3.2949376651940993e-05
leaf_weight=12732.353851258755 416.21882969141006 116.88170513510704 781.24840435385704 876.83758720755577 1713.5614967346191 187.26033979654312 386.54614192247391 868.75775229930878 496.48735475540161 152.29603850841522 1041.7456041276455 837.95340725779533 774.53386136889458 529.50065532326698 4987.6707234382629 773.81168907880783 382.24570342898369 1328.3825177550316 1605.5650150477886 3377.0597847104073 309.65382522344589 356.09007379412651 872.35341876745224 500.21418040990829 47.300277709960938 1895.4685248732567
leaf_count=39257 1153 340 2048 2189 5010 487 972 2456 1423 438 2733 2068 2275 1416 12114 2321 1135 3329 4292 9393 762 1046 2362 1461 108 5354
internal_value=-8.56941e-09 0.00139788 0.000630208 0.00339865 -0.000143935 0.00202997 0.000953305 0.00135061 0.00150893 0.00163082 0.00144413 0.00299333 0.0005474 -0.000212362 0.00391682 0.000132996 0.000531475 0.00179377 0.00233006 0.000738373 0.0019124 0.00110033 0.000289285 -0.000291221 0.00042305 -0.000544573
internal_weight=38348 25615.6 18512.9 7102.71 8923.4 1950.86 1074.02 9589.54 8720.78 8224.29 7234.04 990.249 2029.91 1304.03 5151.85 7209.83 4540.55 5204.14 2933.95 4158.31 725.873 2270.19 1228.44 687.475 164.182 2669.28
internal_count=107942 68685 51014 17671 25261 5109 2920 25753 23297 21874 19368 2506 5606 3691 12562 20251 12576 13762 7621 11441 1915 6141 3408 1948 448 7675
is_linear=0
shrinkage=0.00282358


Tree=11
num_leaves=27
num_cat=0
split_feature=2 0 208 148 181 113 91 238 190 162 74 187 76 137 157 121 187 198 99 184 82 199 148 135 233 24
split_gain=4710.66 1644.87 899.403 664.321 691.333 503.773 813.792 477.361 466.743 403.852 381.842 380.565 576.367 572.831 374.283 394.422 406.247 367.676 457.721 390.66 380.13 353.461 351.878 323.776 317.531 303.71
threshold=-1.0000000180025095e-35 4.3543692135609059e-05 21170.892773879819 9.3210293696578285e-05 73.969842151733232 -0.25813379861858882 0.40623862501714186 10.010560184613235 7.1504816950486804e-06 -1.3090887297759404 2.9264594403261257e-05 0.25478911422209866 0.25434580436549475 0.028636551546179879 -0.13522256402491512 0.74180116956316799 -0.059094731955503361 2.1537621360675007e-05 0.021201128648940706 4.1766506324881042e-05 1666.2813007418317 0.38562104783728895 1.1511595254848898e-05 0.1256777318233013 -0.54510713808244982 3.2299556752045953
decision_type=2 2 2 2 2 2 2 2 2 2 2 2 2 2 2 2 2 2 2 2 2 2 2 2 2 2
left_child=3 2 9 4 5 6 -1 11 -3 -2 -5 12 25 23 -11 17 -17 18 19 -16 -19 -18 -4 -14 -7 -6
right_child=1 8 22 10 7 24 -8 -9 -10 14 -12 -13 13 -15 15 16 21 20 -20 -21 -22 -23 -24 -25 -26 -27
leaf_value=0.0055694056678356118 0.0021876452206278014 0.0030149154492452607 0.0030818781576751678 0.0046424435383747194 0.00082135490789730188 -0.00063221202109118408 -0.0015388481158020455 0.0045684577288644624 -0.00010307087195104761 -0.0015288640956196413 -0.001338761995711076 0.0023319725690873734 0.0051615671139636212 -0.0014015668000729614 0.0032669292109849561 0.0043188115306300075 0.0054206242668171107 0.0051228219342257676 -0.00064522487184420047 0.0001991973249216533 -0.0021098360646752959 -0.0011879517929358104 -0.0019727929568237436 -0.0017041651402708955 0.0048783307446039178 0.0026275769020497395
leaf_weight=196.46285116672516 408.44450962543488 1140.389856338501 111.34928774833679 691.70526504516602 6340.4754869639874 92.12448251247406 368.14388713240623 286.79308319091797 575.11352729797363 3172.0577394068241 96.439266204833984 1258.2649749219418 183.34823727607727 1549.2932651937008 412.60080254077911 269.24404317140579 77.308680355548859 59.606498539447784 10162.268291503191 1665.4633814096451 1538.636686116457 375.98835170269012 5571.3065680265427 77.390442609786987 827.86374008655548 840.59569823741913
leaf_count=586 1146 3265 310 2073 19507 286 1149 861 1693 8580 301 3832 549 4834 1194 793 230 176 27763 4558 4124 1047 13806 242 2481 2556
internal_value=5.95595e-09 -0.000700803 -0.00089311 0.00139738 0.00123263 0.00303642 0.000935913 0.000978339 0.00196901 -0.000586011 0.00390822 0.00087768 0.000674024 -0.000749558 -0.000649977 -0.000458451 0.00157431 -0.00056467 -0.000398292 0.00080888 -0.00183823 -5.53962e-05 -0.00187334 0.0031177 0.00432489 0.00103296
internal_weight=38348.7 25539.8 23824.3 12808.9 12020.8 1484.59 564.607 10536.2 1715.5 18141.6 788.145 10249.4 8991.1 1810.03 17733.2 14561.1 722.541 13838.6 12240.3 2078.06 1598.24 453.297 5682.66 260.739 919.988 7181.07
internal_count=107942 68685 63727 39257 36883 4502 1735 32381 4958 49611 2374 31520 27688 5625 48465 39885 2070 37815 33515 5752 4300 1277 14116 791 2767 22063
is_linear=0
shrinkage=0.00282358


Tree=12
num_leaves=27
num_cat=0
split_feature=14 14 2 14 2 5 14 199 1 14 2 5 2 16 5 14 2 6 1 204 4 50 5 5 167 4
split_gain=69716.1 251.674 926.116 86.4649 97.7138 67.5816 32.0537 30.3184 18.1315 17.4555 162.576 16.3509 10.8433 10.756 8.35026 12.3763 27.8118 15.5051 7.84376 7.35846 6.70263 5.84723 4.90303 4.40393 4.57897 3.89477
threshold=-0.00049748150076170622 -0.00034704147553755391 -1.0000000180025095e-35 -0.00062047062771547143 -1.0000000180025095e-35 -1.3793104290962217 -0.0005246980661707492 0.4397956962944839 -0.46156792668707541 -0.00020713368416860908 8.1866860455193108e-06 1.1069711446762087 1.1227476989006392e-05 4.3209782370468025e-05 -1.9662406693503434 -0.00089177795056789714 1.0009728612203618e-05 1.6631596088409426 -0.10398454095579759 4.4221286658067667e-05 -4.9503464221543744e-05 0.061984594735321551 1.7219397859860492 1.8442774415016177 -2.6365900847875721 1.3155737300297254e-05
decision_type=8 8 2 10 2 2 10 2 2 8 2 2 2 2 2 10 2 2 2 2 2 2 2 2 2 2
left_child=3 2 -2 14 -5 8 20 18 -6 10 -3 19 -10 23 15 -1 -17 -18 -8 -4 -7 -14 -12 -13 -25 -21
right_child=1 9 11 4 5 6 7 -9 12 -11 22 13 21 -15 -16 16 17 -19 -20 25 -22 -23 -24 24 -26 -27
leaf_value=0.0053299872395156881 0.0053900302732497801 0.0024558690163607919 -0.0024569409829975444 0.0054410238576101744 0.0014718711681524584 0.0036855016733122565 0.0029170669928387837 0.00098508672138478614 0.0043406152923447829 -0.0027356361786961001 -0.002631112272205422 -0.002080504468417033 0.0018110071831479197 -0.00029274147335341322 0.0053890532418116692 0.0053542657094623816 0.0046372599862318561 0.0026579535879458233 0.0045616224700920525 -0.0021516460793351449 0.0048412874845008306 0.0033687653806603519 -0.0020607610789705067 -0.0018949517641879475 -0.00058377780552117684 -0.0014551594675678062
leaf_weight=562.91494154930115 132.41681230068207 49.602697849273682 989.35365918278694 747.09930688142776 68.891282498836517 49.238674193620682 38.324132889509201 34.350424379110336 46.48840394616127 21945.824107408524 1653.1738584637642 169.79145196080208 39.531750738620758 41.871651142835617 10234.772272109985 163.27700826525688 59.554196059703827 67.794173568487167 69.558936715126038 267.7165407538414 562.67506596446037 40.145046085119247 138.48999947309494 44.228560775518417 40.343752801418304 89.747633337974548
leaf_count=1748 413 142 2318 2329 188 145 110 92 140 59689 3847 404 109 107 31838 508 181 193 211 635 1721 117 330 106 102 219
internal_value=0 -0.00263853 -0.00163257 0.00527563 0.00468887 0.00409513 0.00447191 0.00326781 0.00263289 -0.00271361 -0.00245052 -0.00220015 0.00325798 -0.00160374 0.00536535 0.0050793 0.00458849 0.00359514 0.00398697 -0.00233082 0.00475008 0.00261053 -0.0025875 -0.00181736 -0.00128007 -0.00197924
internal_weight=38347.2 25562.6 1775.47 12784.6 1696.3 949.204 754.147 142.233 195.056 23787.1 1841.27 1643.05 126.165 296.235 11088.3 853.54 290.625 127.348 107.883 1346.82 611.914 79.6768 1791.66 254.364 84.5723 357.464
internal_count=107942 68312 4304 39630 5162 2833 2279 413 554 64008 4319 3891 366 719 34468 2630 882 374 321 3172 1866 226 4177 612 208 854
is_linear=0
shrinkage=0.0027671


Tree=13
num_leaves=27
num_cat=0
split_feature=2 208 204 0 125 27 72 160 99 150 164 26 101 92 120 28 189 79 178 159 154 150 102 150 99 83
split_gain=18818 4893.85 1286.63 638.301 400.795 386.261 359.884 332.378 311.001 256.712 309.115 304.862 266.498 253.466 242.935 240.067 235.38 225.235 224.27 221.988 216.376 216.288 213.945 442.435 205.697 336.024
threshold=1.0000000180025095e-35 19034.635937483621 5.1427976249650524e-05 4.2943697833177892e-05 110.93260320804883 0.63785806093760822 4.3779077862685282e-05 0.34788071915778113 0.044998166904635796 0.75530817352153945 1.9522651595204696 17470.711125954047 0.017493872655863611 9.5914606849104703e-06 1.6811932364414288 -0.014011647245933999 0.034608280752672228 -0.10748694868310012 -0.26872408415744459 0.050307027782933555 0.013950231111690121 0.80227756307010922 0.57480467481295816 1.4028219891163334 0.023973051074131366 -0.52474706972545981
decision_type=2 2 2 2 2 2 2 2 2 2 2 2 2 2 2 2 2 2 2 2 2 2 2 2 2 2
left_child=-1 2 7 13 -5 -6 14 8 9 18 11 15 16 20 22 19 -13 -16 -2 -11 -3 -17 23 -4 25 -15
right_child=1 3 6 4 5 -7 -8 -9 -10 10 -12 12 -14 24 17 21 -18 -19 -20 -21 -22 -23 -24 -25 -26 -27
leaf_value=-0.0027523035894181118 -0.0023605940041632519 -0.0016108738917370179 -0.00042451489015944439 0.0032731209993130689 -0.00056763240263571534 0.0032477688125664289 -0.0012807448996026169 -0.0012178341579831759 0.0049403493683316153 0.0013301479160434922 -0.0001196122127866999 0.0023823520205828964 0.0036260428843792568 -0.0016695602420624029 -0.0015905830004811449 0.0028783706155473148 -0.00019974263590698379 7.783140805643106e-05 0.00072743990975248393 0.0043666917034061023 0.0053609614545464014 0.00079120176981549732 -0.00013009016878240133 0.0019964198514808066 0.0040594356325926225 0.0037539837605006939
leaf_weight=12714.168095439672 222.69344592094421 116.89203003048897 932.58300691843033 832.5752027630806 643.0992274582386 296.21590235829353 1712.574275970459 379.07687819004059 188.16810512542725 398.750951141119 783.65873041749001 1116.8558471500874 972.77479532361031 129.36039400100708 976.13384580612183 426.62655618786812 355.65533745288849 1692.3853669166565 930.24506852030754 343.49647626280785 47.419911444187164 3477.8160351216793 2091.8771328628063 1517.0373329818249 4782.3390945792198 266.55442079901695
leaf_count=39257 687 340 2665 2074 1839 738 5010 1116 439 1072 2203 2876 2386 376 2916 1082 1013 4759 2556 820 108 9503 5938 3973 11544 652
internal_value=-1.90864e-08 0.00136514 0.000615694 0.00331575 0.00187582 0.000635936 -0.000140634 0.00131899 0.00142348 0.00134994 0.00152846 0.00171069 0.00250176 0.00379323 0.000130127 0.00129419 0.00175831 -0.000532319 0.000130095 0.00273664 0.000409662 0.00101963 0.00051952 0.00107449 0.00390061 0.00198064
internal_weight=38347 25632.9 18518.4 7114.46 1771.89 939.315 8922.59 9595.82 9216.74 9028.57 7875.63 7091.98 2445.29 5342.57 7210.02 4646.69 1472.51 2668.52 1152.94 742.247 164.312 3904.44 4541.5 2449.62 5178.25 395.915
internal_count=107942 68685 51014 17671 4651 2577 25261 25753 24637 24198 20955 18752 6275 13020 20251 12477 3889 7675 3243 1892 448 10585 12576 6638 12572 1028
is_linear=0
shrinkage=0.0027671


Tree=14
num_leaves=27
num_cat=0
split_feature=2 176 208 176 134 212 81 74 227 120 158 147 127 191 216 132 120 139 220 183 118 149 127 127 62 235
split_gain=4682.25 1839.36 946.907 930.774 594.038 529.77 509.187 484.79 482.365 477.489 483.733 406.341 467.815 398.918 394.958 473.721 416.369 370.042 390.084 354.275 346.257 396.037 338.062 330.301 323.919 316.554
threshold=1.0000000180025095e-35 4.93177438047584 21170.892773879819 4.93177438047584 8.381156324348797e-06 16.269860438792694 0.06990763066546346 2.701741742332276e-05 -0.71776725055639268 -0.37655569741352929 0.8512802790036097 0.4494929216506926 -0.67998400986638385 0.075740924842431126 0.019785987903665907 -0.020191214779889541 -0.30016474112565911 0.9358307346104201 1.8586789713510325 0.24495240553519917 0.25144301191798674 1.4807409577880228 -1.1428745166277545 -0.99460901353641973 -0.86098836360806585 0.088181031320896885
decision_type=2 2 2 2 2 2 2 2 2 2 2 2 2 2 2 2 2 2 2 2 2 2 2 2 2 2
left_child=3 2 14 4 8 7 -5 -3 9 -1 17 12 -12 -13 15 19 -16 18 22 -2 -14 -22 -11 -18 -19 -23
right_child=1 5 -4 6 -6 -7 -8 -9 -10 10 11 13 20 -15 16 -17 23 24 -20 -21 21 25 -24 -25 -26 -27
leaf_value=0.0043314872826338323 -0.0009401306477028168 0.0032049064093588931 -0.0019593484313708016 0.0021233222689223999 -0.0010250668360230351 2.4817697110964633e-05 0.0051163458810416377 -0.00074298555431470117 0.0024715432432801908 0.0031003402407332103 -0.00086359512573583222 0.0032074727022753263 0.0027228119566522747 -0.00043753749762427609 0.0039338759762730796 -0.0016583564944788176 -0.0020860762536791854 -0.0025500389774486404 0.0020797219315262482 0.00077716686142125803 -0.00033246122166221114 -0.0025900880143780269 -0.0011609981210244388 -0.00013437971568054796 0.0047201422500070343 0.004430280058878259
leaf_weight=305.79323214292526 2752.9977390170097 1304.9653729498386 5367.2867660522461 1312.0814345777035 964.22022077441216 1155.5517130792141 651.92188802361488 290.61336517333984 1978.4081675708294 152.62588599324226 927.47601836919785 1236.6117035746574 967.43313729763031 281.67024046182632 180.99125099182129 4585.9716770350933 725.38402616977692 60.49244612455368 407.82930546998978 1380.3415992259979 989.52219000458717 59.475120961666107 2048.5705711245537 7786.3080351054668 202.15287235379219 271.33425655961037
leaf_count=918 7535 3755 13321 3995 3003 3149 1942 855 6014 462 2883 3742 2936 873 526 12549 1949 190 1244 3771 3066 187 6383 21275 605 814
internal_value=1.42646e-08 -0.000685069 -0.000943205 0.0013646 0.00104731 0.00145183 0.00311745 0.00248511 0.00124947 0.000943711 0.000807235 0.00135076 0.000793354 0.00253054 -0.000629921 -0.00104603 -0.00021245 -8.85177e-05 -0.000403975 -0.000366495 0.00146538 0.000543387 -0.000864714 -0.00030085 0.00303865 0.00316222
internal_weight=38348 25530.4 22779.3 12817.6 10853.6 2751.13 1964 1595.58 9889.4 7910.99 7605.19 4733.52 3215.24 1518.28 17412 8719.31 8692.68 2871.67 2609.03 4133.34 2287.76 1320.33 2201.2 8511.69 262.645 330.809
internal_count=107942 68685 60926 39257 33320 7759 5937 4610 30317 24303 23385 14501 9886 4615 47605 23855 23750 8884 8089 11306 7003 4067 6845 23224 795 1001
is_linear=0
shrinkage=0.0027671


Tree=15
num_leaves=27
num_cat=0
split_feature=14 14 44 44 44 14 13 12 14 14 184 14 4 208 136 14 220 138 44 6 12 57 9 206 12 6
split_gain=69359.8 251.367 370.835 133.985 236 85.3543 29.0811 58.7116 20.199 17.4655 16.5307 15.9892 14.286 11.8591 9.63204 8.19562 7.66109 7.11304 6.48505 6.33045 6.21718 8.03868 5.61349 5.37371 4.80926 4.26948
threshold=-0.00049748150076170622 -0.00034704147553755391 -1.0000000180025095e-35 1.0000000180025095e-35 1.6572682271750472 -0.00062047062771547143 -0.46182684356393044 -0.98081094307946104 -0.00056251673681627379 -0.00020713368416860908 4.1505391746391582e-05 -0.0005246980661707492 2.3541308109997775e-05 21582.775916202001 1.8358778442818646 -0.00078823594699779461 1.2282061714880868 14820.784140733615 -1.0000000180025095e-35 1.5527060031890871 -0.64563811211094901 0.22423124352954396 0.422983998801231 0.82831465365208279 1.0536456217080918 0.98938511105531035
decision_type=8 8 2 2 2 10 2 2 10 8 2 8 2 2 2 10 2 2 2 2 2 2 2 2 2 2
left_child=5 2 -2 14 -5 15 7 8 23 16 -6 18 20 -13 -4 -1 -3 -10 -8 -17 -12 -22 -20 -7 -16 -24
right_child=1 9 3 4 10 6 11 -9 17 -11 12 13 -14 -15 24 19 -18 -19 22 -21 21 -23 25 -25 -26 -27
leaf_value=0.0052767697465841128 0.0051767373044775229 -0.0025672308419523657 -0.0023201781137351268 0.0052672337508820359 -0.002138278913016808 0.0044856705894936785 0.0053084509458589486 0.0051255837953446621 0.00083669025237742697 -0.0026781654234013731 -0.0018304326199629678 0.0043478071882772102 0.00067192542880125349 0.0026337299066555909 -0.0019388940229930647 0.0052018402389163087 -0.0022050999945054423 0.0024934643464774304 0.0048903724152319188 0.0048725197496884646 9.9187936636337132e-05 -0.001535463222235007 0.0050435608425315687 0.00299901138008934 -0.0010794462018043542 0.0040607875258295853
leaf_weight=8876.8524780273438 56.880367934703827 979.60988238453865 1054.7843715548515 47.862551838159561 94.510169744491577 34.235027372837067 246.22738748788834 134.44827225804329 39.097470253705978 21922.908197104931 57.559112012386322 200.1722366809845 40.293742746114731 37.983667373657227 273.14799234271049 1379.9295386075974 859.76867291331291 39.460167169570923 706.28455370664597 853.29198849201202 45.841806620359421 40.785589575767517 55.695909738540649 51.356738984584808 62.589361548423767 154.09961938858032
leaf_count=27574 177 2282 2483 149 224 104 766 416 104 59689 138 604 107 108 653 4277 2037 112 2168 2617 119 99 172 148 155 460
internal_value=0 -0.00258298 -0.00159742 -0.00182334 -0.000260007 0.00514943 0.00457853 0.00379374 0.00269366 -0.00265656 -0.00121525 0.00474491 -0.000738142 0.00407877 -0.00219055 0.00523669 -0.00239854 0.00168213 0.0048803 0.00507671 -0.0011371 -0.000667364 0.00476347 0.00360767 -0.00178095 0.00432955
internal_weight=38345.7 25536.5 1774.26 1717.37 326.853 12809.1 1699.06 298.598 164.149 23762.3 278.99 1400.46 184.48 238.156 1390.52 11110.1 1839.38 78.5576 1162.31 2233.22 144.187 86.6274 916.08 85.5918 335.737 209.796
internal_count=107942 68312 4304 4127 836 39630 5162 884 468 64008 687 4278 463 712 3291 34468 4319 216 3566 6894 356 218 2800 252 808 632
is_linear=0
shrinkage=0.00271176


Tree=16
num_leaves=27
num_cat=0
split_feature=2 194 130 236 230 125 26 153 92 125 210 149 116 107 119 30 132 26 135 124 66 108 108 78 168 106
split_gain=18727.9 4607.98 1198.11 508.573 463.282 384.054 371.141 334.89 324.597 336.364 330.011 293.758 271.209 309.077 263.593 254.822 248.749 299.32 247.571 225.659 219.037 210.262 208.679 207.488 225.557 207.125
threshold=-1.0000000180025095e-35 19487.26818176443 1.4260385135746022e-05 1.6540625060838283 0.27714948581392107 107.71315069461446 13760.067895889284 14.24166327437249 9.5914606849104703e-06 122.69983033864237 0.016879700545122157 1.4517138668503586 -0.02097485530550355 -0.028357535866200375 -0.71613221465668153 5.3012071360175694e-09 0.15656631045475181 17470.711125954047 1.0000000180025095e-35 -0.33774522337813701 -1.2407675152766806 0.63010967263442941 0.70535956265337674 5.1412124182833223e-06 0.46902494943489775 0.47218642564563956
decision_type=2 2 2 2 2 2 2 2 2 2 2 2 2 2 2 2 2 2 2 2 2 2 2 2 2 2
left_child=-1 2 5 8 -5 16 12 18 15 -10 -11 19 13 21 -9 -3 17 -2 20 -6 -7 -4 -8 -19 -25 -12
right_child=1 3 6 4 11 7 22 14 9 10 25 -13 -14 -15 -16 -17 -18 23 -20 -21 -22 -23 -24 24 -26 -27
leaf_value=-0.0026936155675852604 0.0015287261827178545 -0.0020736377657167666 0.0024206466762197142 0.0042384468188473691 0.00016859470171708574 0.002146439137533292 0.0020610906659929919 0.0038446006456150632 0.00464999210792691 -0.00092986461397114115 0.0040614139571244446 0.0046796652236006531 -0.00084586332595225388 -0.00055304364929866477 -8.0896161949933233e-05 0.0049286717045880727 0.00028855545706631461 0.003649373707660161 0.0012504257357706936 0.0020991409554697066 -0.00073936472056193125 0.0003395866462105329 0.00035711256230091734 -0.00010241830985706375 0.0035829082065373433 0.00043253096235256312
leaf_weight=12696.287338256836 2889.4212620854378 113.80585372447968 563.68774747848511 846.84538871049881 566.78131166100502 221.07833981513977 736.93863773345947 381.15420946478844 2358.3365814685822 150.99346902966499 664.92929834127426 265.01508697867393 3847.3376724720001 1795.893990278244 186.80923417210579 56.813391923904419 679.7410569190979 1099.7813192903996 1149.817440778017 2081.969347178936 1515.9428063333035 973.98728919029236 1868.9931557178497 274.85787105560303 218.55302548408508 140.06106367707253
leaf_count=39257 7665 336 1453 2011 1574 576 1920 926 5515 437 1597 621 11173 5157 525 131 1895 2680 3100 5417 4377 2694 5196 778 538 393
internal_value=-2.97703e-08 0.00133327 0.00061205 0.00316506 0.00247289 0.00134938 -3.71341e-05 0.00064933 0.00391174 0.00409955 0.00274061 0.00195918 -0.000355312 0.000210675 0.00255187 0.000264879 0.00181776 0.00204958 0.000274541 0.00168623 -0.000371275 0.001103 0.000839307 0.00299353 0.00153041 0.00343019
internal_weight=38345.8 25649.5 18404 7245.55 3760.61 8617.16 9786.84 3454.8 3484.94 3314.32 955.984 2913.77 7180.91 3333.57 567.963 170.619 5162.35 4482.61 2886.84 2648.75 1737.02 1537.68 2605.93 1593.19 493.411 804.99
internal_count=107942 68685 50653 18032 9623 23060 27593 9504 8409 7942 2427 7612 20477 9304 1451 467 13556 11661 8053 6991 4953 4147 7116 3996 1316 1990
is_linear=0
shrinkage=0.00271176


Tree=17
num_leaves=27
num_cat=0
split_feature=2 176 194 176 134 226 126 160 80 90 160 109 2 41 210 98 154 150 162 228 34 228 0 97 221 226
split_gain=4654.62 1829.37 1011.85 923.13 590.384 533.549 503.538 437.36 400.695 455.27 393.93 430.755 411.141 400.17 374.043 372.294 370.629 525.837 459.879 466.542 443.947 430.375 364.241 417.944 398.938 368.551
threshold=1.0000000180025095e-35 4.93177438047584 18892.009944180903 4.93177438047584 8.381156324348797e-06 130.35302022836976 -1.068181074913723 -0.025330615801870966 4.6431130292839518 1.4527246882872085 0.09570172402531453 0.071961481718694612 -1.0164500730376608e-05 17.429742748021912 0.016308672179589898 0.010674690662161236 0.018325783740451133 0.76225809986082238 -0.63078939708314474 3.5828464051369973 1.1731498284876076 2.4128264070766829 4.3543692135609059e-05 8.8539472984632113 -0.0081678491601940746 136.41067624835742
decision_type=2 2 2 2 2 2 2 2 2 2 2 2 2 2 2 2 2 2 2 2 2 2 2 2 2 2
left_child=3 2 6 4 7 -3 -2 16 9 -5 11 -9 13 -12 -15 -7 18 -18 21 -20 -21 -1 23 25 -24 -8
right_child=1 5 -4 8 -6 15 22 10 -10 -11 12 -13 -14 14 -16 -17 17 -19 19 20 -22 -23 24 -25 -26 -27
leaf_value=0.0040612954999446373 0.0022610637492692241 0.00395239161567797 -0.0017867368766757302 0.0037456834486540285 -0.0010023186645389971 0.0032496776472747549 0.0023135827479846449 0.0037144279936959031 -0.00073813533004986245 -0.0026496239724311979 0.00051157097947345865 -0.00024187710892988455 0.0032958866888555889 0.0039986591855056802 -0.0025350505476464552 0.00034795529518092712 -0.00035998909401895068 0.0040320361915733476 -0.00078095162285529035 -0.0016005886522185841 0.0026852205063906363 -0.0014170476643253914 -0.00214889814435001 -0.0011741286659688259 0.0022351685109095482 -0.00040365263507265826
leaf_weight=388.6639923453331 456.35470366477966 499.55758309364319 6926.669089525938 1695.4783396422863 963.71849209070206 393.63606852293015 387.66677469015121 1123.9697854816914 186.05014419555664 85.438019305467606 2762.2316845655441 246.11972713470459 643.74701634049416 457.15504094958305 74.413463026285172 1859.852021753788 337.03624892234802 492.56421047449112 2328.6857747733593 243.43544772267342 653.31064283847809 144.02195340394974 202.9066022336483 7464.5538917183876 609.69252493977547 6720.2994910776615
leaf_count=1167 1281 1453 17465 5090 3003 1131 1079 3381 578 269 8504 762 1942 1373 234 5175 1045 1479 7238 761 1981 450 591 20389 1727 18394
internal_value=2.31175e-08 -0.000669722 -0.000922203 0.0013327 0.00102299 0.00141788 -0.000544131 0.00122033 0.00304201 0.00343773 0.00175039 0.00300295 0.00131428 0.000926551 0.00308027 0.000855502 0.000606926 0.00224692 0.000244572 -0.000140823 0.00152042 0.00257765 -0.00062743 -0.000725986 0.00113867 -0.000255268
internal_weight=38347.2 25521.2 22768.1 12826 10859.1 2753.05 15841.5 9895.35 1966.97 1780.92 5307.64 1370.09 3937.55 3293.8 531.569 2253.49 4587.72 829.6 3758.12 3225.43 896.746 532.686 15385.1 14572.5 812.599 7107.97
internal_count=107942 68685 60926 39257 33320 7759 43461 30317 5937 5359 16196 4143 12053 10111 1607 6306 14121 2524 11597 9980 2742 1617 42180 39862 2318 19473
is_linear=0
shrinkage=0.00271176


Tree=18
num_leaves=27
num_cat=0
split_feature=14 14 58 58 30 14 5 1 14 14 5 128 4 5 118 192 5 162 210 30 5 5 14 65 177 204
split_gain=69013.3 251.031 329.149 149.496 256.751 84.365 48.5945 42.698 20.6055 17.4694 16.9221 16.7421 15.8106 13.937 12.0896 10.7794 9.63304 9.56933 8.99267 8.37214 9.83121 8.28262 12.1695 7.0427 6.84533 5.66187
threshold=-0.00049748150076170622 -0.00034704147553755391 -1.0000000180025095e-35 1.0000000180025095e-35 2.5285777412363915e-07 -0.00062047062771547143 -1.3793104290962217 -0.46156792668707541 -0.0005246980661707492 -0.00020713368416860908 1.7219397859860492 4.1470528065396099e-05 2.3541308109997775e-05 1.1069711446762087 1.0841997034181503 1.4400365177878109 -1.0500404834747312 -0.23264173385030928 0.015897994430150424 6.2953476075883997e-09 -2.3701075225186843 -1.9662406693503434 -0.00089177795056789714 0.33193522280983917 -0.26652256523221818 4.4794247841570358e-05
decision_type=8 8 2 2 2 10 2 2 10 8 2 2 2 2 2 2 2 2 2 2 2 2 10 2 2 2
left_child=5 2 -2 13 -5 21 7 17 -8 10 -3 -6 16 25 -10 -12 -13 -7 -15 -9 -21 22 -1 -18 -17 -4
right_child=1 9 3 4 11 6 8 19 14 -11 15 12 -14 18 -16 24 23 -19 -20 20 -22 -23 -24 -25 -26 -27
leaf_value=0.0050769755507289486 0.0050358746414793341 -0.0024250124499140763 -0.0023671036540937182 0.005146292310429304 -0.0020928825932515754 0.0027572446225910593 0.0048379966026840067 0.0049883906825399565 0.0042957379026952762 -0.0026219538848137199 -0.0022584659686138851 -0.0021603169450160257 0.00072780840262899843 -0.00076051687923706199 0.0028386214431055856 -0.0015553308003445605 -6.4657908076033531e-05 0.00085316547163420025 -0.0018932506904899323 0.0025886135046576057 0.0041172834233259969 0.005134311445341668 0.0043719306312482607 -0.0015032375128991265 -1.9902084191973556e-05 -0.0018920199956667203
leaf_weight=565.13605761528015 51.202750325202942 1685.3137879371643 905.23070546984673 53.430168747901917 94.430004209280014 36.21897229552269 1148.3124465942383 58.6126489341259 181.9610076546669 21900.31409996748 69.594244480133057 44.079953610897064 40.947461575269699 72.921155393123627 56.856150329113007 42.864571124315262 58.968865275382996 40.173215121030807 167.47246578335762 42.196739017963409 137.45199266076088 10274.364819049835 291.64879679679871 40.767415642738342 39.781900852918625 243.64973145723343
leaf_count=1748 159 3948 2124 166 224 104 3526 181 549 59689 164 104 109 183 163 104 152 107 401 120 412 31838 882 99 103 583
internal_value=0 -0.00252866 -0.00156315 -0.0017609 -0.000159761 0.00502675 0.00447092 0.00351605 0.00468663 -0.00260077 -0.00234776 -0.00118184 -0.000712161 -0.002144 0.00395369 -0.0014878 -0.00112705 0.00177172 -0.00155289 0.00407137 0.00376395 0.00511169 0.00483868 -0.000661276 -0.000826079 -0.00226709
internal_weight=38343.9 25511 1773.1 1721.9 332.624 12832.9 1701.78 314.654 1387.13 23737.9 1837.55 279.194 184.764 1389.27 238.817 152.241 143.816 76.3922 240.394 238.261 179.649 11131.1 856.785 99.7363 82.6465 1148.88
internal_count=107942 68312 4304 4145 854 39630 5162 924 4238 64008 4319 688 464 3291 712 371 355 211 584 713 532 34468 2630 251 207 2707
is_linear=0
shrinkage=0.00265753


Tree=19
num_leaves=27
num_cat=0
split_feature=2 14 14 14 14 1 14 14 2 14 200 82 14 9 6 130 9 186 4 120 14 2 14 219 1 6
split_gain=18640.8 16482.7 32413.9 156.779 124.124 40.5033 28.4401 32.0025 27.7491 23.2555 24.1713 20.0489 19.278 14.1914 13.6928 13.1698 12.92 10.9287 10.6398 10.0002 9.76837 12.0664 9.32359 9.24633 9.00803 8.24531
threshold=-1.0000000180025095e-35 0.00050069271889028233 -0.00049748150076170622 -0.00062047062771547143 0.00062100454540482046 -0.46156792668707541 0.00037296023981431839 -0.00034704147553755391 1.1865524811582874e-05 -0.0005246980661707492 2.436115229287898e-06 11879.449260967574 -0.00082078993978056179 -0.62110149860382069 1.3866671255180101 1.3659343844136144e-05 0.422983998801231 1.3852428730211211e-05 -5.448348565550986e-05 -0.054520969964090171 0.00080020801475228387 1.6632548977213449e-05 -0.00053957980658035382 -0.020897024605838251 0.51165908356326273 0.98938511105531035
decision_type=2 8 10 10 8 2 10 10 2 10 2 2 8 2 2 2 2 2 2 2 8 2 10 2 2 2
left_child=-1 2 3 12 8 11 7 17 -3 16 -11 -5 -2 23 -14 -8 -7 -4 -17 -15 21 -6 -13 -10 -23 -18
right_child=1 4 6 5 20 9 15 -9 13 10 -12 22 14 19 -16 18 25 -19 -20 -21 -22 24 -24 -25 -26 -27
leaf_value=-0.0026362914791909545 -0.0025863802074511315 -0.0019830793157962416 0.004816119525460281 0.001117896199970925 -0.002441677967100445 -0.0020237279692700834 0.0048153504701785666 0.0050836167892447486 -0.00094945907382975952 0.0012732258822102706 -0.0012458160933851233 -0.0012808306542670864 -0.0024668574010348076 -0.0024771331149461692 -0.001896518618197411 0.003007552720883109 -0.0022003051096830466 0.0043067077723815397 0.0043717368439243186 -0.0011456979923452329 -0.0025930258793323926 -0.0019809344944942851 0.00023375577166833631 0.00058836284811697144 -0.00053100674017184514 -0.00066094399930080898
leaf_weight=12678.830680847168 4261.9224815368652 439.57546484470367 1206.9951736330986 55.730216681957245 936.73981261253357 483.65104177594185 809.13684248924255 9830.7696182131767 57.205900520086288 34.926902204751968 109.17638418078423 86.316689014434814 664.81000524759293 45.514823496341705 571.15136331319809 49.197945713996887 33.456202059984207 459.98888951539993 436.98416101932526 357.37066987156868 4331.054357200861 176.50362610816956 41.643258273601532 51.99899286031723 37.651180267333984 96.131089866161346
leaf_count=39257 13456 1290 2795 153 2793 1493 1867 22471 163 95 328 259 2086 136 1759 122 104 1096 1031 1024 12996 520 118 141 106 283
internal_value=-4.09784e-08 0.00130227 0.00253405 -0.00232878 -0.00237967 -0.00132512 0.00498167 0.0050247 -0.00149209 -0.00159646 -0.000630173 -0.000202876 -0.00250061 -0.00106867 -0.00220411 0.00459895 -0.00182265 0.00467642 0.00423577 -0.00129893 -0.00253374 -0.0023098 -0.000782701 -0.000213845 -0.00172893 -0.00106712
internal_weight=38344.4 25665.6 19232 6438.92 6433.61 941.032 12793.1 11497.8 951.666 757.342 144.103 183.69 5497.88 512.09 1235.96 1295.32 613.238 1666.98 486.182 402.885 5481.95 1150.89 127.96 109.205 214.155 129.587
internal_count=107942 68685 49516 20134 19169 2833 29382 26362 2754 2303 423 530 17301 1464 3845 3020 1880 3891 1153 1160 16415 3419 377 304 626 387
is_linear=0
shrinkage=0.00265753


Tree=20
num_leaves=27
num_cat=0
split_feature=14 14 2 14 2 5 14 2 5 9 2 74 205 1 5 2 14 6 22 68 3 151 14 5 5 14
split_gain=69945.4 260.012 932.931 65.2412 97.3729 44.4722 19.1542 111.283 18.0704 17.1679 11.2962 9.66406 7.6688 7.37397 7.29024 12.4317 21.8295 16.4641 6.41219 8.22675 6.18058 5.18629 4.76836 4.18799 3.98841 3.35594
threshold=0.00050069271889028233 0.00033824495337898488 1.0000000180025095e-35 0.00062100454540482046 9.7520810413698217e-06 1.2591524787556447 0.00021696680418114851 8.1866860455193108e-06 -1.339939195290583 -0.51021779460466077 1.6908461475395601e-05 1.3720404662334973e-05 1.3325437404384612 1.0000000180025095e-35 1.8442774415016177 1.2458391665859382e-05 0.0010442283403543997 2.7800300631222536 -5.004557069310015e-07 -0.95852367133050631 1.5256323609071083 0.39297610235655517 0.00080020801475228387 -2.3701075225186843 -0.16422413372804545 0.00043514207409318099
decision_type=8 8 2 8 2 2 8 2 2 2 2 2 2 2 2 2 8 2 2 2 2 2 10 2 2 8
left_child=1 6 -3 4 -2 10 -1 -8 12 -7 -6 -10 -4 -11 -5 -16 17 22 -14 -20 -15 -13 -17 -9 -12 -23
right_child=3 2 8 14 5 9 7 23 11 13 24 21 18 20 15 16 -18 -19 19 -21 -22 25 -24 -25 -26 -27
leaf_value=-0.0026243035346081478 0.005158244749742056 0.0051853291690598389 -0.0022756177320665586 0.005186261953644751 0.0044538649251195592 0.0015678843754693974 0.00093086453724266507 -0.0016290429457267754 -0.0023863476629937923 0.0043191082799328324 0.0038981849655004008 -0.0010485645866303058 -0.0016311225831011035 0.0020052819328173887 0.0051551691132428589 0.003574261946644564 0.0050530621988455707 0.0021950087886898613 -0.0014285108819957308 0.00015393285726876665 0.0034438860187362814 -0.0021837348704358056 0.0048702200957671422 -0.0024995666098108706 0.0027563336090158444 -0.001651295695351276
leaf_weight=22411.740109831095 974.87305295467377 133.75523114204407 60.978217780590057 10048.335293501616 449.80660173296928 60.062141925096512 70.692941904067993 45.027158439159393 903.79227918386459 38.547548085451126 64.514430940151215 48.025785326957703 104.85151591897011 38.484999239444733 624.56635320186615 48.298536390066147 205.30999112129211 40.781362861394882 46.426585167646408 44.250680714845657 57.605652809143066 267.87538385391235 50.154148757457733 1320.3236771225929 43.384258836507797 143.81725487112999
leaf_count=62595 2895 398 143 29855 1312 160 188 108 2110 112 185 117 251 104 1853 137 608 111 112 113 163 629 148 3071 120 344
internal_value=3.20532e-08 -0.00253231 -0.00154378 0.00508695 0.00460128 0.00387769 -0.00260499 -0.00230297 -0.00210095 0.00277161 0.00426175 -0.00222365 -0.00144629 0.003301 0.00516305 0.00492082 0.00449171 0.00365391 -0.00118155 -0.000652971 0.00287879 -0.00190187 0.00424725 -0.00247134 0.00345079 -0.00199979
internal_weight=38346.3 25601.6 1753.77 12744.7 1727.28 752.406 23847.8 1436.04 1620.02 194.7 557.705 1363.51 256.507 134.638 11017.4 969.11 344.544 139.234 195.529 90.6773 96.0907 459.718 98.4527 1365.35 107.899 411.693
internal_count=107942 70179 4217 37763 5051 2156 65962 3367 3819 539 1617 3200 619 379 32712 2857 1004 396 476 225 267 1090 285 3179 305 973
is_linear=0
shrinkage=0.00265753


end of trees

feature_importances:
price_change_lag1=88
bid_ask_slope=46
price_momentum=36
volatility_ratio=18
depth_imbalance=13
flow_toxicity=8
relative_spread_skew120=8
pressure_change_rate=7
relative_spread_kurt120=7
flow_toxicity_kurt600=7
weighted_price_depth=6
liquidity_imbalance=6
bid_ask_slope_ma600=6
bid_ask_slope_ma1800=6
volatility_ratio_ma1800=6
flow_toxicity_kurt1800=6
relative_spread_ma120=5
vpin_ma600=5
depth_pressure_ratio_std600=5
volatility_ratio_std1800=5
price_momentum_kurt1800=5
bid_ask_slope_ma3600=5
vpin_std3600=5
relative_spread=4
vpin_ma120=4
relative_spread_std120=4
pressure_change_rate_std600=4
flow_toxicity_skew600=4
pressure_change_rate_kurt600=4
orderbook_gradient_kurt600=4
relative_spread_ma3600=4
flow_toxicity_std3600=4
price_momentum_kurt3600=4
depth_imbalance_std120=3
relative_spread_ma600=3
flow_toxicity_ma600=3
flow_toxicity_std600=3
price_momentum_skew600=3
relative_spread_kurt600=3
weighted_price_depth_kurt600=3
depth_pressure_ratio_kurt600=3
depth_imbalance_ma1800=3
flow_toxicity_ma1800=3
price_momentum_ma1800=3
pressure_change_rate_std1800=3
weighted_price_depth_skew1800=3
flow_toxicity_skew1800=3
volatility_ratio_skew1800=3
orderbook_gradient_skew1800=3
vpin_ma3600=3
orderbook_gradient_std3600=3
relative_spread_kurt3600=3
pressure_change_rate_ma120=2
bid_ask_slope_std120=2
liquidity_imbalance_std120=2
pressure_change_rate_std120=2
weighted_price_depth_ma600=2
ofi_ma600=2
orderbook_gradient_std600=2
depth_imbalance_skew600=2
volatility_ratio_skew600=2
volatility_ratio_kurt600=2
relative_spread_ma1800=2
weighted_price_depth_ma1800=2
vpin_ma1800=2
orderbook_gradient_ma1800=2
depth_pressure_ratio_ma1800=2
flow_toxicity_std1800=2
price_momentum_std1800=2
ofi_std1800=2
orderbook_gradient_std1800=2
bid_ask_slope_skew1800=2
pressure_change_rate_skew1800=2
orderbook_gradient_kurt1800=2
order_book_pressure_ma3600=2
depth_imbalance_std3600=2
bid_ask_slope_std3600=2
liquidity_imbalance_std3600=2
price_momentum_std3600=2
relative_spread_skew3600=2
weighted_price_depth_skew3600=2
volatility_ratio_skew3600=2
ofi_skew3600=2
depth_imbalance_kurt3600=2
bid_ask_slope_kurt3600=2
orderbook_gradient_kurt3600=2
order_book_pressure=1
liquidity_imbalance_ma120=1
flow_toxicity_ma120=1
volatility_ratio_ma120=1
orderbook_gradient_ma120=1
order_book_pressure_std120=1
weighted_price_depth_std120=1
flow_toxicity_skew120=1
price_momentum_skew120=1
depth_pressure_ratio_skew120=1
weighted_price_depth_kurt120=1
price_momentum_kurt120=1
volatility_ratio_kurt120=1
ofi_kurt120=1
vpin_kurt120=1
depth_imbalance_ma600=1
price_momentum_ma600=1
volatility_ratio_ma600=1
pressure_change_rate_ma600=1
relative_spread_std600=1
order_book_pressure_std600=1
weighted_price_depth_std600=1
liquidity_imbalance_std600=1
volatility_ratio_std600=1
relative_spread_skew600=1
bid_ask_slope_skew600=1
ofi_skew600=1
vpin_skew600=1
pressure_change_rate_skew600=1
depth_pressure_ratio_skew600=1
bid_ask_slope_kurt600=1
order_book_pressure_kurt600=1
liquidity_imbalance_kurt600=1
price_momentum_kurt600=1
vpin_kurt600=1
liquidity_imbalance_ma1800=1
ofi_ma1800=1
pressure_change_rate_ma1800=1
relative_spread_std1800=1
liquidity_imbalance_std1800=1
vpin_std1800=1
depth_pressure_ratio_std1800=1
depth_imbalance_skew1800=1
order_book_pressure_skew1800=1
liquidity_imbalance_skew1800=1
depth_imbalance_kurt1800=1
bid_ask_slope_kurt1800=1
order_book_pressure_kurt1800=1
liquidity_imbalance_kurt1800=1
volatility_ratio_kurt1800=1
ofi_kurt1800=1
pressure_change_rate_kurt1800=1
depth_pressure_ratio_kurt1800=1
depth_imbalance_ma3600=1
liquidity_imbalance_ma3600=1
flow_toxicity_ma3600=1
price_momentum_ma3600=1
volatility_ratio_ma3600=1
orderbook_gradient_ma3600=1
relative_spread_std3600=1
weighted_price_depth_std3600=1
volatility_ratio_std3600=1
pressure_change_rate_std3600=1
order_book_pressure_skew3600=1
flow_toxicity_skew3600=1
price_momentum_skew3600=1
orderbook_gradient_skew3600=1
order_book_pressure_kurt3600=1
weighted_price_depth_kurt3600=1
liquidity_imbalance_kurt3600=1
ofi_kurt3600=1
vpin_kurt3600=1

parameters:
[boosting: gbdt]
[objective: multiclass]
[metric: multi_logloss,multi_error]
[tree_learner: serial]
[device_type: gpu]
[data_sample_strategy: goss]
[data: ]
[valid: ]
[num_iterations: 100]
[learning_rate: 0.000967791]
[num_leaves: 27]
[num_threads: 0]
[seed: 0]
[deterministic: 0]
[force_col_wise: 1]
[force_row_wise: 0]
[histogram_pool_size: -1]
[max_depth: -1]
[min_data_in_leaf: 100]
[min_sum_hessian_in_leaf: 0.001]
[bagging_fraction: 1]
[pos_bagging_fraction: 1]
[neg_bagging_fraction: 1]
[bagging_freq: 0]
[bagging_seed: 3]
[bagging_by_query: 0]
[feature_fraction: 0.6]
[feature_fraction_bynode: 1]
[feature_fraction_seed: 2]
[extra_trees: 0]
[extra_seed: 6]
[early_stopping_round: 0]
[early_stopping_min_delta: 0]
[first_metric_only: 0]
[max_delta_step: 0]
[lambda_l1: 0.2]
[lambda_l2: 0.2]
[linear_lambda: 0]
[min_gain_to_split: 0.1]
[drop_rate: 0.1]
[max_drop: 50]
[skip_drop: 0.5]
[xgboost_dart_mode: 0]
[uniform_drop: 0]
[drop_seed: 4]
[top_rate: 0.2]
[other_rate: 0.1]
[min_data_per_group: 100]
[max_cat_threshold: 32]
[cat_l2: 10]
[cat_smooth: 10]
[max_cat_to_onehot: 4]
[top_k: 20]
[monotone_constraints: ]
[monotone_constraints_method: basic]
[monotone_penalty: 0]
[feature_contri: ]
[forcedsplits_filename: ]
[refit_decay_rate: 0.9]
[cegb_tradeoff: 1]
[cegb_penalty_split: 0]
[cegb_penalty_feature_lazy: ]
[cegb_penalty_feature_coupled: ]
[path_smooth: 0.5]
[interaction_constraints: ]
[verbosity: 1]
[saved_feature_importance_type: 0]
[use_quantized_grad: 0]
[num_grad_quant_bins: 4]
[quant_train_renew_leaf: 0]
[stochastic_rounding: 1]
[linear_tree: 0]
[max_bin: 127]
[max_bin_by_feature: ]
[min_data_in_bin: 3]
[bin_construct_sample_cnt: 200000]
[data_random_seed: 1]
[is_enable_sparse: 1]
[enable_bundle: 1]
[use_missing: 1]
[zero_as_missing: 0]
[feature_pre_filter: 1]
[pre_partition: 0]
[two_round: 0]
[header: 0]
[label_column: ]
[weight_column: ]
[group_column: ]
[ignore_column: ]
[categorical_feature: ]
[forcedbins_filename: ]
[precise_float_parser: 0]
[parser_config_file: ]
[objective_seed: 5]
[num_class: 3]
[is_unbalance: 0]
[scale_pos_weight: 1]
[sigmoid: 1]
[boost_from_average: 1]
[reg_sqrt: 0]
[alpha: 0.9]
[fair_c: 1]
[poisson_max_delta_step: 0.7]
[tweedie_variance_power: 1.5]
[lambdarank_truncation_level: 30]
[lambdarank_norm: 1]
[label_gain: ]
[lambdarank_position_bias_regularization: 0]
[eval_at: ]
[multi_error_top_k: 1]
[auc_mu_weights: ]
[num_machines: 1]
[local_listen_port: 12400]
[time_out: 120]
[machine_list_filename: ]
[machines: ]
[gpu_platform_id: -1]
[gpu_device_id: -1]
[gpu_use_dp: 0]
[num_gpu: 1]

end of parameters

pandas_categorical:null
